{"learner":{"attributes":{"scikit_learn":"{\"_estimator_type\": \"regressor\"}"},"feature_names":[],"feature_types":[],"gradient_booster":{"model":{"gbtree_model_param":{"num_parallel_tree":"1","num_trees":"200"},"iteration_indptr":[0,1,2,3,4,5,6,7,8,9,10,11,12,13,14,15,16,17,18,19,20,21,22,23,24,25,26,27,28,29,30,31,32,33,34,35,36,37,38,39,40,41,42,43,44,45,46,47,48,49,50,51,52,53,54,55,56,57,58,59,60,61,62,63,64,65,66,67,68,69,70,71,72,73,74,75,76,77,78,79,80,81,82,83,84,85,86,87,88,89,90,91,92,93,94,95,96,97,98,99,100,101,102,103,104,105,106,107,108,109,110,111,112,113,114,115,116,117,118,119,120,121,122,123,124,125,126,127,128,129,130,131,132,133,134,135,136,137,138,139,140,141,142,143,144,145,146,147,148,149,150,151,152,153,154,155,156,157,158,159,160,161,162,163,164,165,166,167,168,169,170,171,172,173,174,175,176,177,178,179,180,181,182,183,184,185,186,187,188,189,190,191,192,193,194,195,196,197,198,199,200],"tree_info":[0,0,0,0,0,0,0,0,0,0,0,0,0,0,0,0,0,0,0,0,0,0,0,0,0,0,0,0,0,0,0,0,0,0,0,0,0,0,0,0,0,0,0,0,0,0,0,0,0,0,0,0,0,0,0,0,0,0,0,0,0,0,0,0,0,0,0,0,0,0,0,0,0,0,0,0,0,0,0,0,0,0,0,0,0,0,0,0,0,0,0,0,0,0,0,0,0,0,0,0,0,0,0,0,0,0,0,0,0,0,0,0,0,0,0,0,0,0,0,0,0,0,0,0,0,0,0,0,0,0,0,0,0,0,0,0,0,0,0,0,0,0,0,0,0,0,0,0,0,0,0,0,0,0,0,0,0,0,0,0,0,0,0,0,0,0,0,0,0,0,0,0,0,0,0,0,0,0,0,0,0,0,0,0,0,0,0,0,0,0,0,0,0,0,0,0,0,0,0,0],"trees":[{"base_weights":[-1.6460069E-2,-8.599242E-2,1.3953035E0,-9.8418474E-2,4.5631033E-1,1.7423763E0,1.2192399E-1,-9.162607E-2,-1.0707289E-2,5.300591E-2,3.0586189E-2,6.891581E-1,2.3477232E0,8.545226E-3,-1.6502625E-3,-5.0598844E-3,2.4546038E-3,1.5101205E-2,-3.164579E-3,5.817611E-2,1.5326788E-2,1.6754134E-1,6.0507882E-2],"categories":[],"categories_nodes":[],"categories_segments":[],"categories_sizes":[],"default_left":[0,0,0,0,0,0,0,0,0,0,0,0,0,0,0,0,0,0,0,0,0,0,0],"id":0,"left_children":[1,3,5,7,9,11,13,15,-1,-1,17,19,21,-1,-1,-1,-1,-1,-1,-1,-1,-1,-1],"loss_changes":[7.737444E1,5.1056623E0,1.6139915E1,5.581379E-1,4.33752E0,1.6871353E1,7.39374E-2,9.4241E-1,0E0,0E0,2.9941747E-1,1.8213663E0,1.6484703E1,0E0,0E0,0E0,0E0,0E0,0E0,0E0,0E0,0E0,0E0],"parents":[2147483647,0,0,1,1,2,2,3,3,4,4,5,5,6,6,7,7,10,10,11,11,12,12],"right_children":[2,4,6,8,10,12,14,16,-1,-1,18,20,22,-1,-1,-1,-1,-1,-1,-1,-1,-1,-1],"split_conditions":[1.5152285E0,9.837933E-1,4.1049643E0,1.305538E0,5.536267E-1,2.7124417E0,-2.1827732E-1,4.328948E-1,-1.0707289E-2,5.300591E-2,1.3121862E0,1.0786437E0,3.6468964E0,8.545226E-3,-1.6502625E-3,-5.0598844E-3,2.4546038E-3,1.5101205E-2,-3.164579E-3,5.817611E-2,1.5326788E-2,1.6754134E-1,6.0507882E-2],"split_indices":[63,63,54,36,54,63,18,18,0,0,54,54,63,0,0,0,0,0,0,0,0,0,0],"split_type":[0,0,0,0,0,0,0,0,0,0,0,0,0,0,0,0,0,0,0,0,0,0,0],"sum_hessian":[7.86E2,7.5E2,3.6E1,7.34E2,1.6E1,2.8E1,8E0,6.95E2,3.9E1,6E0,1E1,1.1E1,1.7E1,6E0,2E0,6.51E2,4.4E1,2E0,8E0,4E0,7E0,8E0,9E0],"tree_param":{"num_deleted":"0","num_feature":"72","num_nodes":"23","size_leaf_vector":"1"}},{"base_weights":[-1.3390147E-2,-6.7299604E-2,1.3626921E0,-7.453957E-2,1.2665002E-1,1.7026844E0,5.090441E-2,-6.763986E-2,-1.1759161E-2,8.086871E-1,-1.5249729E-1,7.3301625E-1,2.170973E0,1.355997E-1,-5.361127E-3,-3.690455E-3,2.3221487E-2,4.6613555E-2,1.4597832E-2,9.190334E-4,-9.186673E-3,2.1793095E-2,7.775628E-2,1.453488E-1,5.8179922E-2,2.7498119E-3,1.1450339E-2],"categories":[],"categories_nodes":[],"categories_segments":[],"categories_sizes":[],"default_left":[0,0,0,0,0,0,0,0,0,0,0,0,0,0,0,0,0,0,0,0,0,0,0,0,0,0,0],"id":1,"left_children":[1,3,5,7,9,11,13,15,-1,17,19,21,23,25,-1,-1,-1,-1,-1,-1,-1,-1,-1,-1,-1,-1,-1],"loss_changes":[5.7064903E1,1.0485411E0,1.28472595E1,7.754867E-1,5.2638206E0,8.852585E0,1.082876E-1,2.2860515E0,0E0,2.3869419E-1,1.1012849E-1,1.5208206E0,7.738907E0,2.5050163E-2,0E0,0E0,0E0,0E0,0E0,0E0,0E0,0E0,0E0,0E0,0E0,0E0,0E0],"parents":[2147483647,0,0,1,1,2,2,3,3,4,4,5,5,6,6,7,7,9,9,10,10,11,11,12,12,13,13],"right_children":[2,4,6,8,10,12,14,16,-1,18,20,22,24,26,-1,-1,-1,-1,-1,-1,-1,-1,-1,-1,-1,-1,-1],"split_conditions":[1.5152285E0,4.7890994E-1,4.1049643E0,1.6240978E0,-2.1694359E-1,2.0518305E0,-2.1694359E-1,1.4664414E0,-1.1759161E-2,-2.1694359E-1,1.4458648E0,-2.0661132E-1,3.6468964E0,8.276147E0,-5.361127E-3,-3.690455E-3,2.3221487E-2,4.6613555E-2,1.4597832E-2,9.190334E-4,-9.186673E-3,2.1793095E-2,7.775628E-2,1.453488E-1,5.8179922E-2,2.7498119E-3,1.1450339E-2],"split_indices":[63,63,54,9,45,63,45,9,0,54,45,0,63,54,0,0,0,0,0,0,0,0,0,0,0,0,0],"split_type":[0,0,0,0,0,0,0,0,0,0,0,0,0,0,0,0,0,0,0,0,0,0,0,0,0,0,0],"sum_hessian":[7.67E2,7.39E2,2.8E1,7.13E2,2.6E1,2.2E1,6E0,6.85E2,2.8E1,7E0,1.9E1,8E0,1.4E1,4E0,2E0,6.78E2,7E0,5E0,2E0,3E0,1.6E1,7E0,1E0,7E0,7E0,3E0,1E0],"tree_param":{"num_deleted":"0","num_feature":"72","num_nodes":"27","size_leaf_vector":"1"}},{"base_weights":[1.5342309E-3,-5.452188E-2,1.1271601E0,-6.2429167E-2,2.50073E-1,1.412886E0,8.124764E-2,-5.441286E-2,-9.917404E-3,5.0347187E-2,-9.216252E-2,9.7498757E-1,2.9289992E0,-6.1783134E-3,1.2229516E-1,-2.5153835E-3,-1.1158676E-2,-8.543879E-5,-9.118608E-3,5.29148E-2,1.9531588E-3,1.6937587E-1,1.5910225E-2,8.861286E-3,-1.4165496E-3],"categories":[],"categories_nodes":[],"categories_segments":[],"categories_sizes":[],"default_left":[0,0,0,0,0,0,0,0,0,0,0,0,0,0,0,0,0,0,0,0,0,0,0,0,0],"id":2,"left_children":[1,3,5,7,9,11,13,15,-1,-1,17,19,21,-1,23,-1,-1,-1,-1,-1,-1,-1,-1,-1,-1],"loss_changes":[4.921496E1,1.805141E0,1.0942448E1,7.791436E-1,5.0143347E0,1.6397465E1,9.077549E-2,4.6403003E-1,0E0,0E0,1.1392555E-1,1.8299484E0,6.104656E0,0E0,7.12128E-2,0E0,0E0,0E0,0E0,0E0,0E0,0E0,0E0,0E0,0E0],"parents":[2147483647,0,0,1,1,2,2,3,3,4,4,5,5,6,6,7,7,10,10,11,11,12,12,14,14],"right_children":[2,4,6,8,10,12,14,16,-1,-1,18,20,22,-1,24,-1,-1,-1,-1,-1,-1,-1,-1,-1,-1],"split_conditions":[1.4150237E0,9.837933E-1,4.1049643E0,1.305538E0,5.536267E-1,3.4386365E0,2.6391215E0,1.694221E0,-9.917404E-3,5.0347187E-2,1.7042391E0,2.9385052E0,-2.1827732E-1,-6.1783134E-3,-2.1827732E-1,-2.5153835E-3,-1.1158676E-2,-8.543879E-5,-9.118608E-3,5.29148E-2,1.9531588E-3,1.6937587E-1,1.5910225E-2,8.861286E-3,-1.4165496E-3],"split_indices":[63,63,54,36,54,54,63,18,0,0,54,54,18,0,18,0,0,0,0,0,0,0,0,0,0],"split_type":[0,0,0,0,0,0,0,0,0,0,0,0,0,0,0,0,0,0,0,0,0,0,0,0,0],"sum_hessian":[7.78E2,7.42E2,3.6E1,7.24E2,1.8E1,2.8E1,8E0,6.85E2,3.9E1,5E0,1.3E1,2.3E1,5E0,1E0,7E0,6.7E2,1.5E1,7E0,6E0,2.1E1,2E0,4E0,1E0,5E0,2E0],"tree_param":{"num_deleted":"0","num_feature":"72","num_nodes":"25","size_leaf_vector":"1"}},{"base_weights":[9.889634E-3,-3.9055806E-2,1.91582E0,-5.3003687E-2,6.293966E-1,2.5374405E0,4.2465303E-2,-5.86998E-2,1.3306242E-1,9.3770444E-1,9.904308E-2,3.0764778E0,4.220354E-2,5.63722E-3,-2.0860344E-2,-2.6173785E-3,-1.0653599E-2,4.3352477E-2,-5.9496155E-3,1.8767437E-2,5.6254636E-2,9.231432E-3,-3.8306934E-3,1.6813101E-1,5.962791E-2,-3.2037497E-5,-1.3693314E-3],"categories":[],"categories_nodes":[],"categories_segments":[],"categories_sizes":[],"default_left":[0,0,0,0,0,0,0,0,0,0,0,0,0,0,0,0,0,0,0,0,0,0,0,0,0,0,0],"id":3,"left_children":[1,3,5,7,9,11,13,15,17,19,21,23,-1,-1,25,-1,-1,-1,-1,-1,-1,-1,-1,-1,-1,-1,-1],"loss_changes":[7.451754E1,7.296364E0,2.3182556E1,8.175392E-1,2.5233212E0,1.109507E1,2.9054705E-2,7.164571E-1,4.3582854E0,6.314869E-1,1.1938101E-1,1.9196472E0,0E0,0E0,5.1028724E-4,0E0,0E0,0E0,0E0,0E0,0E0,0E0,0E0,0E0,0E0,0E0,0E0],"parents":[2147483647,0,0,1,1,2,2,3,3,4,4,5,5,6,6,7,7,8,8,9,9,10,10,11,11,14,14],"right_children":[2,4,6,8,10,12,14,16,18,20,22,24,-1,-1,26,-1,-1,-1,-1,-1,-1,-1,-1,-1,-1,-1,-1],"split_conditions":[2.7124417E0,1.4150237E0,4.1049643E0,4.8241886E-1,1.5398784E0,-2.1694359E-1,5.556471E0,1.7014422E0,-2.1694359E-1,1.5152285E0,3.3653135E0,4.1049643E0,4.220354E-2,5.63722E-3,-2.1827732E-1,-2.6173785E-3,-1.0653599E-2,4.3352477E-2,-5.9496155E-3,1.8767437E-2,5.6254636E-2,9.231432E-3,-3.8306934E-3,1.6813101E-1,5.962791E-2,-3.2037497E-5,-1.3693314E-3],"split_indices":[63,63,54,63,54,27,54,18,54,63,54,63,0,0,18,0,0,0,0,0,0,0,0,0,0,0,0],"split_type":[0,0,0,0,0,0,0,0,0,0,0,0,0,0,0,0,0,0,0,0,0,0,0,0,0,0,0],"sum_hessian":[7.97E2,7.78E2,1.9E1,7.63E2,1.5E1,1.4E1,5E0,7.41E2,2.2E1,9E0,6E0,1E1,4E0,2E0,3E0,7.13E2,2.8E1,5E0,1.7E1,3E0,6E0,4E0,2E0,8E0,2E0,1E0,2E0],"tree_param":{"num_deleted":"0","num_feature":"72","num_nodes":"27","size_leaf_vector":"1"}},{"base_weights":[2.636004E-3,-6.148354E-2,1.2596471E0,-6.761591E-2,1.2556058E-1,1.5901797E0,1.7911E-2,-6.155618E-2,-1.0515003E-2,4.161514E-2,-1.042296E-1,7.403028E-1,2.0432503E0,9.579864E-2,-6.355884E-2,-3.2260546E-3,1.7995639E-2,-6.9499873E-3,6.377221E-3,4.7164034E-2,4.926344E-3,1.3476641E-1,5.096193E-2,5.391447E-3,1.1919364E-3,-3.2739516E-4,-4.969175E-3],"categories":[],"categories_nodes":[],"categories_segments":[],"categories_sizes":[],"default_left":[0,0,0,0,0,0,0,0,0,0,0,0,0,0,0,0,0,0,0,0,0,0,0,0,0,0,0],"id":4,"left_children":[1,3,5,7,9,11,13,15,-1,-1,17,19,21,23,25,-1,-1,-1,-1,-1,-1,-1,-1,-1,-1,-1,-1],"loss_changes":[6.310585E1,8.630233E-1,1.5568016E1,6.1131644E-1,3.9844081E0,1.0039001E1,6.31983E-2,8.904567E-1,0E0,0E0,1.7084615E-1,1.4702573E0,9.939789E0,1.7579943E-3,9.561233E-3,0E0,0E0,0E0,0E0,0E0,0E0,0E0,0E0,0E0,0E0,0E0,0E0],"parents":[2147483647,0,0,1,1,2,2,3,3,4,4,5,5,6,6,7,7,10,10,11,11,12,12,13,13,14,14],"right_children":[2,4,6,8,10,12,14,16,-1,-1,18,20,22,24,26,-1,-1,-1,-1,-1,-1,-1,-1,-1,-1,-1,-1],"split_conditions":[1.5152285E0,4.8241886E-1,4.1049643E0,1.5118353E0,-2.1694359E-1,2.7124417E0,7.918685E0,1.4427971E0,-1.0515003E-2,4.161514E-2,1.364124E0,1.5398784E0,3.6468964E0,7.1987715E0,8.282272E0,-3.2260546E-3,1.7995639E-2,-6.9499873E-3,6.377221E-3,4.7164034E-2,4.926344E-3,1.3476641E-1,5.096193E-2,5.391447E-3,1.1919364E-3,-3.2739516E-4,-4.969175E-3],"split_indices":[63,63,54,9,54,63,54,9,0,0,63,54,63,54,54,0,0,0,0,0,0,0,0,0,0,0,0],"split_type":[0,0,0,0,0,0,0,0,0,0,0,0,0,0,0,0,0,0,0,0,0,0,0,0,0,0,0],"sum_hessian":[7.81E2,7.44E2,3.7E1,7.21E2,2.3E1,2.9E1,8E0,6.93E2,2.8E1,5E0,1.8E1,1.1E1,1.8E1,4E0,4E0,6.89E2,4E0,1.6E1,2E0,8E0,3E0,1E1,8E0,3E0,1E0,2E0,2E0],"tree_param":{"num_deleted":"0","num_feature":"72","num_nodes":"27","size_leaf_vector":"1"}},{"base_weights":[1.53772235E-2,-4.584085E-2,1.3226361E0,-5.3954076E-2,2.7725783E-1,1.679838E0,6.43819E-2,-4.407205E-2,-1.8068925E-1,9.2295563E-1,-1.9273924E-2,8.092858E-1,2.0496109E0,1.4761935E-1,-7.656975E-2,-2.389008E-3,1.9577986E-2,-7.6063755E-3,-1.0088886E-2,2.778664E-2,6.8976745E-2,1.15092555E-2,-4.0016263E-3,6.2241692E-2,6.238555E-3,1.3759445E-1,4.8176825E-2,4.4301297E-3,1.10675795E-2,-5.8038584E-3,-1.2354109E-3],"categories":[],"categories_nodes":[],"categories_segments":[],"categories_sizes":[],"default_left":[0,0,0,0,0,0,0,0,0,0,0,0,0,0,0,0,0,0,0,0,0,0,0,0,0,0,0,0,0,0,0],"id":5,"left_children":[1,3,5,7,9,11,13,15,17,19,21,23,25,27,29,-1,-1,-1,-1,-1,-1,-1,-1,-1,-1,-1,-1,-1,-1,-1,-1],"loss_changes":[6.4403046E1,2.030795E0,1.6072083E1,9.3258905E-1,3.6557174E0,7.35466E0,1.16895266E-1,1.1462368E0,1.8297434E-3,2.3934507E-1,2.3061724E-1,2.8260708E0,1.1840248E1,6.4963102E-3,5.327603E-3,0E0,0E0,0E0,0E0,0E0,0E0,0E0,0E0,0E0,0E0,0E0,0E0,0E0,0E0,0E0,0E0],"parents":[2147483647,0,0,1,1,2,2,3,3,4,4,5,5,6,6,7,7,8,8,9,9,10,10,11,11,12,12,13,13,14,14],"right_children":[2,4,6,8,10,12,14,16,18,20,22,24,26,28,30,-1,-1,-1,-1,-1,-1,-1,-1,-1,-1,-1,-1,-1,-1,-1,-1],"split_conditions":[1.5152285E0,9.837933E-1,4.1049643E0,6.981026E-1,5.536267E-1,2.7124417E0,-2.1694359E-1,4.3472484E-1,1.305538E0,-2.1694359E-1,-2.1694359E-1,1.5398784E0,4.1049643E0,8.276147E0,-2.1827732E-1,-2.389008E-3,1.9577986E-2,-7.6063755E-3,-1.0088886E-2,2.778664E-2,6.8976745E-2,1.15092555E-2,-4.0016263E-3,6.2241692E-2,6.238555E-3,1.3759445E-1,4.8176825E-2,4.4301297E-3,1.10675795E-2,-5.8038584E-3,-1.2354109E-3],"split_indices":[63,63,54,36,54,63,45,36,45,54,45,54,63,54,18,0,0,0,0,0,0,0,0,0,0,0,0,0,0,0,0],"split_type":[0,0,0,0,0,0,0,0,0,0,0,0,0,0,0,0,0,0,0,0,0,0,0,0,0,0,0,0,0,0,0],"sum_hessian":[8.03E2,7.68E2,3.5E1,7.5E2,1.8E1,2.7E1,8E0,6.97E2,5.3E1,5E0,1.3E1,9E0,1.8E1,5E0,3E0,6.92E2,5E0,2.6E1,2.7E1,4E0,1E0,2E0,1.1E1,5E0,4E0,1E1,8E0,4E0,1E0,1E0,2E0],"tree_param":{"num_deleted":"0","num_feature":"72","num_nodes":"31","size_leaf_vector":"1"}},{"base_weights":[-1.0033617E-2,-5.4692015E-2,1.0707352E0,-6.374942E-2,2.971347E-1,1.3495376E0,1.00486025E-1,-5.7344355E-2,-8.96085E-3,8.5074466E-1,-2.3819512E-2,6.5026295E-1,1.8025721E0,1.4592367E-1,-1.1942305E-3,-2.9648503E-3,2.0641653E-2,2.7209332E-2,6.725233E-2,1.1125613E-2,-4.441775E-3,1.0905444E-2,6.760027E-2,1.2573275E-1,3.6562648E-2,4.439065E-3,1.079089E-2],"categories":[],"categories_nodes":[],"categories_segments":[],"categories_sizes":[],"default_left":[0,0,0,0,0,0,0,0,0,0,0,0,0,0,0,0,0,0,0,0,0,0,0,0,0,0,0],"id":6,"left_children":[1,3,5,7,9,11,13,15,-1,17,19,21,23,25,-1,-1,-1,-1,-1,-1,-1,-1,-1,-1,-1,-1,-1],"loss_changes":[3.7705574E1,2.4089184E0,8.2501335E0,5.310931E-1,3.3962498E0,6.4309464E0,4.86942E-2,6.625545E-1,0E0,3.287692E-1,2.2796851E-1,3.0409856E0,8.841301E0,4.8029274E-3,0E0,0E0,0E0,0E0,0E0,0E0,0E0,0E0,0E0,0E0,0E0,0E0,0E0],"parents":[2147483647,0,0,1,1,2,2,3,3,4,4,5,5,6,6,7,7,9,9,10,10,11,11,12,12,13,13],"right_children":[2,4,6,8,10,12,14,16,-1,18,20,22,24,26,-1,-1,-1,-1,-1,-1,-1,-1,-1,-1,-1,-1,-1],"split_conditions":[1.5152285E0,9.837933E-1,3.6468964E0,1.305538E0,5.536267E-1,2.7124417E0,-2.1827732E-1,1.2875583E0,-8.96085E-3,-2.1694359E-1,-2.1694359E-1,-2.1694359E-1,4.1049643E0,7.918685E0,-1.1942305E-3,-2.9648503E-3,2.0641653E-2,2.7209332E-2,6.725233E-2,1.1125613E-2,-4.441775E-3,1.0905444E-2,6.760027E-2,1.2573275E-1,3.6562648E-2,4.439065E-3,1.079089E-2],"split_indices":[63,63,54,36,54,63,18,36,0,54,45,45,63,54,0,0,0,0,0,0,0,0,0,0,0,0,0],"split_type":[0,0,0,0,0,0,0,0,0,0,0,0,0,0,0,0,0,0,0,0,0,0,0,0,0,0,0],"sum_hessian":[7.79E2,7.49E2,3E1,7.31E2,1.8E1,2.3E1,7E0,6.94E2,3.7E1,6E0,1.2E1,1E1,1.3E1,5E0,2E0,6.92E2,2E0,5E0,1E0,2E0,1E1,7E0,3E0,7E0,6E0,4E0,1E0],"tree_param":{"num_deleted":"0","num_feature":"72","num_nodes":"27","size_leaf_vector":"1"}},{"base_weights":[-4.8656543E-4,-4.4463146E-2,1.2308757E0,-5.0268978E-2,3.5331982E-1,1.4428927E0,9.422878E-3,-4.2265024E-2,-1.5851377E-1,3.9493138E-1,9.08834E-3,1.9067628E0,7.635104E-1,4.5050415E-3,-3.3271816E-2,-2.4139374E-3,3.992436E-2,-8.791394E-3,-1.2282056E-3,2.22278E-2,8.201918E-3,1.0427108E-1,-5.9285345E-3,1.792239E-2,4.3530148E-2,-3.9093048E-4,-1.9575008E-3],"categories":[],"categories_nodes":[],"categories_segments":[],"categories_sizes":[],"default_left":[0,0,0,0,0,0,0,0,0,0,0,0,0,0,0,0,0,0,0,0,0,0,0,0,0,0,0],"id":7,"left_children":[1,3,5,7,9,11,13,15,17,19,-1,21,23,-1,25,-1,-1,-1,-1,-1,-1,-1,-1,-1,-1,-1,-1],"loss_changes":[4.2400894E1,1.7637131E0,6.978554E0,6.3962483E-1,6.7390203E-3,5.7925034E0,2.0220418E-2,3.557561E0,1.139611E-1,1.8739581E-2,0E0,4.9512367E0,1.6510534E-1,0E0,2.9237755E-4,0E0,0E0,0E0,0E0,0E0,0E0,0E0,0E0,0E0,0E0,0E0,0E0],"parents":[2147483647,0,0,1,1,2,2,3,3,4,4,5,5,6,6,7,7,8,8,9,9,11,11,12,12,14,14],"right_children":[2,4,6,8,10,12,14,16,18,20,-1,22,24,-1,26,-1,-1,-1,-1,-1,-1,-1,-1,-1,-1,-1,-1],"split_conditions":[2.0518305E0,1.4150237E0,-2.1827732E-1,6.981026E-1,1.6775696E0,4.1049643E0,5.517061E-1,-2.1694359E-1,1.3176773E0,-2.187183E-1,9.08834E-3,4.1049643E0,4.3768706E0,4.5050415E-3,2.9385052E0,-2.4139374E-3,3.992436E-2,-8.791394E-3,-1.2282056E-3,2.22278E-2,8.201918E-3,1.0427108E-1,-5.9285345E-3,1.792239E-2,4.3530148E-2,-3.9093048E-4,-1.9575008E-3],"split_indices":[63,63,18,45,63,63,18,63,63,9,0,45,63,0,45,0,0,0,0,0,0,0,0,0,0,0,0],"split_type":[0,0,0,0,0,0,0,0,0,0,0,0,0,0,0,0,0,0,0,0,0,0,0,0,0,0,0],"sum_hessian":[7.81E2,7.55E2,2.6E1,7.45E2,1E1,2.2E1,4E0,6.95E2,5E1,7E0,3E0,1.2E1,1E1,1E0,3E0,6.91E2,4E0,4.4E1,6E0,5E0,2E0,1.1E1,1E0,3E0,7E0,1E0,2E0],"tree_param":{"num_deleted":"0","num_feature":"72","num_nodes":"27","size_leaf_vector":"1"}},{"base_weights":[1.6726543E-3,-4.2902976E-2,9.849094E-1,-5.136778E-2,2.0463103E-1,1.2380073E0,7.590214E-3,-4.5125462E-2,-9.493043E-3,1.0691262E0,-6.4949095E-2,8.635351E-1,2.1845658E0,1.3064276E-3,-8.7585E-3,-2.4907175E-3,3.8925268E-2,7.703199E-2,2.2410473E-2,5.7897726E-3,-6.6458485E-3,2.734054E-2,7.821053E-2,1.5178129E-1,1.897204E-3,9.198736E-5,-8.2186237E-4],"categories":[],"categories_nodes":[],"categories_segments":[],"categories_sizes":[],"default_left":[0,0,0,0,0,0,0,0,0,0,0,0,0,0,0,0,0,0,0,0,0,0,0,0,0,0,0],"id":8,"left_children":[1,3,5,7,9,11,13,15,-1,17,19,21,23,-1,25,-1,-1,-1,-1,-1,-1,-1,-1,-1,-1,-1,-1],"loss_changes":[3.4359894E1,1.5820063E0,8.400757E0,6.1907244E-1,5.8957067E0,7.6839676E0,2.653471E-3,2.7266703E0,0E0,1.0660954E0,2.6108763E-1,3.8050127E0,1.26731415E1,0E0,4.371467E-4,0E0,0E0,0E0,0E0,0E0,0E0,0E0,0E0,0E0,0E0,0E0,0E0],"parents":[2147483647,0,0,1,1,2,2,3,3,4,4,5,5,6,6,7,7,9,9,10,10,11,11,12,12,14,14],"right_children":[2,4,6,8,10,12,14,16,-1,18,20,22,24,-1,26,-1,-1,-1,-1,-1,-1,-1,-1,-1,-1,-1,-1],"split_conditions":[1.5152285E0,4.8241886E-1,4.1049643E0,1.6240978E0,5.536267E-1,3.3653135E0,5.556471E0,1.5021782E0,-9.493043E-3,1.0786437E0,1.4458648E0,-2.1694359E-1,-2.1827732E-1,1.3064276E-3,7.918685E0,-2.4907175E-3,3.8925268E-2,7.703199E-2,2.2410473E-2,5.7897726E-3,-6.6458485E-3,2.734054E-2,7.821053E-2,1.5178129E-1,1.897204E-3,9.198736E-5,-8.2186237E-4],"split_indices":[63,63,54,9,54,54,54,9,0,63,45,45,18,0,54,0,0,0,0,0,0,0,0,0,0,0,0],"split_type":[0,0,0,0,0,0,0,0,0,0,0,0,0,0,0,0,0,0,0,0,0,0,0,0,0,0,0],"sum_hessian":[7.82E2,7.49E2,3.3E1,7.25E2,2.4E1,2.6E1,7E0,6.95E2,3E1,5E0,1.9E1,2E1,6E0,3E0,4E0,6.92E2,3E0,2E0,3E0,5E0,1.4E1,1.5E1,5E0,4E0,2E0,2E0,2E0],"tree_param":{"num_deleted":"0","num_feature":"72","num_nodes":"27","size_leaf_vector":"1"}},{"base_weights":[3.7693148E-3,-4.214589E-2,1.2335062E0,-4.8102755E-2,1.8956849E-1,1.8078827E0,1.8840242E-2,-4.1989166E-2,-9.026267E-3,2.1388413E-2,4.6724893E-2,2.2969964E0,4.241134E-2,-2.1081556E-2,9.453411E-3,-2.4039408E-3,3.357042E-2,4.3537826E-3,-5.8401427E-3,5.904757E-2,1.4627321E-1,6.536127E-4,-4.6873298E-3],"categories":[],"categories_nodes":[],"categories_segments":[],"categories_sizes":[],"default_left":[0,0,0,0,0,0,0,0,0,0,0,0,0,0,0,0,0,0,0,0,0,0,0],"id":9,"left_children":[1,3,5,7,9,11,13,15,-1,-1,17,19,-1,21,-1,-1,-1,-1,-1,-1,-1,-1,-1],"loss_changes":[4.3924217E1,1.0443379E0,1.950085E1,5.8503056E-1,6.264935E-1,6.9698677E0,7.1943924E-2,3.077664E0,0E0,0E0,9.5950775E-2,4.9619484E0,0E0,2.356157E-2,0E0,0E0,0E0,0E0,0E0,0E0,0E0,0E0,0E0],"parents":[2147483647,0,0,1,1,2,2,3,3,4,4,5,5,6,6,7,7,10,10,11,11,13,13],"right_children":[2,4,6,8,10,12,14,16,-1,-1,18,20,-1,22,-1,-1,-1,-1,-1,-1,-1,-1,-1],"split_conditions":[2.0518305E0,1.289589E0,4.1049643E0,1.6240978E0,1.3121862E0,4.1049643E0,1.32487E1,1.5021782E0,-9.026267E-3,2.1388413E-2,2.0518305E0,3.3653135E0,4.241134E-2,8.282272E0,9.453411E-3,-2.4039408E-3,3.357042E-2,4.3537826E-3,-5.8401427E-3,5.904757E-2,1.4627321E-1,6.536127E-4,-4.6873298E-3],"split_indices":[63,63,54,9,54,63,54,9,0,0,54,63,0,54,0,0,0,0,0,0,0,0,0],"split_type":[0,0,0,0,0,0,0,0,0,0,0,0,0,0,0,0,0,0,0,0,0,0,0],"sum_hessian":[7.76E2,7.49E2,2.7E1,7.31E2,1.8E1,1.8E1,9E0,7E2,3.1E1,6E0,1.2E1,1.1E1,7E0,8E0,1E0,6.95E2,5E0,1E1,2E0,5E0,6E0,6E0,2E0],"tree_param":{"num_deleted":"0","num_feature":"72","num_nodes":"23","size_leaf_vector":"1"}},{"base_weights":[-6.268249E-3,-4.5531124E-2,1.1597782E0,-6.002338E-2,2.708014E-1,1.6798071E0,5.105335E-1,-5.5896576E-2,-8.552157E-3,1.1845967E-1,1.1306914E0,1.8907453E0,2.761184E-1,1.7119962E-1,7.769341E-1,-3.2070104E-3,6.0900142E-3,-2.7303265E-3,1.6007503E-2,7.454439E-2,1.9679898E-2,5.4159224E-2,1.2588876E-1,2.0020727E-2,6.881535E-4,1.278456E-2,-1.3343116E-3,2.6239097E-2,5.7246175E-2],"categories":[],"categories_nodes":[],"categories_segments":[],"categories_sizes":[],"default_left":[0,0,0,0,0,0,0,0,0,0,0,0,0,0,0,0,0,0,0,0,0,0,0,0,0,0,0,0,0],"id":10,"left_children":[1,3,5,7,9,11,13,15,-1,17,19,21,23,25,27,-1,-1,-1,-1,-1,-1,-1,-1,-1,-1,-1,-1,-1,-1],"loss_changes":[3.6541332E1,3.555389E0,7.920677E0,3.2901692E-1,4.3199615E0,3.6232147E0,1.0421731E0,1.0537279E0,0E0,1.064656E0,7.4068165E-1,3.349163E0,9.231831E-2,1.2386124E-1,4.8689842E-2,0E0,0E0,0E0,0E0,0E0,0E0,0E0,0E0,0E0,0E0,0E0,0E0,0E0,0E0],"parents":[2147483647,0,0,1,1,2,2,3,3,4,4,5,5,6,6,7,7,9,9,10,10,11,11,12,12,13,13,14,14],"right_children":[2,4,6,8,10,12,14,16,-1,18,20,22,24,26,28,-1,-1,-1,-1,-1,-1,-1,-1,-1,-1,-1,-1,-1,-1],"split_conditions":[2.7124417E0,4.8241886E-1,4.1049643E0,1.7042391E0,1.0537916E0,-2.1694359E-1,4.645712E0,4.3472484E-1,-8.552157E-3,1.4150237E0,1.0786437E0,3.3653135E0,5.536267E-1,4.2986097E0,1.32487E1,-3.2070104E-3,6.0900142E-3,-2.7303265E-3,1.6007503E-2,7.454439E-2,1.9679898E-2,5.4159224E-2,1.2588876E-1,2.0020727E-2,6.881535E-4,1.278456E-2,-1.3343116E-3,2.6239097E-2,5.7246175E-2],"split_indices":[63,63,63,27,0,27,63,27,0,63,63,63,27,63,63,0,0,0,0,0,0,0,0,0,0,0,0,0,0],"split_type":[0,0,0,0,0,0,0,0,0,0,0,0,0,0,0,0,0,0,0,0,0,0,0,0,0,0,0,0,0],"sum_hessian":[7.96E2,7.71E2,2.5E1,7.38E2,3.3E1,1.3E1,1.2E1,7.13E2,2.5E1,2.9E1,4E0,1.1E1,2E0,6E0,6E0,6.82E2,3.1E1,1.6E1,1.3E1,2E0,2E0,6E0,5E0,1E0,1E0,4E0,2E0,5E0,1E0],"tree_param":{"num_deleted":"0","num_feature":"72","num_nodes":"29","size_leaf_vector":"1"}},{"base_weights":[1.43675795E-2,-2.9396135E-2,1.1230559E0,-4.178692E-2,3.100982E-1,1.5477049E0,7.4243927E-3,-3.692679E-2,-8.4112715E-3,9.5268744E-1,2.3213368E-2,1.9087244E0,3.2703537E-1,-3.445305E-2,8.561098E-3,-1.994515E-3,2.3879161E-2,2.1493921E-2,8.403715E-2,3.7733787E-3,-6.9095963E-3,1.2451055E-1,4.0267717E-2,2.5927385E-2,-1.8663118E-3,1.4435053E-4,-2.0099885E-3],"categories":[],"categories_nodes":[],"categories_segments":[],"categories_sizes":[],"default_left":[0,0,0,0,0,0,0,0,0,0,0,0,0,0,0,0,0,0,0,0,0,0,0,0,0,0,0],"id":11,"left_children":[1,3,5,7,9,11,13,15,-1,17,19,21,23,25,-1,-1,-1,-1,-1,-1,-1,-1,-1,-1,-1,-1,-1],"loss_changes":[3.705402E1,3.1048098E0,1.372731E1,4.3008816E-1,4.7709618E0,8.630177E0,6.763392E-2,1.0635082E0,0E0,2.322556E0,1.70677E-1,8.260017E0,4.3803388E-1,1.8327208E-3,0E0,0E0,0E0,0E0,0E0,0E0,0E0,0E0,0E0,0E0,0E0,0E0,0E0],"parents":[2147483647,0,0,1,1,2,2,3,3,4,4,5,5,6,6,7,7,9,9,10,10,11,11,12,12,13,13],"right_children":[2,4,6,8,10,12,14,16,-1,18,20,22,24,26,-1,-1,-1,-1,-1,-1,-1,-1,-1,-1,-1,-1,-1],"split_conditions":[2.0518305E0,9.837933E-1,4.1049643E0,1.6171659E0,1.0786437E0,-2.1694359E-1,1.32487E1,1.5021782E0,-8.4112715E-3,-2.1694359E-1,2.0518305E0,4.1049643E0,3.1171775E0,4.114978E0,8.561098E-3,-1.994515E-3,2.3879161E-2,2.1493921E-2,8.403715E-2,3.7733787E-3,-6.9095963E-3,1.2451055E-1,4.0267717E-2,2.5927385E-2,-1.8663118E-3,1.4435053E-4,-2.0099885E-3],"split_indices":[63,63,54,9,54,27,54,9,0,54,54,63,54,54,0,0,0,0,0,0,0,0,0,0,0,0,0],"split_type":[0,0,0,0,0,0,0,0,0,0,0,0,0,0,0,0,0,0,0,0,0,0,0,0,0,0,0],"sum_hessian":[7.62E2,7.34E2,2.8E1,7.09E2,2.5E1,2E1,8E0,6.84E2,2.5E1,7E0,1.8E1,1.5E1,5E0,7E0,1E0,6.81E2,3E0,5E0,2E0,1.4E1,4E0,9E0,6E0,3E0,2E0,1E0,6E0],"tree_param":{"num_deleted":"0","num_feature":"72","num_nodes":"27","size_leaf_vector":"1"}},{"base_weights":[-2.0154526E-3,-3.3206977E-2,1.1477109E0,-4.6131916E-2,2.8886926E-1,1.5565969E0,6.344876E-1,-4.0236037E-2,-1.4385965E-1,5.6275713E-1,-6.434237E-2,9.0772115E-2,2.6119506E-1,4.7870305E-1,5.4808326E-2,-2.1258635E-3,1.8480416E-2,-5.6179217E-3,-8.039308E-3,1.6339157E-2,7.7752076E-2,5.421269E-4,-7.0538106E-3,1.8872023E-2,7.1760715E-4,9.550064E-3,2.6337668E-2],"categories":[],"categories_nodes":[],"categories_segments":[],"categories_sizes":[],"default_left":[0,0,0,0,0,0,0,0,0,0,0,0,0,0,0,0,0,0,0,0,0,0,0,0,0,0,0],"id":12,"left_children":[1,3,5,7,9,11,13,15,17,19,21,-1,23,25,-1,-1,-1,-1,-1,-1,-1,-1,-1,-1,-1,-1,-1],"loss_changes":[2.8512316E1,3.2353463E0,3.4192028E0,4.2347383E-1,2.93842E0,3.2142124E0,2.6640844E-1,6.739186E-1,4.3289065E-3,3.472445E0,8.22988E-2,0E0,8.0665976E-2,3.7630796E-2,0E0,0E0,0E0,0E0,0E0,0E0,0E0,0E0,0E0,0E0,0E0,0E0,0E0],"parents":[2147483647,0,0,1,1,2,2,3,3,4,4,5,5,6,6,7,7,8,8,9,9,10,10,12,12,13,13],"right_children":[2,4,6,8,10,12,14,16,18,20,22,-1,24,26,-1,-1,-1,-1,-1,-1,-1,-1,-1,-1,-1,-1,-1],"split_conditions":[3.2211E0,9.837933E-1,4.1049643E0,1.305538E0,1.0786437E0,-2.1694359E-1,1.32487E1,1.2875583E0,1.305538E0,-2.1694359E-1,1.6775696E0,9.0772115E-2,5.536267E-1,4.3768706E0,5.4808326E-2,-2.1258635E-3,1.8480416E-2,-5.6179217E-3,-8.039308E-3,1.6339157E-2,7.7752076E-2,5.421269E-4,-7.0538106E-3,1.8872023E-2,7.1760715E-4,9.550064E-3,2.6337668E-2],"split_indices":[63,63,63,36,45,27,63,36,45,45,45,0,27,63,0,0,0,0,0,0,0,0,0,0,0,0,0],"split_type":[0,0,0,0,0,0,0,0,0,0,0,0,0,0,0,0,0,0,0,0,0,0,0,0,0,0,0],"sum_hessian":[7.93E2,7.73E2,2E1,7.44E2,2.9E1,1E1,1E1,7.03E2,4.1E1,1.6E1,1.3E1,8E0,2E0,9E0,1E0,7E2,3E0,1.7E1,2.4E1,1.4E1,2E0,7E0,6E0,1E0,1E0,2E0,7E0],"tree_param":{"num_deleted":"0","num_feature":"72","num_nodes":"27","size_leaf_vector":"1"}},{"base_weights":[1.6869469E-2,-6.311851E-4,5.210472E-1,-8.190307E-3,1.4525649E-1,1.1304942E0,-8.208563E-2,-2.2839608E-3,-7.919471E-3,7.7073294E-1,-8.331567E-2,1.365813E0,-5.458631E-3,-1.1205723E-1,7.688628E-3,-4.880567E-4,3.6326632E-2,7.9667725E-2,1.8295413E-2,3.9828774E-3,-6.1104004E-3,8.403252E-2,-1.6984979E-3,-3.0816968E-3,-7.3236176E-3],"categories":[],"categories_nodes":[],"categories_segments":[],"categories_sizes":[],"default_left":[0,0,0,0,0,0,0,0,0,0,0,0,0,0,0,0,0,0,0,0,0,0,0,0,0],"id":13,"left_children":[1,3,5,7,9,11,13,15,-1,17,19,21,-1,23,-1,-1,-1,-1,-1,-1,-1,-1,-1,-1,-1],"loss_changes":[6.838495E0,8.2827675E-1,9.649815E0,6.330475E-1,5.353975E0,3.9414291E0,1.1619799E-1,3.7563396E0,0E0,2.7471533E0,1.8721023E-1,4.9048347E0,0E0,1.3531536E-2,0E0,0E0,0E0,0E0,0E0,0E0,0E0,0E0,0E0,0E0,0E0],"parents":[2147483647,0,0,1,1,2,2,3,3,4,4,5,5,6,6,7,7,9,9,10,10,11,11,13,13],"right_children":[2,4,6,8,10,12,14,16,-1,18,20,22,-1,24,-1,-1,-1,-1,-1,-1,-1,-1,-1,-1,-1],"split_conditions":[2.6391215E0,4.3472484E-1,3.6468964E0,1.6240978E0,1.0786437E0,4.1049643E0,1.32487E1,1.4427971E0,-7.919471E-3,1.0786437E0,1.305538E0,-2.1827732E-1,-5.458631E-3,3.1171775E0,7.688628E-3,-4.880567E-4,3.6326632E-2,7.9667725E-2,1.8295413E-2,3.9828774E-3,-6.1104004E-3,8.403252E-2,-1.6984979E-3,-3.0816968E-3,-7.3236176E-3],"split_indices":[54,54,54,9,45,45,54,9,0,54,45,18,0,45,0,0,0,0,0,0,0,0,0,0,0],"split_type":[0,0,0,0,0,0,0,0,0,0,0,0,0,0,0,0,0,0,0,0,0,0,0,0,0],"sum_hessian":[7.74E2,7.49E2,2.5E1,7.13E2,3.6E1,1.2E1,1.3E1,6.87E2,2.6E1,9E0,2.7E1,1E1,2E0,1.2E1,1E0,6.81E2,6E0,2E0,7E0,5E0,2.2E1,8E0,2E0,6E0,6E0],"tree_param":{"num_deleted":"0","num_feature":"72","num_nodes":"25","size_leaf_vector":"1"}},{"base_weights":[-1.7182352E-2,-4.7216363E-2,1.0088506E0,-5.961266E-2,2.1595302E-1,1.4966611E0,-3.190042E-2,-5.592448E-2,-7.425137E-3,1.0458452E0,-3.79392E-2,1.9379274E0,7.1551E-1,-7.9294264E-2,7.4964124E-3,-3.1281372E-3,9.1076605E-3,1.8515937E-2,8.143959E-2,4.0022344E-3,-6.2027955E-3,1.0882288E-1,7.421285E-4,2.3921309E-2,5.3450324E-2,-1.9069463E-4,-4.561934E-3],"categories":[],"categories_nodes":[],"categories_segments":[],"categories_sizes":[],"default_left":[0,0,0,0,0,0,0,0,0,0,0,0,0,0,0,0,0,0,0,0,0,0,0,0,0,0,0],"id":14,"left_children":[1,3,5,7,9,11,13,15,-1,17,19,21,23,25,-1,-1,-1,-1,-1,-1,-1,-1,-1,-1,-1,-1,-1],"loss_changes":[2.3837498E1,2.4628806E0,1.1216909E1,2.270863E-1,7.2035847E0,3.7838287E0,8.082893E-2,1.103468E0,0E0,2.5471945E0,2.8426036E-1,4.0961227E0,7.5217485E-2,5.963005E-3,0E0,0E0,0E0,0E0,0E0,0E0,0E0,0E0,0E0,0E0,0E0,0E0,0E0],"parents":[2147483647,0,0,1,1,2,2,3,3,4,4,5,5,6,6,7,7,9,9,10,10,11,11,12,12,13,13],"right_children":[2,4,6,8,10,12,14,16,-1,18,20,22,24,26,-1,-1,-1,-1,-1,-1,-1,-1,-1,-1,-1,-1,-1],"split_conditions":[2.6933367E0,4.8241886E-1,4.1049643E0,1.7014422E0,1.0786437E0,3.6468964E0,1.32487E1,1.2850786E0,-7.425137E-3,-2.0661132E-1,1.3272604E0,-2.1827732E-1,1.32487E1,4.114978E0,7.4964124E-3,-3.1281372E-3,9.1076605E-3,1.8515937E-2,8.143959E-2,4.0022344E-3,-6.2027955E-3,1.0882288E-1,7.421285E-4,2.3921309E-2,5.3450324E-2,-1.9069463E-4,-4.561934E-3],"split_indices":[63,63,54,18,54,63,54,18,0,0,45,18,63,54,0,0,0,0,0,0,0,0,0,0,0,0,0],"split_type":[0,0,0,0,0,0,0,0,0,0,0,0,0,0,0,0,0,0,0,0,0,0,0,0,0,0,0],"sum_hessian":[7.71E2,7.5E2,2.1E1,7.17E2,3.3E1,1.4E1,7E0,6.9E2,2.7E1,7E0,2.6E1,8E0,6E0,6E0,1E0,6.72E2,1.8E1,4E0,3E0,1.1E1,1.5E1,7E0,1E0,5E0,1E0,1E0,5E0],"tree_param":{"num_deleted":"0","num_feature":"72","num_nodes":"27","size_leaf_vector":"1"}},{"base_weights":[2.2161173E-2,-1.2930285E-2,9.974028E-1,-2.3517983E-2,1.9800645E-1,1.4307228E0,-2.820655E-2,-1.8739978E-2,-7.237576E-3,9.49955E-1,-5.0762955E-2,1.9196475E0,6.741792E-1,-6.8277374E-2,7.309002E-3,-1.202454E-3,2.952528E-2,1.8133763E-2,6.736219E-2,3.458937E-3,-6.0620247E-3,1.1363268E-1,1.1037326E-2,2.4894066E-2,5.211406E-2,-4.5851576E-3,-1.0962908E-3],"categories":[],"categories_nodes":[],"categories_segments":[],"categories_sizes":[],"default_left":[0,0,0,0,0,0,0,0,0,0,0,0,0,0,0,0,0,0,0,0,0,0,0,0,0,0,0],"id":15,"left_children":[1,3,5,7,9,11,13,15,-1,17,19,21,23,25,-1,-1,-1,-1,-1,-1,-1,-1,-1,-1,-1,-1,-1],"loss_changes":[2.6603897E1,1.6818911E0,1.2039618E1,4.1203356E-1,6.782447E0,5.733776E0,7.287112E-2,2.2460375E0,0E0,1.6112642E0,2.4507673E-1,6.0952682E0,6.512833E-2,6.6759028E-3,0E0,0E0,0E0,0E0,0E0,0E0,0E0,0E0,0E0,0E0,0E0,0E0,0E0],"parents":[2147483647,0,0,1,1,2,2,3,3,4,4,5,5,6,6,7,7,9,9,10,10,11,11,12,12,13,13],"right_children":[2,4,6,8,10,12,14,16,-1,18,20,22,24,26,-1,-1,-1,-1,-1,-1,-1,-1,-1,-1,-1,-1,-1],"split_conditions":[2.6933367E0,4.8241886E-1,4.1049643E0,1.6240978E0,1.0786437E0,4.1049643E0,1.32487E1,1.5021782E0,-7.237576E-3,-2.0661132E-1,1.4458648E0,-2.1694359E-1,1.32487E1,7.1987715E0,7.309002E-3,-1.202454E-3,2.952528E-2,1.8133763E-2,6.736219E-2,3.458937E-3,-6.0620247E-3,1.1363268E-1,1.1037326E-2,2.4894066E-2,5.211406E-2,-4.5851576E-3,-1.0962908E-3],"split_indices":[63,63,54,9,54,63,54,9,0,0,45,27,63,54,0,0,0,0,0,0,0,0,0,0,0,0,0],"split_type":[0,0,0,0,0,0,0,0,0,0,0,0,0,0,0,0,0,0,0,0,0,0,0,0,0,0,0],"sum_hessian":[7.76E2,7.5E2,2.6E1,7.15E2,3.5E1,1.8E1,8E0,6.89E2,2.6E1,8E0,2.7E1,1E1,8E0,7E0,1E0,6.84E2,5E0,4E0,4E0,1E1,1.7E1,8E0,2E0,7E0,1E0,4E0,3E0],"tree_param":{"num_deleted":"0","num_feature":"72","num_nodes":"27","size_leaf_vector":"1"}},{"base_weights":[-1.8576048E-4,-2.8857755E-2,8.202815E-1,-3.8972758E-2,1.8351357E-1,1.0294634E0,1.0543593E-1,-3.5186224E-2,-6.8690004E-3,4.7208023E-1,-6.914855E-2,1.3301376E0,5.141796E-1,1.5385943E-2,-3.7021026E-2,-1.9071953E-3,1.1012271E-2,6.417559E-2,1.3224102E-2,-6.559639E-3,-6.0494273E-4,7.352141E-2,-5.3264727E-3,1.62198E-2,5.081121E-2,4.4764281E-4,-2.5376356E-3],"categories":[],"categories_nodes":[],"categories_segments":[],"categories_sizes":[],"default_left":[0,0,0,0,0,0,0,0,0,0,0,0,0,0,0,0,0,0,0,0,0,0,0,0,0,0,0],"id":16,"left_children":[1,3,5,7,9,11,13,15,-1,17,19,21,23,-1,25,-1,-1,-1,-1,-1,-1,-1,-1,-1,-1,-1,-1],"loss_changes":[1.811396E1,1.6053658E0,3.7793083E0,2.6010048E-1,2.511579E0,2.4147224E0,2.1310836E-1,5.266643E-1,0E0,2.3557625E0,6.566521E-2,2.5752544E0,5.278592E-1,0E0,3.610876E-3,0E0,0E0,0E0,0E0,0E0,0E0,0E0,0E0,0E0,0E0,0E0,0E0],"parents":[2147483647,0,0,1,1,2,2,3,3,4,4,5,5,6,6,7,7,9,9,10,10,11,11,12,12,14,14],"right_children":[2,4,6,8,10,12,14,16,-1,18,20,22,24,-1,26,-1,-1,-1,-1,-1,-1,-1,-1,-1,-1,-1,-1],"split_conditions":[2.0518305E0,4.8241886E-1,5.536267E-1,1.694221E0,-2.1694359E-1,4.1049643E0,-2.1827732E-1,1.5125755E0,-6.8690004E-3,1.0786437E0,1.2650334E0,4.1049643E0,9.225329E0,1.5385943E-2,5.517061E-1,-1.9071953E-3,1.1012271E-2,6.417559E-2,1.3224102E-2,-6.559639E-3,-6.0494273E-4,7.352141E-2,-5.3264727E-3,1.62198E-2,5.081121E-2,4.4764281E-4,-2.5376356E-3],"split_indices":[63,63,27,18,45,63,18,18,0,63,63,45,63,0,18,0,0,0,0,0,0,0,0,0,0,0,0],"split_type":[0,0,0,0,0,0,0,0,0,0,0,0,0,0,0,0,0,0,0,0,0,0,0,0,0,0,0],"sum_hessian":[7.68E2,7.43E2,2.5E1,7.1E2,3.3E1,1.9E1,6E0,6.85E2,2.5E1,1.5E1,1.8E1,1.1E1,8E0,2E0,4E0,6.78E2,7E0,2E0,1.3E1,8E0,1E1,1E1,1E0,7E0,1E0,1E0,3E0],"tree_param":{"num_deleted":"0","num_feature":"72","num_nodes":"27","size_leaf_vector":"1"}},{"base_weights":[7.573179E-3,-1.734955E-2,5.461212E-1,-2.3421468E-2,1.560298E-1,2.3095497E-1,9.7986186E-1,-1.8942224E-2,-1.24468945E-1,8.1825286E-1,-5.04386E-2,5.7983744E-1,-7.902668E-2,1.5538448E0,1.839011E-1,-1.1264412E-3,4.001673E-2,-7.904112E-3,6.676902E-3,6.2036403E-2,1.4841664E-2,3.4717761E-3,-5.3386455E-3,2.2157745E-3,4.0150806E-2,3.5221956E-3,-9.79274E-3,9.027494E-2,-5.193311E-3,1.8014032E-2,-1.9226847E-3],"categories":[],"categories_nodes":[],"categories_segments":[],"categories_sizes":[],"default_left":[0,0,0,0,0,0,0,0,0,0,0,0,0,0,0,0,0,0,0,0,0,0,0,0,0,0,0,0,0,0,0],"id":17,"left_children":[1,3,5,7,9,11,13,15,17,19,21,23,25,27,29,-1,-1,-1,-1,-1,-1,-1,-1,-1,-1,-1,-1,-1,-1,-1,-1],"loss_changes":[1.0317637E1,7.774223E-1,4.4215097E0,3.194526E-1,3.459475E0,2.3169136E0,6.1103973E0,2.0220318E0,2.8128397E-1,9.534316E-1,1.4247435E-1,1.1595843E0,2.2334519E-1,3.5248833E0,2.88386E-1,0E0,0E0,0E0,0E0,0E0,0E0,0E0,0E0,0E0,0E0,0E0,0E0,0E0,0E0,0E0,0E0],"parents":[2147483647,0,0,1,1,2,2,3,3,4,4,5,5,6,6,7,7,8,8,9,9,10,10,11,11,12,12,13,13,14,14],"right_children":[2,4,6,8,10,12,14,16,18,20,22,24,26,28,30,-1,-1,-1,-1,-1,-1,-1,-1,-1,-1,-1,-1,-1,-1,-1,-1],"split_conditions":[1.5152285E0,4.8241886E-1,-2.1694359E-1,1.3402256E0,5.536267E-1,-2.1694359E-1,-2.1694359E-1,1.26319E0,7.6294837E0,1.0786437E0,1.4458648E0,3.3653135E0,1.6775696E0,4.1049643E0,3.1171775E0,-1.1264412E-3,4.001673E-2,-7.904112E-3,6.676902E-3,6.2036403E-2,1.4841664E-2,3.4717761E-3,-5.3386455E-3,2.2157745E-3,4.0150806E-2,3.5221956E-3,-9.79274E-3,9.027494E-2,-5.193311E-3,1.8014032E-2,-1.9226847E-3],"split_indices":[63,63,45,0,54,54,27,0,0,63,45,63,54,45,54,0,0,0,0,0,0,0,0,0,0,0,0,0,0,0,0],"split_type":[0,0,0,0,0,0,0,0,0,0,0,0,0,0,0,0,0,0,0,0,0,0,0,0,0,0,0,0,0,0,0],"sum_hessian":[7.67E2,7.34E2,3.3E1,7.1E2,2.4E1,2E1,1.3E1,6.81E2,2.9E1,5E0,1.9E1,9E0,1.1E1,7E0,6E0,6.79E2,2E0,2.6E1,3E0,2E0,3E0,6E0,1.3E1,3E0,6E0,5E0,6E0,6E0,1E0,3E0,3E0],"tree_param":{"num_deleted":"0","num_feature":"72","num_nodes":"31","size_leaf_vector":"1"}},{"base_weights":[4.4652084E-3,-2.4941783E-2,9.440776E-1,-3.6381863E-2,2.3895943E-1,1.3756552E0,3.9786208E-1,-3.2108903E-2,-1.3586855E-1,4.644099E-1,-4.751173E-2,5.027523E-1,9.2918776E-2,1.1785352E-1,6.5822834E-1,-1.8071163E-3,1.4236078E-2,-7.379453E-3,-4.2594257E-3,1.3617031E-2,6.6698804E-2,8.0035155E-4,-6.119566E-3,-1.0108858E-2,6.375371E-2,9.1871945E-3,-1.5624121E-3,2.0078838E-2,4.853716E-2],"categories":[],"categories_nodes":[],"categories_segments":[],"categories_sizes":[],"default_left":[0,0,0,0,0,0,0,0,0,0,0,0,0,0,0,0,0,0,0,0,0,0,0,0,0,0,0,0,0],"id":18,"left_children":[1,3,5,7,9,11,13,15,17,19,21,23,-1,25,27,-1,-1,-1,-1,-1,-1,-1,-1,-1,-1,-1,-1,-1,-1],"loss_changes":[2.1852173E1,2.3243055E0,5.110304E0,3.08513E-1,2.0887868E0,4.543482E0,7.972828E-1,9.1377455E-1,5.2468777E-3,2.6430085E0,7.330301E-2,3.5243855E0,0E0,7.4512266E-2,9.14166E-2,0E0,0E0,0E0,0E0,0E0,0E0,0E0,0E0,0E0,0E0,0E0,0E0,0E0,0E0],"parents":[2147483647,0,0,1,1,2,2,3,3,4,4,5,5,6,6,7,7,8,8,9,9,10,10,11,11,13,13,14,14],"right_children":[2,4,6,8,10,12,14,16,18,20,22,24,-1,26,28,-1,-1,-1,-1,-1,-1,-1,-1,-1,-1,-1,-1,-1,-1],"split_conditions":[2.7124417E0,9.837933E-1,4.1049643E0,1.7014422E0,1.0786437E0,3.3653135E0,4.645712E0,1.5125755E0,4.1415554E-1,-2.1694359E-1,1.6775696E0,-2.1694359E-1,9.2918776E-2,4.2986097E0,8.282272E0,-1.8071163E-3,1.4236078E-2,-7.379453E-3,-4.2594257E-3,1.3617031E-2,6.6698804E-2,8.0035155E-4,-6.119566E-3,-1.0108858E-2,6.375371E-2,9.1871945E-3,-1.5624121E-3,2.0078838E-2,4.853716E-2],"split_indices":[63,63,63,18,45,63,63,18,45,45,45,45,0,63,63,0,0,0,0,0,0,0,0,0,0,0,0,0,0],"split_type":[0,0,0,0,0,0,0,0,0,0,0,0,0,0,0,0,0,0,0,0,0,0,0,0,0,0,0,0,0],"sum_hessian":[7.89E2,7.66E2,2.3E1,7.35E2,3.1E1,1.2E1,1.1E1,7.06E2,2.9E1,1.7E1,1.4E1,5E0,7E0,6E0,5E0,6.98E2,8E0,2.2E1,7E0,1.5E1,2E0,8E0,6E0,3E0,2E0,4E0,2E0,4E0,1E0],"tree_param":{"num_deleted":"0","num_feature":"72","num_nodes":"29","size_leaf_vector":"1"}},{"base_weights":[-1.1874088E-2,-3.986513E-2,9.0139353E-1,-4.994342E-2,1.954973E-1,1.3375146E0,-8.3522946E-2,-5.5643447E-2,2.4350027E-2,6.6846704E-1,-2.8375167E-2,1.5025691E0,1.2142233E-1,-2.0105949E-1,2.7210882E-2,-2.5650428E-3,-6.4216563E-3,-3.480697E-4,4.0530812E-2,1.6610898E-2,6.711545E-2,1.6653001E-3,-6.0585435E-3,9.56294E-2,3.1855624E-2,1.0945124E-2,-1.8384487E-3,-2.4305151E-3,-1.1783623E-2,-1.1754057E-3,5.752172E-3],"categories":[],"categories_nodes":[],"categories_segments":[],"categories_sizes":[],"default_left":[0,0,0,0,0,0,0,0,0,0,0,0,0,0,0,0,0,0,0,0,0,0,0,0,0,0,0,0,0,0,0],"id":19,"left_children":[1,3,5,7,9,11,13,15,17,19,21,23,25,27,29,-1,-1,-1,-1,-1,-1,-1,-1,-1,-1,-1,-1,-1,-1,-1,-1],"loss_changes":[1.9770811E1,1.7888025E0,9.9911995E0,3.0625665E-1,3.3014E0,3.0290985E0,1.09593175E-1,2.0487952E-1,1.2858369E0,1.8198481E0,1.2995815E-1,3.7494144E0,5.4310344E-2,9.650767E-3,2.4978349E-2,0E0,0E0,0E0,0E0,0E0,0E0,0E0,0E0,0E0,0E0,0E0,0E0,0E0,0E0,0E0,0E0],"parents":[2147483647,0,0,1,1,2,2,3,3,4,4,5,5,6,6,7,7,8,8,9,9,10,10,11,11,12,12,13,13,14,14],"right_children":[2,4,6,8,10,12,14,16,18,20,22,24,26,28,30,-1,-1,-1,-1,-1,-1,-1,-1,-1,-1,-1,-1,-1,-1,-1,-1],"split_conditions":[2.6933367E0,9.837933E-1,3.6468964E0,5.8335865E-1,1.0786437E0,-2.1694359E-1,7.1987715E0,1.305538E0,-2.1694359E-1,-2.1694359E-1,1.6319573E0,4.1049643E0,-2.1827732E-1,4.2986097E0,1.32487E1,-2.5650428E-3,-6.4216563E-3,-3.480697E-4,4.0530812E-2,1.6610898E-2,6.711545E-2,1.6653001E-3,-6.0585435E-3,9.56294E-2,3.1855624E-2,1.0945124E-2,-1.8384487E-3,-2.4305151E-3,-1.1783623E-2,-1.1754057E-3,5.752172E-3],"split_indices":[63,63,54,0,54,27,54,36,63,54,45,63,18,54,54,0,0,0,0,0,0,0,0,0,0,0,0,0,0,0,0],"split_type":[0,0,0,0,0,0,0,0,0,0,0,0,0,0,0,0,0,0,0,0,0,0,0,0,0,0,0,0,0,0,0],"sum_hessian":[7.71E2,7.49E2,2.2E1,7.19E2,3E1,1.5E1,7E0,6.68E2,5.1E1,9E0,2.1E1,1.3E1,2E0,3E0,4E0,6.32E2,3.6E1,5E1,1E0,7E0,2E0,1.3E1,8E0,8E0,5E0,1E0,1E0,1E0,2E0,3E0,1E0],"tree_param":{"num_deleted":"0","num_feature":"72","num_nodes":"31","size_leaf_vector":"1"}},{"base_weights":[4.4542034E-3,-2.2517733E-2,6.929892E-1,-2.87157E-2,1.5499039E-1,8.631039E-1,1.1728565E-1,-2.1904359E-2,-1.2043965E-1,4.744884E-2,8.5271865E-2,1.103792E0,4.3983024E-1,-2.8499058E-3,1.8487993E-1,-1.2436744E-3,1.952174E-2,-7.2995177E-3,-5.1039476E-3,1.410927E-3,7.7659935E-3,2.2083297E-2,9.5650785E-2,1.4095604E-2,4.652734E-2,1.1624963E-2,-1.3304197E-3],"categories":[],"categories_nodes":[],"categories_segments":[],"categories_sizes":[],"default_left":[0,0,0,0,0,0,0,0,0,0,0,0,0,0,0,0,0,0,0,0,0,0,0,0,0,0,0],"id":20,"left_children":[1,3,5,7,9,11,13,15,17,-1,19,21,23,-1,25,-1,-1,-1,-1,-1,-1,-1,-1,-1,-1,-1,-1],"loss_changes":[1.4779648E1,8.4719574E-1,2.8368406E0,4.603113E-1,1.3583235E0,1.857687E0,1.0478248E-1,8.556943E-1,9.02307E-3,0E0,9.5528886E-2,6.6564007E0,5.1259804E-1,0E0,6.661205E-2,0E0,0E0,0E0,0E0,0E0,0E0,0E0,0E0,0E0,0E0,0E0,0E0],"parents":[2147483647,0,0,1,1,2,2,3,3,4,4,5,5,6,6,7,7,8,8,10,10,11,11,12,12,14,14],"right_children":[2,4,6,8,10,12,14,16,18,-1,20,22,24,-1,26,-1,-1,-1,-1,-1,-1,-1,-1,-1,-1,-1,-1],"split_conditions":[2.0518305E0,9.837933E-1,-2.1694359E-1,6.981026E-1,1.0786437E0,4.1049643E0,3.4386365E0,4.3472484E-1,1.5152285E0,4.744884E-2,1.4150237E0,3.4177756E0,9.225329E0,-2.8499058E-3,3.6468964E0,-1.2436744E-3,1.952174E-2,-7.2995177E-3,-5.1039476E-3,1.410927E-3,7.7659935E-3,2.2083297E-2,9.5650785E-2,1.4095604E-2,4.652734E-2,1.1624963E-2,-1.3304197E-3],"split_indices":[63,63,27,36,63,63,63,36,36,0,63,63,63,0,27,0,0,0,0,0,0,0,0,0,0,0,0],"split_type":[0,0,0,0,0,0,0,0,0,0,0,0,0,0,0,0,0,0,0,0,0,0,0,0,0,0,0],"sum_hessian":[7.94E2,7.65E2,2.9E1,7.4E2,2.5E1,2.2E1,7E0,6.9E2,5E1,1E0,2.4E1,1.3E1,9E0,2E0,5E0,6.86E2,4E0,1.8E1,3.2E1,1.4E1,1E1,8E0,5E0,8E0,1E0,4E0,1E0],"tree_param":{"num_deleted":"0","num_feature":"72","num_nodes":"27","size_leaf_vector":"1"}},{"base_weights":[9.806884E-3,-1.5129442E-2,1.022493E0,-2.3269238E-2,3.4774202E-1,1.3158664E0,-6.2125593E-2,-1.9100154E-2,-1.20155886E-1,5.656226E-2,1.0352609E0,1.7523432E0,5.6670105E-1,-1.1446427E-2,3.680727E-2,-1.172286E-3,2.1530053E-2,-6.6027404E-3,-3.4719836E-3,8.532506E-3,-1.21399E-2,6.590938E-2,-2.411124E-3,2.0283962E-2,1.0395751E-1,1.7936176E-2,4.5364156E-2,-1.0501673E-3,5.255978E-3],"categories":[],"categories_nodes":[],"categories_segments":[],"categories_sizes":[],"default_left":[0,0,0,0,0,0,0,0,0,0,0,0,0,0,0,0,0,0,0,0,0,0,0,0,0,0,0,0,0],"id":21,"left_children":[1,3,5,7,9,11,13,15,17,19,21,23,25,-1,27,-1,-1,-1,-1,-1,-1,-1,-1,-1,-1,-1,-1,-1,-1],"loss_changes":[1.9965082E1,2.2883475E0,6.127514E0,3.0307508E-1,3.3447008E0,3.9118462E0,9.093769E-2,1.4288499E0,9.537667E-3,4.8542738E-1,1.5962963E0,3.117422E0,1.703701E-1,0E0,1.8004565E-2,0E0,0E0,0E0,0E0,0E0,0E0,0E0,0E0,0E0,0E0,0E0,0E0,0E0,0E0],"parents":[2147483647,0,0,1,1,2,2,3,3,4,4,5,5,6,6,7,7,8,8,9,9,10,10,11,11,12,12,14,14],"right_children":[2,4,6,8,10,12,14,16,18,20,22,24,26,-1,28,-1,-1,-1,-1,-1,-1,-1,-1,-1,-1,-1,-1,-1,-1],"split_conditions":[3.2211E0,1.4150237E0,4.1049643E0,1.6240978E0,-2.1694359E-1,4.1049643E0,7.1987715E0,1.4664414E0,-2.1694359E-1,1.6775696E0,-2.187183E-1,3.3653135E0,1.32487E1,-1.1446427E-2,8.282272E0,-1.172286E-3,2.1530053E-2,-6.6027404E-3,-3.4719836E-3,8.532506E-3,-1.21399E-2,6.590938E-2,-2.411124E-3,2.0283962E-2,1.0395751E-1,1.7936176E-2,4.5364156E-2,-1.0501673E-3,5.255978E-3],"split_indices":[63,63,54,9,45,63,54,9,45,54,9,63,63,0,54,0,0,0,0,0,0,0,0,0,0,0,0,0,0],"split_type":[0,0,0,0,0,0,0,0,0,0,0,0,0,0,0,0,0,0,0,0,0,0,0,0,0,0,0,0,0],"sum_hessian":[7.89E2,7.71E2,1.8E1,7.55E2,1.6E1,1.4E1,4E0,7.25E2,3E1,1.2E1,4E0,8E0,6E0,1E0,3E0,7.19E2,6E0,2.3E1,7E0,9E0,3E0,3E0,1E0,2E0,6E0,5E0,1E0,2E0,1E0],"tree_param":{"num_deleted":"0","num_feature":"72","num_nodes":"29","size_leaf_vector":"1"}},{"base_weights":[7.7771433E-3,-1.9743929E-2,6.246807E-1,-2.3268607E-2,1.3152725E-1,8.2107633E-1,-9.169026E-2,-1.8313449E-2,-1.053676E-1,4.6291925E-2,2.4017882E-2,5.9536123E-1,8.250038E-2,-2.0737445E-1,1.919514E-2,-1.0030087E-3,1.9243993E-2,-6.433595E-3,-4.1749533E-3,1.118464E-2,-1.9634042E-3,3.3009525E-2,-1.9151354E-2,-2.6183368E-3,-1.2079406E-2,-1.3625928E-3,5.124578E-3],"categories":[],"categories_nodes":[],"categories_segments":[],"categories_sizes":[],"default_left":[0,0,0,0,0,0,0,0,0,0,0,0,0,0,0,0,0,0,0,0,0,0,0,0,0,0,0],"id":22,"left_children":[1,3,5,7,9,11,13,15,17,-1,19,21,-1,23,25,-1,-1,-1,-1,-1,-1,-1,-1,-1,-1,-1,-1],"loss_changes":[1.3119232E1,3.9761508E-1,4.7181244E0,2.9260322E-1,1.4294935E0,3.8823109E0,1.0660208E-1,4.8943996E-1,1.015088E-2,0E0,2.1096992E-1,1.6482925E0,0E0,8.562341E-3,2.2137426E-2,0E0,0E0,0E0,0E0,0E0,0E0,0E0,0E0,0E0,0E0,0E0,0E0],"parents":[2147483647,0,0,1,1,2,2,3,3,4,4,5,5,6,6,7,7,8,8,10,10,11,11,13,13,14,14],"right_children":[2,4,6,8,10,12,14,16,18,-1,20,22,-1,24,26,-1,-1,-1,-1,-1,-1,-1,-1,-1,-1,-1,-1],"split_conditions":[1.5145211E0,9.2614233E-1,4.1049643E0,1.305538E0,1.0786437E0,3.3653135E0,3.7221053E0,1.2875583E0,4.1415554E-1,4.6291925E-2,-2.1694359E-1,3.2962043E0,8.250038E-2,4.2986097E0,8.282272E0,-1.0030087E-3,1.9243993E-2,-6.433595E-3,-4.1749533E-3,1.118464E-2,-1.9634042E-3,3.3009525E-2,-1.9151354E-2,-2.6183368E-3,-1.2079406E-2,-1.3625928E-3,5.124578E-3],"split_indices":[63,63,54,36,63,54,63,36,54,0,45,54,0,54,54,0,0,0,0,0,0,0,0,0,0,0,0],"split_type":[0,0,0,0,0,0,0,0,0,0,0,0,0,0,0,0,0,0,0,0,0,0,0,0,0,0,0],"sum_hessian":[7.71E2,7.39E2,3.2E1,7.23E2,1.6E1,2.5E1,7E0,6.83E2,4E1,1E0,1.5E1,2.1E1,4E0,3E0,4E0,6.81E2,2E0,1.7E1,2.3E1,3E0,1.2E1,2E1,1E0,1E0,2E0,3E0,1E0],"tree_param":{"num_deleted":"0","num_feature":"72","num_nodes":"27","size_leaf_vector":"1"}},{"base_weights":[9.557734E-3,1.0269001E-3,3.8059196E-1,6.2816883E-3,-1.187497E-1,7.180379E-1,-1.3097018E-1,3.2494876E-3,3.81119E-2,-6.3950308E-3,-2.81269E-3,9.2558426E-1,-7.1973614E-3,-8.80449E-3,-2.0914052E-3,4.471139E-4,-5.038187E-3,1.0950464E-2,5.480879E-2],"categories":[],"categories_nodes":[],"categories_segments":[],"categories_sizes":[],"default_left":[0,0,0,0,0,0,0,0,0,0,0,0,0,0,0,0,0,0,0],"id":23,"left_children":[1,3,5,7,9,11,13,15,-1,-1,-1,17,-1,-1,-1,-1,-1,-1,-1],"loss_changes":[2.5349596E0,4.941961E-1,3.2012837E0,1.721266E0,1.1677653E-2,2.1011558E0,2.4810955E-2,4.4499516E-1,0E0,0E0,0E0,8.4474945E-1,0E0,0E0,0E0,0E0,0E0,0E0,0E0],"parents":[2147483647,0,0,1,1,2,2,3,3,4,4,5,5,6,6,7,7,11,11],"right_children":[2,4,6,8,10,12,14,16,-1,-1,-1,18,-1,-1,-1,-1,-1,-1,-1],"split_conditions":[3.2211E0,1.6240978E0,4.1049643E0,1.5985161E0,5.7523525E-1,-2.1827732E-1,-2.1827732E-1,1.305538E0,3.81119E-2,-6.3950308E-3,-2.81269E-3,3.3653135E0,-7.1973614E-3,-8.80449E-3,-2.0914052E-3,4.471139E-4,-5.038187E-3,1.0950464E-2,5.480879E-2],"split_indices":[54,9,54,9,36,18,18,36,0,0,0,54,0,0,0,0,0,0,0],"split_type":[0,0,0,0,0,0,0,0,0,0,0,0,0,0,0,0,0,0,0],"sum_hessian":[8E2,7.83E2,1.7E1,7.51E2,3.2E1,1E1,7E0,7.49E2,2E0,2.7E1,5E0,8E0,2E0,4E0,3E0,7.11E2,3.8E1,2E0,6E0],"tree_param":{"num_deleted":"0","num_feature":"72","num_nodes":"19","size_leaf_vector":"1"}},{"base_weights":[1.2468886E-2,-1.2623474E-2,7.717668E-1,-2.088416E-2,1.4868946E-1,1.257081E0,-8.191277E-2,-1.670914E-2,-1.1327306E-1,5.8016133E-1,-1.0717987E-2,1.7819823E0,5.0943196E-1,-1.7647919E-1,1.05447145E-2,-1.1008652E-3,2.9648796E-2,-6.118232E-3,-2.749869E-3,5.6476858E-2,1.5081263E-2,3.9769905E-3,-1.0504998E-2,1.017872E-1,-6.2027513E-3,1.6712217E-2,4.3393638E-2,-2.431207E-3,-1.2275393E-2,-1.4539476E-3,5.216576E-3],"categories":[],"categories_nodes":[],"categories_segments":[],"categories_sizes":[],"default_left":[0,0,0,0,0,0,0,0,0,0,0,0,0,0,0,0,0,0,0,0,0,0,0,0,0,0,0,0,0,0,0],"id":24,"left_children":[1,3,5,7,9,11,13,15,17,19,21,23,25,27,29,-1,-1,-1,-1,-1,-1,-1,-1,-1,-1,-1,-1,-1,-1,-1,-1],"loss_changes":[1.4889803E1,1.0118498E0,1.0460543E1,2.7621552E-1,2.551072E0,5.371273E0,8.929466E-2,2.249345E0,9.694606E-3,1.1895127E0,5.205931E-1,4.6056576E0,2.1227336E-1,3.2190695E-2,2.5330914E-2,0E0,0E0,0E0,0E0,0E0,0E0,0E0,0E0,0E0,0E0,0E0,0E0,0E0,0E0,0E0,0E0],"parents":[2147483647,0,0,1,1,2,2,3,3,4,4,5,5,6,6,7,7,8,8,9,9,10,10,11,11,12,12,13,13,14,14],"right_children":[2,4,6,8,10,12,14,16,18,20,22,24,26,28,30,-1,-1,-1,-1,-1,-1,-1,-1,-1,-1,-1,-1,-1,-1,-1,-1],"split_conditions":[2.7124417E0,4.8241886E-1,4.1049643E0,1.6240978E0,5.536267E-1,4.1049643E0,7.1987715E0,1.4664414E0,5.7523525E-1,1.0786437E0,2.0518305E0,-2.1827732E-1,1.32487E1,4.2986097E0,1.32487E1,-1.1008652E-3,2.9648796E-2,-6.118232E-3,-2.749869E-3,5.6476858E-2,1.5081263E-2,3.9769905E-3,-1.0504998E-2,1.017872E-1,-6.2027513E-3,1.6712217E-2,4.3393638E-2,-2.431207E-3,-1.2275393E-2,-1.4539476E-3,5.216576E-3],"split_indices":[63,63,54,9,54,63,54,9,36,63,54,18,63,54,54,0,0,0,0,0,0,0,0,0,0,0,0,0,0,0,0],"split_type":[0,0,0,0,0,0,0,0,0,0,0,0,0,0,0,0,0,0,0,0,0,0,0,0,0,0,0,0,0,0,0],"sum_hessian":[7.8E2,7.56E2,2.4E1,7.2E2,3.6E1,1.5E1,9E0,6.9E2,3E1,9E0,2.7E1,8E0,7E0,4E0,5E0,6.85E2,5E0,2.5E1,5E0,2E0,7E0,1.9E1,8E0,7E0,1E0,6E0,1E0,2E0,2E0,4E0,1E0],"tree_param":{"num_deleted":"0","num_feature":"72","num_nodes":"31","size_leaf_vector":"1"}},{"base_weights":[2.284543E-2,2.4829605E-3,6.5479714E-1,8.156786E-3,-1.02261186E-1,1.0059013E0,-8.115486E-2,-9.2534945E-5,3.203333E-1,-7.632876E-2,-1.18109986E-1,5.014646E-1,8.2744375E-2,-1.7059655E-1,2.4517804E-2,2.2309937E-4,-5.2497643E-3,4.0474616E-2,-1.6233557E-3,4.6530977E-4,-5.499057E-3,-6.4878985E-3,-2.5112822E-3,-2.2448255E-2,3.20702E-2,-2.3501664E-3,-1.1866213E-2,-1.0107178E-3,5.086161E-3],"categories":[],"categories_nodes":[],"categories_segments":[],"categories_sizes":[],"default_left":[0,0,0,0,0,0,0,0,0,0,0,0,0,0,0,0,0,0,0,0,0,0,0,0,0,0,0,0,0],"id":25,"left_children":[1,3,5,7,9,11,13,15,17,19,21,23,-1,25,27,-1,-1,-1,-1,-1,-1,-1,-1,-1,-1,-1,-1,-1,-1],"loss_changes":[1.030572E1,4.626052E-1,6.5415306E0,1.9005598E0,7.424712E-3,4.735462E0,8.924653E-2,3.4447148E-1,3.3052163E0,5.2896284E-2,1.1669308E-2,1.7509968E0,0E0,3.0080438E-2,1.9324094E-2,0E0,0E0,0E0,0E0,0E0,0E0,0E0,0E0,0E0,0E0,0E0,0E0,0E0,0E0],"parents":[2147483647,0,0,1,1,2,2,3,3,4,4,5,5,6,6,7,7,8,8,9,9,10,10,11,11,13,13,14,14],"right_children":[2,4,6,8,10,12,14,16,18,20,22,24,-1,26,28,-1,-1,-1,-1,-1,-1,-1,-1,-1,-1,-1,-1,-1,-1],"split_conditions":[2.7124417E0,1.3121862E0,4.1049643E0,-2.1694359E-1,1.6775696E0,3.1171775E0,7.1987715E0,1.3402256E0,1.0786437E0,-2.1694359E-1,1.0240208E0,3.3653135E0,8.2744375E-2,4.2986097E0,8.282272E0,2.2309937E-4,-5.2497643E-3,4.0474616E-2,-1.6233557E-3,4.6530977E-4,-5.499057E-3,-6.4878985E-3,-2.5112822E-3,-2.2448255E-2,3.20702E-2,-2.3501664E-3,-1.1866213E-2,-1.0107178E-3,5.086161E-3],"split_indices":[63,45,54,63,45,54,54,0,54,36,9,63,0,54,54,0,0,0,0,0,0,0,0,0,0,0,0,0,0],"split_type":[0,0,0,0,0,0,0,0,0,0,0,0,0,0,0,0,0,0,0,0,0,0,0,0,0,0,0,0,0],"sum_hessian":[8E2,7.76E2,2.4E1,7.37E2,3.9E1,1.6E1,8E0,7.19E2,1.8E1,1.7E1,2.2E1,1E1,6E0,4E0,4E0,6.9E2,2.9E1,7E0,1.1E1,5E0,1.2E1,1.8E1,4E0,1E0,9E0,2E0,2E0,3E0,1E0],"tree_param":{"num_deleted":"0","num_feature":"72","num_nodes":"29","size_leaf_vector":"1"}},{"base_weights":[7.9268886E-4,-1.9167347E-2,3.8473988E-1,-2.8355904E-2,1.0390275E-1,5.3061855E-1,-7.678228E-2,-2.607394E-2,-1.2793678E-1,4.294554E-2,5.3245146E-2,2.3213547E-1,7.586276E-1,-1.6491E-1,9.454544E-3,-1.496707E-3,1.297378E-2,-1.1567253E-2,-5.201291E-3,1.25293005E-2,-4.8456476E-3,5.410531E-3,4.607897E-2,4.281566E-2,2.4942826E-3,-2.271828E-3,-1.1470673E-2,-1.4163301E-3,4.959007E-3],"categories":[],"categories_nodes":[],"categories_segments":[],"categories_sizes":[],"default_left":[0,0,0,0,0,0,0,0,0,0,0,0,0,0,0,0,0,0,0,0,0,0,0,0,0,0,0,0,0],"id":26,"left_children":[1,3,5,7,9,11,13,15,17,19,-1,21,23,25,27,-1,-1,-1,-1,-1,-1,-1,-1,-1,-1,-1,-1,-1,-1],"loss_changes":[5.8930182E0,8.295878E-1,2.5991392E0,1.5141451E-1,2.9418414E0,1.7975445E0,7.755771E-2,7.429868E-1,1.3023004E-2,1.4472587E0,0E0,1.0964246E0,1.0650234E0,2.8108478E-2,2.3149049E-2,0E0,0E0,0E0,0E0,0E0,0E0,0E0,0E0,0E0,0E0,0E0,0E0,0E0,0E0],"parents":[2147483647,0,0,1,1,2,2,3,3,4,4,5,5,6,6,7,7,8,8,9,9,11,11,12,12,13,13,14,14],"right_children":[2,4,6,8,10,12,14,16,18,20,-1,22,24,26,28,-1,-1,-1,-1,-1,-1,-1,-1,-1,-1,-1,-1,-1,-1],"split_conditions":[1.4150237E0,6.394915E-1,3.5932143E0,1.7014422E0,-2.1694359E-1,2.0518305E0,7.1987715E0,1.5372065E0,2.0487688E0,1.3402256E0,5.3245146E-2,-2.1694359E-1,-2.1694359E-1,4.2986097E0,1.32487E1,-1.496707E-3,1.297378E-2,-1.1567253E-2,-5.201291E-3,1.25293005E-2,-4.8456476E-3,5.410531E-3,4.607897E-2,4.281566E-2,2.4942826E-3,-2.271828E-3,-1.1470673E-2,-1.4163301E-3,4.959007E-3],"split_indices":[63,0,54,18,63,63,54,18,18,0,0,45,27,54,54,0,0,0,0,0,0,0,0,0,0,0,0,0,0],"split_type":[0,0,0,0,0,0,0,0,0,0,0,0,0,0,0,0,0,0,0,0,0,0,0,0,0,0,0,0,0],"sum_hessian":[7.67E2,7.3E2,3.7E1,6.8E2,5E1,2.8E1,9E0,6.66E2,1.4E1,4.8E1,2E0,1.3E1,1.5E1,4E0,5E0,6.58E2,8E0,1E0,1.3E1,1.9E1,2.9E1,1.2E1,1E0,1.3E1,2E0,2E0,2E0,4E0,1E0],"tree_param":{"num_deleted":"0","num_feature":"72","num_nodes":"29","size_leaf_vector":"1"}},{"base_weights":[2.2017953E-3,-1.6900118E-2,7.384705E-1,-2.5942164E-2,1.7398237E-1,1.0959872E0,-8.205877E-2,-2.2681382E-2,-1.07699774E-1,7.940467E-2,5.409496E-1,1.6960851E0,4.3390322E-1,-1.1088317E-2,1.817752E-2,-1.3687148E-3,2.2827454E-3,-5.9223883E-3,-2.4274588E-3,-4.6338824E-5,1.9374818E-2,4.554985E-2,1.7832399E-3,1.016248E-1,-8.059499E-3,1.3241142E-2,4.043665E-2,-1.2814209E-3,4.835032E-3],"categories":[],"categories_nodes":[],"categories_segments":[],"categories_sizes":[],"default_left":[0,0,0,0,0,0,0,0,0,0,0,0,0,0,0,0,0,0,0,0,0,0,0,0,0,0,0,0,0],"id":27,"left_children":[1,3,5,7,9,11,13,15,17,19,21,23,25,-1,27,-1,-1,-1,-1,-1,-1,-1,-1,-1,-1,-1,-1,-1,-1],"loss_changes":[1.1123153E1,1.3352346E0,5.956995E0,1.9403681E-1,1.1717882E0,4.826475E0,1.02057524E-1,2.2894415E-1,1.205045E-2,7.1809316E-1,1.2763648E0,4.701271E0,2.9283988E-1,0E0,1.9677177E-2,0E0,0E0,0E0,0E0,0E0,0E0,0E0,0E0,0E0,0E0,0E0,0E0,0E0,0E0],"parents":[2147483647,0,0,1,1,2,2,3,3,4,4,5,5,6,6,7,7,8,8,9,9,10,10,11,11,12,12,14,14],"right_children":[2,4,6,8,10,12,14,16,18,20,22,24,26,-1,28,-1,-1,-1,-1,-1,-1,-1,-1,-1,-1,-1,-1,-1,-1],"split_conditions":[3.3653135E0,9.837933E-1,4.1049643E0,1.305538E0,3.755572E-1,4.1049643E0,7.1987715E0,4.3472484E-1,1.4664414E0,3.3653135E0,1.0786437E0,-2.1827732E-1,1.32487E1,-1.1088317E-2,1.32487E1,-1.3687148E-3,2.2827454E-3,-5.9223883E-3,-2.4274588E-3,-4.6338824E-5,1.9374818E-2,4.554985E-2,1.7832399E-3,1.016248E-1,-8.059499E-3,1.3241142E-2,4.043665E-2,-1.2814209E-3,4.835032E-3],"split_indices":[63,63,54,45,0,63,54,27,9,45,54,18,63,0,54,0,0,0,0,0,0,0,0,0,0,0,0,0,0],"split_type":[0,0,0,0,0,0,0,0,0,0,0,0,0,0,0,0,0,0,0,0,0,0,0,0,0,0,0,0,0],"sum_hessian":[7.89E2,7.7E2,1.9E1,7.36E2,3.4E1,1.3E1,6E0,7.09E2,2.7E1,2.8E1,6E0,6E0,7E0,2E0,4E0,6.64E2,4.5E1,2.2E1,5E0,2.3E1,5E0,3E0,3E0,5E0,1E0,6E0,1E0,3E0,1E0],"tree_param":{"num_deleted":"0","num_feature":"72","num_nodes":"29","size_leaf_vector":"1"}},{"base_weights":[1.5295063E-2,-5.970102E-3,6.077904E-1,-1.4950997E-2,1.7331469E-1,8.8150454E-1,-3.758282E-2,-1.1574111E-2,-1.2125729E-1,6.005636E-1,-1.4110402E-2,1.1000875E0,4.9454737E-2,-6.585145E-2,4.714157E-3,-6.6756504E-4,2.0199982E-2,-1.133514E-2,-5.2720355E-3,1.8030435E-2,5.6012023E-2,3.8312234E-3,-9.700616E-3,7.4560665E-2,2.2002807E-2,7.019927E-3,-7.858011E-3,-4.94962E-3,-1.3084203E-3],"categories":[],"categories_nodes":[],"categories_segments":[],"categories_sizes":[],"default_left":[0,0,0,0,0,0,0,0,0,0,0,0,0,0,0,0,0,0,0,0,0,0,0,0,0,0,0,0,0],"id":28,"left_children":[1,3,5,7,9,11,13,15,17,19,21,23,25,27,-1,-1,-1,-1,-1,-1,-1,-1,-1,-1,-1,-1,-1,-1,-1],"loss_changes":[9.818647E0,1.2150251E0,4.802619E0,2.5634724E-1,2.8912525E0,3.401163E0,3.9757717E-2,5.2016586E-1,1.278764E-2,9.677205E-1,4.3927386E-1,3.2161102E0,1.1601681E-1,7.930599E-3,0E0,0E0,0E0,0E0,0E0,0E0,0E0,0E0,0E0,0E0,0E0,0E0,0E0,0E0,0E0],"parents":[2147483647,0,0,1,1,2,2,3,3,4,4,5,5,6,6,7,7,8,8,9,9,10,10,11,11,12,12,13,13],"right_children":[2,4,6,8,10,12,14,16,18,20,22,24,26,28,-1,-1,-1,-1,-1,-1,-1,-1,-1,-1,-1,-1,-1,-1,-1],"split_conditions":[2.7124417E0,4.8241886E-1,4.1049643E0,1.7014422E0,1.0786437E0,-2.1694359E-1,1.32487E1,1.674793E0,2.0487688E0,-2.1694359E-1,1.7042391E0,4.1049643E0,-2.1827732E-1,5.556471E0,4.714157E-3,-6.6756504E-4,2.0199982E-2,-1.133514E-2,-5.2720355E-3,1.8030435E-2,5.6012023E-2,3.8312234E-3,-9.700616E-3,7.4560665E-2,2.2002807E-2,7.019927E-3,-7.858011E-3,-4.94962E-3,-1.3084203E-3],"split_indices":[63,63,54,18,54,27,54,18,18,54,54,63,18,54,0,0,0,0,0,0,0,0,0,0,0,0,0,0,0],"split_type":[0,0,0,0,0,0,0,0,0,0,0,0,0,0,0,0,0,0,0,0,0,0,0,0,0,0,0,0,0],"sum_hessian":[7.78E2,7.52E2,2.6E1,7.17E2,3.5E1,1.8E1,8E0,6.96E2,2.1E1,1E1,2.5E1,1.4E1,4E0,7E0,1E0,6.94E2,2E0,1E0,2E1,8E0,2E0,1.7E1,8E0,8E0,6E0,3E0,1E0,3E0,4E0],"tree_param":{"num_deleted":"0","num_feature":"72","num_nodes":"29","size_leaf_vector":"1"}},{"base_weights":[9.474997E-3,-5.564336E-3,5.5187213E-1,-1.39804715E-2,1.6868842E-1,8.6913824E-1,-7.232757E-2,-8.103369E-3,-8.1326105E-2,8.125272E-2,5.777522E-1,1.1102827E0,-1.1293381E-2,-1.0614405E-2,9.707297E-3,-4.9447716E-4,1.9526651E-2,-8.743665E-3,-2.7855686E-3,9.159392E-3,-1.7850954E-2,4.6611685E-2,-4.3737E-3,9.276228E-2,2.0977726E-2,4.354815E-3,-7.66156E-3,-1.2560835E-3,4.5963037E-3],"categories":[],"categories_nodes":[],"categories_segments":[],"categories_sizes":[],"default_left":[0,0,0,0,0,0,0,0,0,0,0,0,0,0,0,0,0,0,0,0,0,0,0,0,0,0,0,0,0],"id":29,"left_children":[1,3,5,7,9,11,13,15,17,19,21,23,25,-1,27,-1,-1,-1,-1,-1,-1,-1,-1,-1,-1,-1,-1,-1,-1],"loss_changes":[6.3494434E0,1.1139916E0,4.2216473E0,2.8589815E-1,1.2048929E0,2.9848948E0,9.39139E-2,4.787889E-1,1.2923637E-1,1.40566E0,1.4964087E0,4.881859E0,6.920674E-2,0E0,1.9490907E-2,0E0,0E0,0E0,0E0,0E0,0E0,0E0,0E0,0E0,0E0,0E0,0E0,0E0,0E0],"parents":[2147483647,0,0,1,1,2,2,3,3,4,4,5,5,6,6,7,7,8,8,9,9,10,10,11,11,12,12,14,14],"right_children":[2,4,6,8,10,12,14,16,18,20,22,24,26,-1,28,-1,-1,-1,-1,-1,-1,-1,-1,-1,-1,-1,-1,-1,-1],"split_conditions":[3.3653135E0,9.837933E-1,4.1049643E0,4.8241886E-1,-2.1694359E-1,-2.1694359E-1,7.1987715E0,4.3472484E-1,1.2875583E0,2.0518305E0,-2.187183E-1,4.1049643E0,-2.1827732E-1,-1.0614405E-2,1.32487E1,-4.9447716E-4,1.9526651E-2,-8.743665E-3,-2.7855686E-3,9.159392E-3,-1.7850954E-2,4.6611685E-2,-4.3737E-3,9.276228E-2,2.0977726E-2,4.354815E-3,-7.66156E-3,-1.2560835E-3,4.5963037E-3],"split_indices":[63,63,54,36,36,27,54,36,36,63,9,63,18,0,54,0,0,0,0,0,0,0,0,0,0,0,0,0,0],"split_type":[0,0,0,0,0,0,0,0,0,0,0,0,0,0,0,0,0,0,0,0,0,0,0,0,0,0,0,0,0],"sum_hessian":[7.77E2,7.57E2,2E1,7.23E2,3.4E1,1.3E1,7E0,6.66E2,5.7E1,2.9E1,5E0,1E1,3E0,2E0,5E0,6.64E2,2E0,1.1E1,4.6E1,2.4E1,5E0,3E0,2E0,4E0,6E0,2E0,1E0,4E0,1E0],"tree_param":{"num_deleted":"0","num_feature":"72","num_nodes":"29","size_leaf_vector":"1"}},{"base_weights":[1.3633974E-2,-1.9596142E-3,3.3942115E-1,2.104938E-3,-9.669225E-2,4.4110617E-1,-7.161471E-2,-1.3090452E-3,4.1094866E-2,-1.286687E-1,1.5131594E-1,2.5760728E-1,7.6399326E-1,-1.652994E-1,1.765598E-2,1.4234443E-4,-4.6951966E-3,-7.1582044E-3,-3.236526E-3,2.1408996E-2,-4.184935E-3,-2.67496E-3,3.654772E-2,6.1760534E-2,2.2866917E-3,-1.5852631E-3,-9.9631185E-3,-1.1371992E-3,4.481396E-3],"categories":[],"categories_nodes":[],"categories_segments":[],"categories_sizes":[],"default_left":[0,0,0,0,0,0,0,0,0,0,0,0,0,0,0,0,0,0,0,0,0,0,0,0,0,0,0,0,0],"id":30,"left_children":[1,3,5,7,9,11,13,15,-1,17,19,21,23,25,27,-1,-1,-1,-1,-1,-1,-1,-1,-1,-1,-1,-1,-1,-1],"loss_changes":[4.003855E0,2.9014298E-1,1.536253E0,2.0245774E0,2.6531264E-1,1.5214233E0,6.9824904E-2,2.7772126E-1,0E0,1.6683578E-2,2.9610646E-1,2.9843326E0,3.3280716E0,1.1831343E-2,1.6576815E-2,0E0,0E0,0E0,0E0,0E0,0E0,0E0,0E0,0E0,0E0,0E0,0E0,0E0,0E0],"parents":[2147483647,0,0,1,1,2,2,3,3,4,4,5,5,6,6,7,7,9,9,10,10,11,11,12,12,13,13,14,14],"right_children":[2,4,6,8,10,12,14,16,-1,18,20,22,24,26,28,-1,-1,-1,-1,-1,-1,-1,-1,-1,-1,-1,-1,-1,-1],"split_conditions":[1.4150237E0,1.3946524E0,4.1049643E0,1.2902082E0,7.6294837E0,-2.1694359E-1,3.7221053E0,1.3121862E0,4.1094866E-2,1.361586E0,7.6930313E0,3.3653135E0,-2.1694359E-1,4.2986097E0,1.32487E1,1.4234443E-4,-4.6951966E-3,-7.1582044E-3,-3.236526E-3,2.1408996E-2,-4.184935E-3,-2.67496E-3,3.654772E-2,6.1760534E-2,2.2866917E-3,-1.5852631E-3,-9.9631185E-3,-1.1371992E-3,4.481396E-3],"split_indices":[63,0,54,0,0,45,63,45,0,18,0,63,27,54,54,0,0,0,0,0,0,0,0,0,0,0,0,0,0],"split_type":[0,0,0,0,0,0,0,0,0,0,0,0,0,0,0,0,0,0,0,0,0,0,0,0,0,0,0,0,0],"sum_hessian":[7.87E2,7.52E2,3.5E1,7.22E2,3E1,2.8E1,7E0,7.2E2,2E0,2.7E1,3E0,1.9E1,9E0,3E0,4E0,6.9E2,3E1,2.1E1,6E0,1E0,2E0,1.2E1,7E0,5E0,4E0,1E0,2E0,3E0,1E0],"tree_param":{"num_deleted":"0","num_feature":"72","num_nodes":"29","size_leaf_vector":"1"}},{"base_weights":[-6.2615164E-3,-2.2994418E-2,3.1911802E-1,-1.8513832E-2,-8.888405E-2,1.65411E-1,6.5117455E-1,-1.9861521E-2,2.345863E-2,-1.25771E-1,-5.283466E-2,-3.6210258E-2,4.0083632E-1,9.806082E-1,-6.154305E-3,-1.1254897E-3,5.6701633E-3,-5.02409E-3,-8.461018E-3,1.3375691E-2,-3.8174575E-3,5.142046E-3,-1.8134553E-2,4.0792257E-2,6.286925E-3,5.7612758E-2,-5.523017E-3,4.9797813E-3,-5.49264E-3],"categories":[],"categories_nodes":[],"categories_segments":[],"categories_sizes":[],"default_left":[0,0,0,0,0,0,0,0,0,0,0,0,0,0,0,0,0,0,0,0,0,0,0,0,0,0,0,0,0],"id":31,"left_children":[1,3,5,7,9,11,13,15,-1,17,19,21,23,25,27,-1,-1,-1,-1,-1,-1,-1,-1,-1,-1,-1,-1,-1,-1],"loss_changes":[4.341195E0,2.2213432E-1,1.8828256E0,4.7662288E-1,5.7183027E-2,1.3435833E0,2.60459E0,2.5312683E-1,0E0,8.268833E-3,2.1627808E-1,7.636601E-1,1.3816011E0,1.6255078E0,6.57714E-2,0E0,0E0,0E0,0E0,0E0,0E0,0E0,0E0,0E0,0E0,0E0,0E0,0E0,0E0],"parents":[2147483647,0,0,1,1,2,2,3,3,4,4,5,5,6,6,7,7,9,9,10,10,11,11,12,12,13,13,14,14],"right_children":[2,4,6,8,10,12,14,16,-1,18,20,22,24,26,28,-1,-1,-1,-1,-1,-1,-1,-1,-1,-1,-1,-1,-1,-1],"split_conditions":[1.4150237E0,6.981026E-1,-2.1694359E-1,5.7523525E-1,1.5152285E0,3.3653135E0,-2.1694359E-1,-2.1694359E-1,2.345863E-2,-2.1827732E-1,1.5585203E0,2.0518305E0,4.1049643E0,4.1049643E0,-2.1827732E-1,-1.1254897E-3,5.6701633E-3,-5.02409E-3,-8.461018E-3,1.3375691E-2,-3.8174575E-3,5.142046E-3,-1.8134553E-2,4.0792257E-2,6.286925E-3,5.7612758E-2,-5.523017E-3,4.9797813E-3,-5.49264E-3],"split_indices":[63,36,45,36,27,63,27,63,0,18,27,63,63,45,18,0,0,0,0,0,0,0,0,0,0,0,0,0,0],"split_type":[0,0,0,0,0,0,0,0,0,0,0,0,0,0,0,0,0,0,0,0,0,0,0,0,0,0,0,0,0],"sum_hessian":[7.95E2,7.57E2,3.8E1,7.1E2,4.7E1,2.7E1,1.1E1,7.09E2,1E0,2.2E1,2.5E1,1.5E1,1.2E1,7E0,4E0,6.96E2,1.3E1,1.6E1,6E0,1E0,2.4E1,1.1E1,4E0,4E0,8E0,6E0,1E0,2E0,2E0],"tree_param":{"num_deleted":"0","num_feature":"72","num_nodes":"29","size_leaf_vector":"1"}},{"base_weights":[1.2338672E-2,-8.816477E-3,6.608851E-1,-1.5959417E-2,1.2863518E-1,1.1037356E0,2.3409297E-1,-1.2147066E-2,-9.131476E-2,6.1842614E-1,-2.2589957E-2,1.3519218E0,-9.146392E-2,1.3739133E-1,3.7280355E-2,-7.0427556E-4,1.6336257E-2,-5.732538E-3,-3.7077323E-3,1.7576022E-2,5.1753204E-2,3.2342037E-3,-8.96082E-3,2.1483386E-2,8.4289625E-2,5.3007604E-4,-7.3898705E-3,9.512475E-3,7.3842006E-4],"categories":[],"categories_nodes":[],"categories_segments":[],"categories_sizes":[],"default_left":[0,0,0,0,0,0,0,0,0,0,0,0,0,0,0,0,0,0,0,0,0,0,0,0,0,0,0,0,0],"id":32,"left_children":[1,3,5,7,9,11,13,15,17,19,21,23,25,27,-1,-1,-1,-1,-1,-1,-1,-1,-1,-1,-1,-1,-1,-1,-1],"loss_changes":[1.0858423E1,7.5510037E-1,4.466749E0,2.0860599E-1,2.828581E0,3.683238E0,5.9005946E-1,4.617939E-1,5.5137873E-3,6.3698125E-1,4.21675E-1,2.354805E0,1.8815981E-2,8.14514E-2,0E0,0E0,0E0,0E0,0E0,0E0,0E0,0E0,0E0,0E0,0E0,0E0,0E0,0E0,0E0],"parents":[2147483647,0,0,1,1,2,2,3,3,4,4,5,5,6,6,7,7,8,8,9,9,10,10,11,11,12,12,13,13],"right_children":[2,4,6,8,10,12,14,16,18,20,22,24,26,28,-1,-1,-1,-1,-1,-1,-1,-1,-1,-1,-1,-1,-1,-1,-1],"split_conditions":[2.7124417E0,4.8241886E-1,4.1049643E0,1.305538E0,1.0786437E0,-2.1694359E-1,1.32487E1,1.2650334E0,1.6319573E0,-2.1694359E-1,2.0518305E0,3.2211E0,-2.1827732E-1,3.1171775E0,3.7280355E-2,-7.0427556E-4,1.6336257E-2,-5.732538E-3,-3.7077323E-3,1.7576022E-2,5.1753204E-2,3.2342037E-3,-8.96082E-3,2.1483386E-2,8.4289625E-2,5.3007604E-4,-7.3898705E-3,9.512475E-3,7.3842006E-4],"split_indices":[63,63,63,36,54,27,63,36,36,54,54,63,18,54,0,0,0,0,0,0,0,0,0,0,0,0,0,0,0],"split_type":[0,0,0,0,0,0,0,0,0,0,0,0,0,0,0,0,0,0,0,0,0,0,0,0,0,0,0,0,0],"sum_hessian":[7.9E2,7.66E2,2.4E1,7.29E2,3.7E1,1.1E1,1.3E1,6.95E2,3.4E1,8E0,2.9E1,9E0,2E0,1.2E1,1E0,6.92E2,3E0,1.2E1,2.2E1,6E0,2E0,1.9E1,1E1,3E0,6E0,1E0,1E0,8E0,4E0],"tree_param":{"num_deleted":"0","num_feature":"72","num_nodes":"29","size_leaf_vector":"1"}},{"base_weights":[8.207241E-3,-8.336445E-3,4.7909197E-1,-1.605958E-2,1.257297E-1,7.2413737E-1,-9.145852E-2,-1.2363376E-2,-8.676539E-2,5.02222E-1,-2.4065057E-2,9.040466E-1,3.958218E-2,-2.1757457E-1,7.861937E-3,-7.679259E-4,3.408194E-2,-5.6782695E-3,5.105385E-3,1.512489E-2,5.0028104E-2,2.5837976E-3,-8.32369E-3,6.1619636E-2,1.7636888E-2,6.0764477E-3,-7.2051226E-3,-6.106295E-4,-1.4097886E-2,-1.2057748E-3,4.193728E-3],"categories":[],"categories_nodes":[],"categories_segments":[],"categories_sizes":[],"default_left":[0,0,0,0,0,0,0,0,0,0,0,0,0,0,0,0,0,0,0,0,0,0,0,0,0,0,0,0,0,0,0],"id":33,"left_children":[1,3,5,7,9,11,13,15,17,19,21,23,25,27,29,-1,-1,-1,-1,-1,-1,-1,-1,-1,-1,-1,-1,-1,-1,-1,-1],"loss_changes":[6.1971784E0,7.9825E-1,3.8411193E0,1.8918502E-1,2.3807418E0,2.3042135E0,1.1444369E-1,1.4509629E0,1.9382066E-1,8.916991E-1,3.4297428E-1,2.28059E0,9.2774436E-2,4.9443945E-2,1.6606808E-2,0E0,0E0,0E0,0E0,0E0,0E0,0E0,0E0,0E0,0E0,0E0,0E0,0E0,0E0,0E0,0E0],"parents":[2147483647,0,0,1,1,2,2,3,3,4,4,5,5,6,6,7,7,8,8,9,9,10,10,11,11,12,12,13,13,14,14],"right_children":[2,4,6,8,10,12,14,16,18,20,22,24,26,28,30,-1,-1,-1,-1,-1,-1,-1,-1,-1,-1,-1,-1,-1,-1,-1,-1],"split_conditions":[2.7124417E0,4.8241886E-1,4.1049643E0,1.3402256E0,1.0786437E0,-2.1694359E-1,7.1987715E0,1.2902082E0,7.6294837E0,-2.1694359E-1,2.0518305E0,4.1049643E0,-2.1827732E-1,4.114978E0,1.32487E1,-7.679259E-4,3.408194E-2,-5.6782695E-3,5.105385E-3,1.512489E-2,5.0028104E-2,2.5837976E-3,-8.32369E-3,6.1619636E-2,1.7636888E-2,6.0764477E-3,-7.2051226E-3,-6.106295E-4,-1.4097886E-2,-1.2057748E-3,4.193728E-3],"split_indices":[63,63,54,0,54,27,54,0,0,54,54,63,18,54,54,0,0,0,0,0,0,0,0,0,0,0,0,0,0,0,0],"split_type":[0,0,0,0,0,0,0,0,0,0,0,0,0,0,0,0,0,0,0,0,0,0,0,0,0,0,0,0,0,0,0],"sum_hessian":[7.94E2,7.68E2,2.6E1,7.27E2,4.1E1,1.8E1,8E0,6.92E2,3.5E1,1.1E1,3E1,1.4E1,4E0,3E0,5E0,6.9E2,2E0,3.1E1,4E0,9E0,2E0,2E1,1E1,8E0,6E0,3E0,1E0,1E0,2E0,4E0,1E0],"tree_param":{"num_deleted":"0","num_feature":"72","num_nodes":"31","size_leaf_vector":"1"}},{"base_weights":[7.451151E-4,4.2461767E-3,-8.785658E-2,8.612052E-4,3.677658E-1,-1.0771786E-2,-7.602849E-2,3.0718513E-3,-1.2521188E-1,2.5672693E-2,1.3013634E-1,-4.544701E-3,-3.8694587E-2,-2.5414889E-5,2.6508573E-2,-7.4637905E-3,4.0888847E-3,-5.8391634E-3,1.25685325E-2,-2.3665912E-3,-1.0295494E-3],"categories":[],"categories_nodes":[],"categories_segments":[],"categories_sizes":[],"default_left":[0,0,0,0,0,0,0,0,0,0,0,0,0,0,0,0,0,0,0,0,0],"id":34,"left_children":[1,3,5,7,9,-1,11,13,15,-1,17,-1,19,-1,-1,-1,-1,-1,-1,-1,-1],"loss_changes":[2.4481067E-1,9.336356E-1,2.8891295E-2,2.1024798E-1,1.755194E-1,0E0,1.2577549E-2,1.3986071E0,7.6960236E-2,0E0,1.490964E-1,0E0,5.8904104E-4,0E0,0E0,0E0,0E0,0E0,0E0,0E0,0E0],"parents":[2147483647,0,0,1,1,2,2,3,3,4,4,6,6,7,7,8,8,10,10,12,12],"right_children":[2,4,6,8,10,-1,12,14,16,-1,18,-1,20,-1,-1,-1,-1,-1,-1,-1,-1],"split_conditions":[1.7014422E0,1.5372065E0,2.0487688E0,3.4988127E0,6.981026E-1,-1.0771786E-2,1.364124E0,3.3653135E0,9.225329E0,2.5672693E-2,1.5694762E0,-4.544701E-3,3.1171775E0,-2.5414889E-5,2.6508573E-2,-7.4637905E-3,4.0888847E-3,-5.8391634E-3,1.25685325E-2,-2.3665912E-3,-1.0295494E-3],"split_indices":[18,18,18,54,36,0,36,54,54,0,18,0,45,0,0,0,0,0,0,0,0],"split_type":[0,0,0,0,0,0,0,0,0,0,0,0,0,0,0,0,0,0,0,0,0],"sum_hessian":[7.87E2,7.58E2,2.9E1,7.52E2,6E0,1E0,2.8E1,7.4E2,1.2E1,3E0,3E0,1.9E1,9E0,7.36E2,4E0,1.1E1,1E0,1E0,2E0,5E0,4E0],"tree_param":{"num_deleted":"0","num_feature":"72","num_nodes":"21","size_leaf_vector":"1"}},{"base_weights":[5.2576805E-3,-7.124066E-3,5.250143E-1,-1.5561308E-2,1.3440493E-1,8.999358E-1,2.3131548E-1,-1.2940392E-2,-8.565264E-2,4.4725463E-2,4.4381052E-1,5.337873E-2,-6.8383995E-3,1.217694E-1,3.590806E-2,-7.9585233E-4,1.1331488E-2,-1.0502491E-2,-3.639465E-3,9.51741E-6,2.6727414E-2,4.623868E-2,1.0398652E-2,-5.8764947E-4,8.665471E-3],"categories":[],"categories_nodes":[],"categories_segments":[],"categories_sizes":[],"default_left":[0,0,0,0,0,0,0,0,0,0,0,0,0,0,0,0,0,0,0,0,0,0,0,0,0],"id":35,"left_children":[1,3,5,7,9,11,13,15,17,19,21,-1,-1,23,-1,-1,-1,-1,-1,-1,-1,-1,-1,-1,-1],"loss_changes":[5.255104E0,9.549948E-1,1.8839965E0,1.3740411E-1,1.22878E0,1.536344E0,5.525344E-1,5.2275676E-1,2.7915016E-2,7.8521365E-1,9.419632E-1,0E0,0E0,7.773611E-2,0E0,0E0,0E0,0E0,0E0,0E0,0E0,0E0,0E0,0E0,0E0],"parents":[2147483647,0,0,1,1,2,2,3,3,4,4,5,5,6,6,7,7,8,8,9,9,10,10,13,13],"right_children":[2,4,6,8,10,12,14,16,18,20,22,-1,-1,24,-1,-1,-1,-1,-1,-1,-1,-1,-1,-1,-1],"split_conditions":[3.3653135E0,4.8241886E-1,4.1049643E0,1.7014422E0,3.755572E-1,-2.1827732E-1,1.32487E1,1.5125755E0,2.0487688E0,2.9385052E0,1.0786437E0,5.337873E-2,-6.8383995E-3,4.3768706E0,3.590806E-2,-7.9585233E-4,1.1331488E-2,-1.0502491E-2,-3.639465E-3,9.51741E-6,2.6727414E-2,4.623868E-2,1.0398652E-2,-5.8764947E-4,8.665471E-3],"split_indices":[63,63,63,18,0,18,63,18,18,36,63,0,0,63,0,0,0,0,0,0,0,0,0,0,0],"split_type":[0,0,0,0,0,0,0,0,0,0,0,0,0,0,0,0,0,0,0,0,0,0,0,0,0],"sum_hessian":[8.15E2,7.97E2,1.8E1,7.53E2,4.4E1,7E0,1.1E1,7.27E2,2.6E1,3.5E1,9E0,6E0,1E0,1E1,1E0,7.19E2,8E0,1E0,2.5E1,3.3E1,2E0,2E0,7E0,3E0,7E0],"tree_param":{"num_deleted":"0","num_feature":"72","num_nodes":"25","size_leaf_vector":"1"}},{"base_weights":[-2.451885E-3,-1.6964559E-2,6.1286044E-1,-2.6299065E-2,1.3616748E-1,9.862869E-1,-1.1485074E-1,-2.3639845E-2,-8.094284E-2,4.7479317E-2,4.7579038E-1,7.844613E-2,3.4598678E-1,-1.5158454E-2,2.1110406E-2,-1.3296361E-3,3.297325E-2,-4.6539395E-3,-1.1284736E-3,4.0132855E-3,-2.7501112E-2,3.5932768E-2,-3.7273188E-4,8.512444E-3,3.5010356E-2,-5.6561286E-4,3.7700266E-3],"categories":[],"categories_nodes":[],"categories_segments":[],"categories_sizes":[],"default_left":[0,0,0,0,0,0,0,0,0,0,0,0,0,0,0,0,0,0,0,0,0,0,0,0,0,0,0],"id":36,"left_children":[1,3,5,7,9,11,13,15,17,19,21,-1,23,-1,25,-1,-1,-1,-1,-1,-1,-1,-1,-1,-1,-1,-1],"loss_changes":[6.9756618E0,1.0942224E0,5.004715E0,1.0270956E-1,1.3027134E0,3.9339132E0,1.8562788E-1,1.4053193E0,2.127701E-2,7.493851E-1,1.0616267E0,0E0,3.1654018E-1,0E0,9.654103E-3,0E0,0E0,0E0,0E0,0E0,0E0,0E0,0E0,0E0,0E0,0E0,0E0],"parents":[2147483647,0,0,1,1,2,2,3,3,4,4,5,5,6,6,7,7,8,8,9,9,10,10,12,12,14,14],"right_children":[2,4,6,8,10,12,14,16,18,20,22,-1,24,-1,26,-1,-1,-1,-1,-1,-1,-1,-1,-1,-1,-1,-1],"split_conditions":[3.3653135E0,4.8241886E-1,4.1049643E0,1.6240978E0,3.755572E-1,4.1049643E0,7.1987715E0,1.5985161E0,5.7523525E-1,3.2962043E0,1.0786437E0,7.844613E-2,1.32487E1,-1.5158454E-2,8.282272E0,-1.3296361E-3,3.297325E-2,-4.6539395E-3,-1.1284736E-3,4.0132855E-3,-2.7501112E-2,3.5932768E-2,-3.7273188E-4,8.512444E-3,3.5010356E-2,-5.6561286E-4,3.7700266E-3],"split_indices":[63,63,54,9,0,63,54,9,36,63,54,0,63,0,54,0,0,0,0,0,0,0,0,0,0,0,0],"split_type":[0,0,0,0,0,0,0,0,0,0,0,0,0,0,0,0,0,0,0,0,0,0,0,0,0,0,0],"sum_hessian":[7.79E2,7.62E2,1.7E1,7.19E2,4.3E1,1.1E1,6E0,6.87E2,3.2E1,3.5E1,8E0,5E0,6E0,2E0,4E0,6.85E2,2E0,2.6E1,6E0,3.4E1,1E0,5E0,3E0,5E0,1E0,3E0,1E0],"tree_param":{"num_deleted":"0","num_feature":"72","num_nodes":"27","size_leaf_vector":"1"}},{"base_weights":[8.952469E-3,-4.8773875E-3,2.912881E-1,-8.301276E-3,1.0460136E-1,3.974455E-1,-8.313999E-2,-5.119852E-3,-6.984334E-2,-1.3646548E-2,6.696906E-1,2.9447225E-1,5.9586156E-2,-1.2863812E-1,-2.1013875E-2,-4.7357692E-4,5.17698E-3,-4.9669878E-3,-1.7414022E-3,7.893527E-3,-2.6600386E-3,4.349963E-2,1.7196119E-3,1.8555209E-2,-1.779511E-3,-1.1334796E-3,-9.586363E-3,4.2699277E-5,-1.3347168E-3],"categories":[],"categories_nodes":[],"categories_segments":[],"categories_sizes":[],"default_left":[0,0,0,0,0,0,0,0,0,0,0,0,0,0,0,0,0,0,0,0,0,0,0,0,0,0,0,0,0],"id":37,"left_children":[1,3,5,7,9,11,13,15,17,19,21,23,-1,25,27,-1,-1,-1,-1,-1,-1,-1,-1,-1,-1,-1,-1,-1,-1],"loss_changes":[3.0939124E0,2.842496E-1,1.503732E0,1.4335331E-1,1.5460132E0,2.0209622E0,2.2736408E-2,3.315042E-1,3.3721894E-2,1.4408334E-1,4.7908533E-1,6.961274E-1,0E0,2.9080942E-2,6.438941E-4,0E0,0E0,0E0,0E0,0E0,0E0,0E0,0E0,0E0,0E0,0E0,0E0,0E0,0E0],"parents":[2147483647,0,0,1,1,2,2,3,3,4,4,5,5,6,6,7,7,8,8,9,9,10,10,11,11,13,13,14,14],"right_children":[2,4,6,8,10,12,14,16,18,20,22,24,-1,26,28,-1,-1,-1,-1,-1,-1,-1,-1,-1,-1,-1,-1,-1,-1],"split_conditions":[1.5152285E0,4.8241886E-1,4.1049643E0,1.305538E0,1.0537916E0,3.631689E0,3.4177756E0,4.3472484E-1,4.1415554E-1,1.1354767E0,1.3946524E0,-2.1694359E-1,5.9586156E-2,4.2986097E0,7.918685E0,-4.7357692E-4,5.17698E-3,-4.9669878E-3,-1.7414022E-3,7.893527E-3,-2.6600386E-3,4.349963E-2,1.7196119E-3,1.8555209E-2,-1.779511E-3,-1.1334796E-3,-9.586363E-3,4.2699277E-5,-1.3347168E-3],"split_indices":[63,63,54,36,0,54,63,27,54,54,0,27,0,54,54,0,0,0,0,0,0,0,0,0,0,0,0,0,0],"split_type":[0,0,0,0,0,0,0,0,0,0,0,0,0,0,0,0,0,0,0,0,0,0,0,0,0,0,0,0,0],"sum_hessian":[7.91E2,7.55E2,3.6E1,7.33E2,2.2E1,2.8E1,8E0,6.98E2,3.5E1,1.9E1,3E0,2.6E1,2E0,4E0,4E0,6.72E2,2.6E1,1.8E1,1.7E1,3E0,1.6E1,2E0,1E0,2.1E1,5E0,2E0,2E0,1E0,3E0],"tree_param":{"num_deleted":"0","num_feature":"72","num_nodes":"29","size_leaf_vector":"1"}},{"base_weights":[1.415249E-2,-2.7809811E-3,4.2665416E-1,-8.549259E-3,6.1924413E-2,5.107761E-1,-8.983299E-3,-1.0631682E-2,1.3515987E-1,2.2608261E-1,-7.117142E-2,6.5162414E-1,2.202568E-1,-1.1911092E-1,7.042398E-3,-4.2564116E-4,-6.446577E-3,1.6699469E-2,-2.6529026E-3,1.5041793E-2,-8.897474E-3,-4.881067E-3,7.911042E-3,1.8559776E-2,5.5193868E-2,4.753996E-3,3.367122E-2,-7.646456E-3,-4.4140892E-4],"categories":[],"categories_nodes":[],"categories_segments":[],"categories_sizes":[],"default_left":[0,0,0,0,0,0,0,0,0,0,0,0,0,0,0,0,0,0,0,0,0,0,0,0,0,0,0,0,0],"id":38,"left_children":[1,3,5,7,9,11,13,15,17,19,21,23,25,27,-1,-1,-1,-1,-1,-1,-1,-1,-1,-1,-1,-1,-1,-1,-1],"loss_changes":[5.4914637E0,2.826979E-1,1.140635E0,2.0942485E-1,1.3707144E0,9.2037106E-1,1.1577989E-1,1.708557E-1,3.9195368E-1,8.992094E-1,2.27805E-1,1.7462664E0,5.032318E-1,1.3568159E-2,0E0,0E0,0E0,0E0,0E0,0E0,0E0,0E0,0E0,0E0,0E0,0E0,0E0,0E0,0E0],"parents":[2147483647,0,0,1,1,2,2,3,3,4,4,5,5,6,6,7,7,8,8,9,9,10,10,11,11,12,12,13,13],"right_children":[2,4,6,8,10,12,14,16,18,20,22,24,26,28,-1,-1,-1,-1,-1,-1,-1,-1,-1,-1,-1,-1,-1,-1,-1],"split_conditions":[1.5145211E0,6.394915E-1,-2.1694359E-1,1.248037E0,1.3946524E0,4.1049643E0,3.2962043E0,-2.0661132E-1,1.5547644E0,6.981026E-1,7.6294837E0,3.4177756E0,9.225329E0,1.0786437E0,7.042398E-3,-4.2564116E-4,-6.446577E-3,1.6699469E-2,-2.6529026E-3,1.5041793E-2,-8.897474E-3,-4.881067E-3,7.911042E-3,1.8559776E-2,5.5193868E-2,4.753996E-3,3.367122E-2,-7.646456E-3,-4.4140892E-4],"split_indices":[63,0,27,9,0,63,36,0,9,27,0,63,63,27,0,0,0,0,0,0,0,0,0,0,0,0,0,0,0],"split_type":[0,0,0,0,0,0,0,0,0,0,0,0,0,0,0,0,0,0,0,0,0,0,0,0,0,0,0,0,0],"sum_hessian":[7.85E2,7.55E2,3E1,6.94E2,6.1E1,2.5E1,5E0,6.85E2,9E0,2.7E1,3.4E1,1.6E1,9E0,3E0,2E0,6.74E2,1.1E1,4E0,5E0,2.3E1,4E0,3.1E1,3E0,1.1E1,5E0,8E0,1E0,2E0,1E0],"tree_param":{"num_deleted":"0","num_feature":"72","num_nodes":"29","size_leaf_vector":"1"}},{"base_weights":[2.9252907E-3,-1.2693714E-2,4.661672E-1,-1.16370795E-2,-1.9099025E-2,6.2261695E-1,-1.0695152E-1,-1.3438213E-2,4.1790986E-1,7.558986E-1,-6.616381E-2,-1.9723903E-1,-1.2498014E-2,-4.7031447E-4,-3.7080732E-3,3.554221E-2,-4.1989684E-3,5.065447E-2,1.4024883E-2,-7.391572E-3,4.4709775E-3,-9.4499736E-4,-1.3847929E-2,-7.721857E-5,-7.817219E-4],"categories":[],"categories_nodes":[],"categories_segments":[],"categories_sizes":[],"default_left":[0,0,0,0,0,0,0,0,0,0,0,0,0,0,0,0,0,0,0,0,0,0,0,0,0],"id":39,"left_children":[1,3,5,7,-1,9,11,13,15,17,19,21,23,-1,-1,-1,-1,-1,-1,-1,-1,-1,-1,-1,-1],"loss_changes":[5.3239202E0,2.7337813E-1,2.218532E0,5.5569637E-1,0E0,1.7942481E0,4.870274E-2,1.7288798E-1,5.007579E-1,1.6721306E0,6.4043514E-2,3.7416838E-2,1.1327566E-4,0E0,0E0,0E0,0E0,0E0,0E0,0E0,0E0,0E0,0E0,0E0,0E0],"parents":[2147483647,0,0,1,1,2,2,3,3,5,5,6,6,7,7,8,8,9,9,10,10,11,11,12,12],"right_children":[2,4,6,8,-1,10,12,14,16,18,20,22,24,-1,-1,-1,-1,-1,-1,-1,-1,-1,-1,-1,-1],"split_conditions":[2.7124417E0,2.6933367E0,4.1049643E0,2.0518305E0,-1.9099025E-2,-2.1694359E-1,7.1987715E0,6.981026E-1,-2.187183E-1,4.1049643E0,1.0786437E0,4.114978E0,7.918685E0,-4.7031447E-4,-3.7080732E-3,3.554221E-2,-4.1989684E-3,5.065447E-2,1.4024883E-2,-7.391572E-3,4.4709775E-3,-9.4499736E-4,-1.3847929E-2,-7.721857E-5,-7.817219E-4],"split_indices":[63,63,54,63,0,27,54,45,9,63,27,54,54,0,0,0,0,0,0,0,0,0,0,0,0],"split_type":[0,0,0,0,0,0,0,0,0,0,0,0,0,0,0,0,0,0,0,0,0,0,0,0,0],"sum_hessian":[7.34E2,7.11E2,2.3E1,7.1E2,1E0,1.8E1,5E0,7.08E2,2E0,1.5E1,3E0,2E0,3E0,6.65E2,4.3E1,1E0,1E0,9E0,6E0,2E0,1E0,1E0,1E0,1E0,2E0],"tree_param":{"num_deleted":"0","num_feature":"72","num_nodes":"25","size_leaf_vector":"1"}},{"base_weights":[-5.884101E-3,-1.5154837E-2,4.1546252E-1,-1.2789675E-2,-2.3303423E-2,5.702115E-2,1.7865506E-1,-1.8954132E-2,9.436543E-2,9.246295E-2,3.2478817E-2,-1.1775781E-3,2.7415862E-3,2.673622E-4,2.1008566E-2,8.540594E-4,6.87207E-3],"categories":[],"categories_nodes":[],"categories_segments":[],"categories_sizes":[],"default_left":[0,0,0,0,0,0,0,0,0,0,0,0,0,0,0,0,0],"id":40,"left_children":[1,3,5,7,-1,-1,9,11,13,15,-1,-1,-1,-1,-1,-1,-1],"loss_changes":[3.0843766E0,8.1736445E-1,2.7147503E0,5.0975394E-1,0E0,0E0,5.081941E-1,2.4824744E-1,1.2158644E0,4.172954E-2,0E0,0E0,0E0,0E0,0E0,0E0,0E0],"parents":[2147483647,0,0,1,1,2,2,3,3,6,6,7,7,8,8,9,9],"right_children":[2,4,6,8,-1,-1,10,12,14,16,-1,-1,-1,-1,-1,-1,-1],"split_conditions":[3.4386365E0,3.2211E0,3.6468964E0,4.8241886E-1,-2.3303423E-2,5.702115E-2,1.32487E1,1.2625709E0,3.755572E-1,4.645712E0,3.2478817E-2,-1.1775781E-3,2.7415862E-3,2.673622E-4,2.1008566E-2,8.540594E-4,6.87207E-3],"split_indices":[63,63,63,63,0,0,63,18,0,63,0,0,0,0,0,0,0],"split_type":[0,0,0,0,0,0,0,0,0,0,0,0,0,0,0,0,0],"sum_hessian":[7.87E2,7.71E2,1.6E1,7.68E2,3E0,3E0,1.3E1,7.27E2,4.1E1,1.2E1,1E0,6.85E2,4.2E1,3.3E1,8E0,5E0,7E0],"tree_param":{"num_deleted":"0","num_feature":"72","num_nodes":"17","size_leaf_vector":"1"}},{"base_weights":[9.678951E-3,-4.4611935E-3,2.964241E-1,-1.0089524E-2,6.1723452E-2,4.0961233E-1,-1.0122961E-1,-5.7357852E-3,-7.918469E-2,2.1005517E-1,-6.9995664E-2,1.5798275E-1,6.3393444E-1,-2.3259428E-1,3.2184348E-3,-4.0113667E-4,1.4612858E-2,-7.416544E-3,-2.8963552E-3,1.5954673E-2,-8.132222E-3,-4.872929E-3,4.889789E-3,-8.8898017E-4,3.2288708E-2,3.9284445E-2,1.0093794E-3,-9.2805625E-4,-1.4887581E-2,-1.1821078E-3,3.4380348E-3],"categories":[],"categories_nodes":[],"categories_segments":[],"categories_sizes":[],"default_left":[0,0,0,0,0,0,0,0,0,0,0,0,0,0,0,0,0,0,0,0,0,0,0,0,0,0,0,0,0,0,0],"id":41,"left_children":[1,3,5,7,9,11,13,15,17,19,21,23,25,27,29,-1,-1,-1,-1,-1,-1,-1,-1,-1,-1,-1,-1,-1,-1,-1,-1],"loss_changes":[3.1923068E0,2.8037706E-1,1.706825E0,2.0801565E-1,1.1674523E0,1.5367851E0,1.2423564E-1,4.4736046E-1,5.1672757E-2,1.1897775E0,1.5698837E-1,1.2975119E0,1.3812213E0,5.02567E-2,1.2188673E-2,0E0,0E0,0E0,0E0,0E0,0E0,0E0,0E0,0E0,0E0,0E0,0E0,0E0,0E0,0E0,0E0],"parents":[2147483647,0,0,1,1,2,2,3,3,4,4,5,5,6,6,7,7,8,8,9,9,10,10,11,11,12,12,13,13,14,14],"right_children":[2,4,6,8,10,12,14,16,18,20,22,24,26,28,30,-1,-1,-1,-1,-1,-1,-1,-1,-1,-1,-1,-1,-1,-1,-1,-1],"split_conditions":[1.4150237E0,6.394915E-1,4.1049643E0,6.981026E-1,1.3946524E0,2.7124417E0,7.1987715E0,4.1415554E-1,1.2875583E0,1.3030447E0,6.9040465E0,-2.1694359E-1,-2.1694359E-1,4.114978E0,1.32487E1,-4.0113667E-4,1.4612858E-2,-7.416544E-3,-2.8963552E-3,1.5954673E-2,-8.132222E-3,-4.872929E-3,4.889789E-3,-8.8898017E-4,3.2288708E-2,3.9284445E-2,1.0093794E-3,-9.2805625E-4,-1.4887581E-2,-1.1821078E-3,3.4380348E-3],"split_indices":[63,0,54,36,0,63,54,36,36,18,0,45,27,54,54,0,0,0,0,0,0,0,0,0,0,0,0,0,0,0,0],"split_type":[0,0,0,0,0,0,0,0,0,0,0,0,0,0,0,0,0,0,0,0,0,0,0,0,0,0,0,0,0,0,0],"sum_hessian":[7.86E2,7.5E2,3.6E1,6.92E2,5.8E1,2.8E1,8E0,6.52E2,4E1,2.7E1,3.1E1,1.4E1,1.4E1,3E0,5E0,6.48E2,4E0,8E0,3.2E1,2.1E1,6E0,2.7E1,4E0,1.1E1,3E0,1.1E1,3E0,1E0,2E0,4E0,1E0],"tree_param":{"num_deleted":"0","num_feature":"72","num_nodes":"31","size_leaf_vector":"1"}},{"base_weights":[1.5128744E-2,7.161626E-3,3.5333335E-1,8.708627E-3,-2.9407341E-2,6.299782E-1,6.90197E-2,7.2817383E-3,2.7471287E-2,4.381608E-2,-7.7407933E-3,2.4622753E-2,6.4729713E-3,5.9322943E-4,-2.9199333E-3,1.5705371E-3,-4.0262975E-4],"categories":[],"categories_nodes":[],"categories_segments":[],"categories_sizes":[],"default_left":[0,0,0,0,0,0,0,0,0,0,0,0,0,0,0,0,0],"id":42,"left_children":[1,3,5,7,-1,9,11,13,-1,-1,-1,15,-1,-1,-1,-1,-1],"loss_changes":[2.1072755E0,7.105638E-1,1.3722894E0,5.862296E-1,0E0,1.8756278E0,2.3645744E-2,2.3065954E-1,0E0,0E0,0E0,1.8055378E-3,0E0,0E0,0E0,0E0,0E0],"parents":[2147483647,0,0,1,1,2,2,3,3,5,5,6,6,7,7,11,11],"right_children":[2,4,6,8,-1,10,12,14,-1,-1,-1,16,-1,-1,-1,-1,-1],"split_conditions":[3.3653135E0,3.2962043E0,4.1049643E0,3.2211E0,-2.9407341E-2,-2.1694359E-1,7.1987715E0,6.981026E-1,2.7471287E-2,4.381608E-2,-7.7407933E-3,-2.1827732E-1,6.4729713E-3,5.9322943E-4,-2.9199333E-3,1.5705371E-3,-4.0262975E-4],"split_indices":[63,63,63,63,0,36,63,45,0,0,0,18,0,0,0,0,0],"split_type":[0,0,0,0,0,0,0,0,0,0,0,0,0,0,0,0,0],"sum_hessian":[7.82E2,7.65E2,1.7E1,7.64E2,1E0,8E0,9E0,7.63E2,1E0,6E0,2E0,6E0,3E0,7.14E2,4.9E1,5E0,1E0],"tree_param":{"num_deleted":"0","num_feature":"72","num_nodes":"17","size_leaf_vector":"1"}},{"base_weights":[-3.9339066E-3,-1.105257E-2,7.891272E-2,-7.0578875E-3,-8.9146696E-2,2.4552304E-1,2.0515317E-2,-1.1472341E-2,2.0597062E-1,-1.5749905E-1,-5.1256083E-2,8.882112E-2,4.474788E-2,-3.3831567E-2,1.5103523E-1,-4.5601805E-4,-4.6036863E-3,3.6870763E-2,-3.003294E-4,-9.693359E-3,-3.3905113E-3,1.2587875E-2,-3.7688282E-3,-5.8295405E-5,3.1466313E-2,4.925207E-3,-2.73799E-3,1.7653925E-2,-5.0723916E-3],"categories":[],"categories_nodes":[],"categories_segments":[],"categories_sizes":[],"default_left":[0,0,0,0,0,0,0,0,0,0,0,0,0,0,0,0,0,0,0,0,0,0,0,0,0,0,0,0,0],"id":43,"left_children":[1,3,5,7,9,11,13,15,17,19,21,23,-1,25,27,-1,-1,-1,-1,-1,-1,-1,-1,-1,-1,-1,-1,-1,-1],"loss_changes":[4.6206236E-1,2.242949E-1,5.981988E-1,6.4842063E-1,8.257416E-2,1.5487912E0,3.3849722E-1,1.2693235E-1,1.5815876E0,2.5995612E-2,1.9438864E-1,6.81672E-1,0E0,9.955883E-2,7.4999416E-1,0E0,0E0,0E0,0E0,0E0,0E0,0E0,0E0,0E0,0E0,0E0,0E0,0E0,0E0],"parents":[2147483647,0,0,1,1,2,2,3,3,4,4,5,5,6,6,7,7,8,8,9,9,10,10,11,11,13,13,14,14],"right_children":[2,4,6,8,10,12,14,16,18,20,22,24,-1,26,28,-1,-1,-1,-1,-1,-1,-1,-1,-1,-1,-1,-1,-1,-1],"split_conditions":[4.3472484E-1,1.303687E0,1.0786437E0,4.3472484E-1,1.5152285E0,-2.1694359E-1,3.2211E0,1.2398845E0,1.3030447E0,1.5985161E0,1.5585203E0,-2.0661132E-1,4.474788E-2,1.305538E0,4.1049643E0,-4.5601805E-4,-4.6036863E-3,3.6870763E-2,-3.003294E-4,-9.693359E-3,-3.3905113E-3,1.2587875E-2,-3.7688282E-3,-5.8295405E-5,3.1466313E-2,4.925207E-3,-2.73799E-3,1.7653925E-2,-5.0723916E-3],"split_indices":[54,27,45,27,27,45,54,9,18,9,27,0,0,45,45,0,0,0,0,0,0,0,0,0,0,0,0,0,0],"split_type":[0,0,0,0,0,0,0,0,0,0,0,0,0,0,0,0,0,0,0,0,0,0,0,0,0,0,0,0,0],"sum_hessian":[7.81E2,7.2E2,6.1E1,6.86E2,3.4E1,1.5E1,4.6E1,6.73E2,1.3E1,1.1E1,2.3E1,1.3E1,2E0,3.3E1,1.3E1,6.55E2,1.8E1,3E0,1E1,7E0,4E0,1E0,2.2E1,1.2E1,1E0,4E0,2.9E1,7E0,6E0],"tree_param":{"num_deleted":"0","num_feature":"72","num_nodes":"29","size_leaf_vector":"1"}},{"base_weights":[-1.4319503E-2,-2.0309612E-2,5.0041057E-2,-1.785001E-2,-8.561136E-2,1.6860628E-1,-1.8901952E-2,-2.0004872E-2,3.4701306E-1,-1.0020776E-2,-6.691467E-2,5.104695E-1,5.1775463E-2,-5.7727575E-2,1.5332289E-1,-1.0633435E-3,2.0575238E-2,5.160578E-3,2.6960438E-2,-3.984296E-3,-2.5004763E-4,6.9001964E-3,4.184669E-2,-9.111897E-4,3.2794055E-2,-3.7295844E-3,2.9187722E-3,1.7701788E-2,-1.8955993E-3],"categories":[],"categories_nodes":[],"categories_segments":[],"categories_sizes":[],"default_left":[0,0,0,0,0,0,0,0,0,0,0,0,0,0,0,0,0,0,0,0,0,0,0,0,0,0,0,0,0],"id":44,"left_children":[1,3,5,7,9,11,13,15,17,-1,19,21,23,25,27,-1,-1,-1,-1,-1,-1,-1,-1,-1,-1,-1,-1,-1,-1],"loss_changes":[2.9401678E-1,1.10260785E-1,5.345128E-1,5.352881E-1,4.025072E-2,9.321339E-1,2.8969392E-1,3.7306485E-1,1.317778E-1,0E0,1.7787963E-2,6.140801E-1,8.1540453E-1,7.2883435E-2,3.2048863E-1,0E0,0E0,0E0,0E0,0E0,0E0,0E0,0E0,0E0,0E0,0E0,0E0,0E0,0E0],"parents":[2147483647,0,0,1,1,2,2,3,3,4,4,5,5,6,6,7,7,8,8,10,10,11,11,12,12,13,13,14,14],"right_children":[2,4,6,8,10,12,14,16,18,-1,20,22,24,26,28,-1,-1,-1,-1,-1,-1,-1,-1,-1,-1,-1,-1,-1,-1],"split_conditions":[4.3472484E-1,1.5118353E0,1.305538E0,1.4427971E0,1.9575106E0,1.0786437E0,3.4386365E0,3.8616083E0,1.0520928E0,-1.0020776E-2,4.3472484E-1,-2.0661132E-1,-2.1694359E-1,2.3988705E0,4.1049643E0,-1.0633435E-3,2.0575238E-2,5.160578E-3,2.6960438E-2,-3.984296E-3,-2.5004763E-4,6.9001964E-3,4.184669E-2,-9.111897E-4,3.2794055E-2,-3.7295844E-3,2.9187722E-3,1.7701788E-2,-1.8955993E-3],"split_indices":[54,9,45,9,9,54,54,0,0,0,36,0,36,27,54,0,0,0,0,0,0,0,0,0,0,0,0,0,0],"split_type":[0,0,0,0,0,0,0,0,0,0,0,0,0,0,0,0,0,0,0,0,0,0,0,0,0,0,0,0,0],"sum_hessian":[7.59E2,6.95E2,6.4E1,6.71E2,2.4E1,2.3E1,4.1E1,6.68E2,3E0,2E0,2.2E1,5E0,1.8E1,3.4E1,7E0,6.67E2,1E0,2E0,1E0,1.8E1,4E0,3E0,2E0,1.7E1,1E0,3E1,4E0,3E0,4E0],"tree_param":{"num_deleted":"0","num_feature":"72","num_nodes":"29","size_leaf_vector":"1"}},{"base_weights":[-3.8368434E-3,-1.359472E-2,2.7966446E-1,-1.0716083E-2,-7.2506204E-2,3.6435464E-1,-6.3361995E-2,-1.47577375E-2,1.5752403E-1,-8.140149E-2,-2.8541987E-3,5.323217E-1,1.2635869E-1,-1.18157186E-1,5.265349E-3,-4.8407065E-4,-3.915924E-3,3.9115485E-2,1.1032656E-3,-3.4270764E-3,-6.1780545E-3,-1.8743232E-4,1.808978E-5,7.5907386E-3,4.437631E-2,2.286176E-4,3.0560894E-2,-7.964238E-3,-1.8821945E-3],"categories":[],"categories_nodes":[],"categories_segments":[],"categories_sizes":[],"default_left":[0,0,0,0,0,0,0,0,0,0,0,0,0,0,0,0,0,0,0,0,0,0,0,0,0,0,0,0,0],"id":45,"left_children":[1,3,5,7,9,11,13,15,17,19,21,23,25,27,-1,-1,-1,-1,-1,-1,-1,-1,-1,-1,-1,-1,-1,-1,-1],"loss_changes":[2.161571E0,1.2725948E-1,7.784114E-1,4.9258184E-1,2.145277E-2,7.722218E-1,6.789627E-2,2.2671348E-1,1.4214934E0,8.338213E-3,1.5738937E-5,1.4871538E0,5.8769757E-1,1.0560483E-2,0E0,0E0,0E0,0E0,0E0,0E0,0E0,0E0,0E0,0E0,0E0,0E0,0E0,0E0,0E0],"parents":[2147483647,0,0,1,1,2,2,3,3,4,4,5,5,6,6,7,7,8,8,9,9,10,10,11,11,12,12,13,13],"right_children":[2,4,6,8,10,12,14,16,18,20,22,24,26,28,-1,-1,-1,-1,-1,-1,-1,-1,-1,-1,-1,-1,-1,-1,-1],"split_conditions":[2.6391215E0,1.3121862E0,-2.1694359E-1,-2.1694359E-1,1.0240208E0,3.6468964E0,3.5932143E0,-2.0661132E-1,1.0786437E0,4.3768706E0,2.8098905E0,3.3653135E0,9.225329E0,5.517061E-1,5.265349E-3,-4.8407065E-4,-3.915924E-3,3.9115485E-2,1.1032656E-3,-3.4270764E-3,-6.1780545E-3,-1.8743232E-4,1.808978E-5,7.5907386E-3,4.437631E-2,2.286176E-4,3.0560894E-2,-7.964238E-3,-1.8821945E-3],"split_indices":[63,45,27,63,9,63,36,0,63,45,0,63,63,18,0,0,0,0,0,0,0,0,0,0,0,0,0,0,0],"split_type":[0,0,0,0,0,0,0,0,0,0,0,0,0,0,0,0,0,0,0,0,0,0,0,0,0,0,0,0,0],"sum_hessian":[7.79E2,7.54E2,2.5E1,7.2E2,3.4E1,2E1,5E0,7.04E2,1.6E1,3E1,4E0,1.1E1,9E0,4E0,1E0,6.53E2,5.1E1,2E0,1.4E1,2.5E1,5E0,3E0,1E0,6E0,5E0,8E0,1E0,2E0,2E0],"tree_param":{"num_deleted":"0","num_feature":"72","num_nodes":"29","size_leaf_vector":"1"}},{"base_weights":[-1.5788732E-2,-2.4732675E-2,2.134044E-1,-3.0969987E-2,4.6691094E-2,3.118003E-1,-9.6159354E-2,-2.9584402E-2,-1.1582416E-1,9.743354E-3,3.8991275E-1,1.2282917E-1,5.067843E-1,-2.0878148E-1,1.317023E-2,-1.4094235E-3,-4.778639E-3,-7.3921657E-3,-1.1414912E-3,1.6195577E-2,-1.6784407E-3,3.7811633E-2,8.847311E-4,-1.6086662E-2,2.2044865E-2,4.045291E-2,-8.8779925E-4,-1.0951966E-3,-1.3188635E-2,-7.8125077E-4,3.2087804E-3],"categories":[],"categories_nodes":[],"categories_segments":[],"categories_sizes":[],"default_left":[0,0,0,0,0,0,0,0,0,0,0,0,0,0,0,0,0,0,0,0,0,0,0,0,0,0,0,0,0,0,0],"id":46,"left_children":[1,3,5,7,9,11,13,15,17,19,21,23,25,27,29,-1,-1,-1,-1,-1,-1,-1,-1,-1,-1,-1,-1,-1,-1,-1,-1],"loss_changes":[1.636991E0,3.4313855E-1,9.4377637E-1,7.957965E-2,7.824394E-1,7.8521824E-1,1.0125316E-1,6.1418176E-2,2.9378355E-2,7.864897E-1,8.047244E-1,1.9800661E0,1.7584691E0,3.5328835E-2,8.346306E-3,0E0,0E0,0E0,0E0,0E0,0E0,0E0,0E0,0E0,0E0,0E0,0E0,0E0,0E0,0E0,0E0],"parents":[2147483647,0,0,1,1,2,2,3,3,4,4,5,5,6,6,7,7,8,8,9,9,10,10,11,11,12,12,13,13,14,14],"right_children":[2,4,6,8,10,12,14,16,18,20,22,24,26,28,30,-1,-1,-1,-1,-1,-1,-1,-1,-1,-1,-1,-1,-1,-1,-1,-1],"split_conditions":[1.5152285E0,6.394915E-1,4.1049643E0,-2.0661132E-1,-2.1694359E-1,-2.1694359E-1,3.7221053E0,1.7014422E0,-2.1694359E-1,1.0244005E0,1.0786437E0,3.3653135E0,-2.1694359E-1,4.2986097E0,8.282272E0,-1.4094235E-3,-4.778639E-3,-7.3921657E-3,-1.1414912E-3,1.6195577E-2,-1.6784407E-3,3.7811633E-2,8.847311E-4,-1.6086662E-2,2.2044865E-2,4.045291E-2,-8.8779925E-4,-1.0951966E-3,-1.3188635E-2,-7.8125077E-4,3.2087804E-3],"split_indices":[63,0,54,0,63,45,63,18,45,0,63,63,27,54,54,0,0,0,0,0,0,0,0,0,0,0,0,0,0,0,0],"split_type":[0,0,0,0,0,0,0,0,0,0,0,0,0,0,0,0,0,0,0,0,0,0,0,0,0,0,0,0,0,0,0],"sum_hessian":[7.95E2,7.66E2,2.9E1,7.05E2,6.1E1,2.2E1,7E0,6.95E2,1E1,5.6E1,5E0,1.2E1,1E1,3E0,4E0,6.82E2,1.3E1,7E0,3E0,6E0,5E1,2E0,3E0,5E0,7E0,6E0,4E0,1E0,2E0,3E0,1E0],"tree_param":{"num_deleted":"0","num_feature":"72","num_nodes":"31","size_leaf_vector":"1"}},{"base_weights":[3.957366E-3,-6.9369166E-3,4.4296068E-1,-5.4598786E-3,-2.8421778E-2,6.419468E-1,-9.516694E-2,-8.239249E-3,4.186523E-1,1.0183148E0,2.3238139E-1,-1.3898057E-2,-3.0158728E-3,-6.722374E-4,3.9496566E-3,-1.0678165E-3,2.6699677E-2,6.210832E-2,-8.119876E-3,4.923008E-3,2.924575E-2,-1.7527727E-3,3.1285614E-3],"categories":[],"categories_nodes":[],"categories_segments":[],"categories_sizes":[],"default_left":[0,0,0,0,0,0,0,0,0,0,0,0,0,0,0,0,0,0,0,0,0,0,0],"id":47,"left_children":[1,3,5,7,-1,9,11,13,15,17,19,-1,21,-1,-1,-1,-1,-1,-1,-1,-1,-1,-1],"loss_changes":[3.7526515E0,6.321823E-1,2.0956104E0,9.052046E-1,0E0,1.9214249E0,1.00229785E-1,3.4662303E-1,2.651598E-1,2.0518556E0,3.2010302E-1,0E0,1.270038E-2,0E0,0E0,0E0,0E0,0E0,0E0,0E0,0E0,0E0,0E0],"parents":[2147483647,0,0,1,1,2,2,3,3,5,5,6,6,7,7,8,8,9,9,10,10,12,12],"right_children":[2,4,6,8,-1,10,12,14,16,18,20,-1,22,-1,-1,-1,-1,-1,-1,-1,-1,-1,-1],"split_conditions":[3.3653135E0,3.2962043E0,4.1049643E0,2.7124417E0,-2.8421778E-2,4.1049643E0,7.1987715E0,4.7890994E-1,-2.1694359E-1,-2.1827732E-1,1.32487E1,-1.3898057E-2,1.32487E1,-6.722374E-4,3.9496566E-3,-1.0678165E-3,2.6699677E-2,6.210832E-2,-8.119876E-3,4.923008E-3,2.924575E-2,-1.7527727E-3,3.1285614E-3],"split_indices":[63,63,54,63,0,63,54,63,45,18,63,0,54,0,0,0,0,0,0,0,0,0,0],"split_type":[0,0,0,0,0,0,0,0,0,0,0,0,0,0,0,0,0,0,0,0,0,0,0],"sum_hessian":[7.83E2,7.65E2,1.8E1,7.64E2,1E0,1.3E1,5E0,7.6E2,4E0,6E0,7E0,1E0,4E0,7.18E2,4.2E1,1E0,3E0,5E0,1E0,6E0,1E0,3E0,1E0],"tree_param":{"num_deleted":"0","num_feature":"72","num_nodes":"23","size_leaf_vector":"1"}},{"base_weights":[1.3869408E-2,9.789597E-3,1.5491965E-1,1.077139E-2,-1.8482944E-2,5.2466965E-1,-9.384246E-2,1.5541579E-2,-5.2147236E-2,7.496003E-1,-8.752919E-3,-1.10446796E-1,3.0503466E-3,6.2190054E-4,2.8010596E-2,-7.78517E-3,-9.426268E-4,4.5024663E-2,-3.893936E-3,-1.2274425E-3,-8.05322E-3],"categories":[],"categories_nodes":[],"categories_segments":[],"categories_sizes":[],"default_left":[0,0,0,0,0,0,0,0,0,0,0,0,0,0,0,0,0,0,0,0,0],"id":48,"left_children":[1,3,5,7,-1,9,11,13,15,17,-1,19,-1,-1,-1,-1,-1,-1,-1,-1,-1],"loss_changes":[4.502181E-1,2.886019E-1,2.0727918E0,2.298125E-1,0E0,1.5477362E0,4.273442E-2,1.1932313E0,1.8324964E-1,9.4415474E-1,0E0,5.2569374E-2,0E0,0E0,0E0,0E0,0E0,0E0,0E0,0E0,0E0],"parents":[2147483647,0,0,1,1,2,2,3,3,5,5,6,6,7,7,8,8,9,9,11,11],"right_children":[2,4,6,8,-1,10,12,14,16,18,-1,20,-1,-1,-1,-1,-1,-1,-1,-1,-1],"split_conditions":[3.3653135E0,3.2211E0,4.1049643E0,5.536267E-1,-1.8482944E-2,-2.1827732E-1,1.32487E1,4.1415554E-1,1.2875583E0,4.1049643E0,-8.752919E-3,4.645712E0,3.0503466E-3,6.2190054E-4,2.8010596E-2,-7.78517E-3,-9.426268E-4,4.5024663E-2,-3.893936E-3,-1.2274425E-3,-8.05322E-3],"split_indices":[54,54,54,36,0,18,54,36,36,45,0,54,0,0,0,0,0,0,0,0,0],"split_type":[0,0,0,0,0,0,0,0,0,0,0,0,0,0,0,0,0,0,0,0,0],"sum_hessian":[7.84E2,7.63E2,2.1E1,7.62E2,1E0,8E0,1.3E1,7.09E2,5.3E1,6E0,2E0,1.2E1,1E0,7.06E2,3E0,1.2E1,4.1E1,5E0,1E0,5E0,7E0],"tree_param":{"num_deleted":"0","num_feature":"72","num_nodes":"21","size_leaf_vector":"1"}},{"base_weights":[7.369503E-4,-9.090923E-3,2.891189E-1,-7.6458915E-3,-1.406871E-2,5.0034064E-1,-9.886998E-2,-1.2531661E-2,1.0389699E-1,6.6434085E-1,-2.6128005E-2,-2.0078671E-1,2.5389593E-3,-6.71026E-4,7.596457E-3,2.0637985E-2,-2.7628473E-3,4.5268632E-2,1.1612085E-2,-8.293345E-3,6.1160107E-3,-1.3405939E-3,-1.5391633E-2,-1.0372979E-3,2.9740885E-3],"categories":[],"categories_nodes":[],"categories_segments":[],"categories_sizes":[],"default_left":[0,0,0,0,0,0,0,0,0,0,0,0,0,0,0,0,0,0,0,0,0,0,0,0,0],"id":49,"left_children":[1,3,5,7,-1,9,11,13,15,17,19,21,23,-1,-1,-1,-1,-1,-1,-1,-1,-1,-1,-1,-1],"loss_changes":[2.2359633E0,2.9805705E-1,2.1802125E0,4.1548142E-1,0E0,1.4851542E0,1.03862464E-1,1.08605966E-1,1.5958226E0,1.1436801E0,1.2400882E-1,8.486296E-2,9.189458E-3,0E0,0E0,0E0,0E0,0E0,0E0,0E0,0E0,0E0,0E0,0E0,0E0],"parents":[2147483647,0,0,1,1,2,2,3,3,5,5,6,6,7,7,8,8,9,9,10,10,11,11,12,12],"right_children":[2,4,6,8,-1,10,12,14,16,18,20,22,24,-1,-1,-1,-1,-1,-1,-1,-1,-1,-1,-1,-1],"split_conditions":[2.7124417E0,1.7042391E0,4.1049643E0,4.8241886E-1,-1.406871E-2,-2.1694359E-1,7.1987715E0,7.6294837E0,1.0786437E0,4.1049643E0,1.0786437E0,4.2986097E0,1.32487E1,-6.71026E-4,7.596457E-3,2.0637985E-2,-2.7628473E-3,4.5268632E-2,1.1612085E-2,-8.293345E-3,6.1160107E-3,-1.3405939E-3,-1.5391633E-2,-1.0372979E-3,2.9740885E-3],"split_indices":[63,63,54,63,0,27,54,0,54,63,27,54,54,0,0,0,0,0,0,0,0,0,0,0,0],"split_type":[0,0,0,0,0,0,0,0,0,0,0,0,0,0,0,0,0,0,0,0,0,0,0,0,0],"sum_hessian":[7.87E2,7.62E2,2.5E1,7.59E2,3E0,1.6E1,9E0,7.28E2,3.1E1,1.2E1,4E0,4E0,5E0,7.25E2,3E0,1E1,2.1E1,7E0,5E0,2E0,2E0,2E0,2E0,4E0,1E0],"tree_param":{"num_deleted":"0","num_feature":"72","num_nodes":"25","size_leaf_vector":"1"}},{"base_weights":[5.5815093E-3,1.108194E-2,-9.041603E-2,7.263607E-3,3.1701428E-1,-1.6479038E-1,-5.1393375E-2,1.0073617E-2,-1.1019234E-1,3.5638463E-2,3.4191832E-4,-4.0655855E-2,-2.103786E-1,-3.6376265E-3,-2.3311963E-2,4.2946736E-4,2.6486322E-2,-8.116832E-3,-2.2902233E-3,-4.9411836E-3,1.2404247E-2,4.3755057E-3,-4.728744E-3,-1.2091765E-2,-2.8183952E-3,-2.7167199E-3,-2.0061018E-6],"categories":[],"categories_nodes":[],"categories_segments":[],"categories_sizes":[],"default_left":[0,0,0,0,0,0,0,0,0,0,0,0,0,0,0,0,0,0,0,0,0,0,0,0,0,0,0],"id":50,"left_children":[1,3,5,7,9,11,13,15,17,-1,19,21,23,-1,25,-1,-1,-1,-1,-1,-1,-1,-1,-1,-1,-1,-1],"loss_changes":[4.0916747E-1,8.5278416E-1,1.13426834E-1,2.4006802E-1,1.1276784E0,7.067385E-2,1.5698045E-2,5.4153425E-1,4.9641088E-2,0E0,1.7192218E-1,4.2829175E-2,3.4814954E-2,0E0,1.010511E-2,0E0,0E0,0E0,0E0,0E0,0E0,0E0,0E0,0E0,0E0,0E0,0E0],"parents":[2147483647,0,0,1,1,2,2,3,3,4,4,5,5,6,6,7,7,8,8,10,10,11,11,12,12,14,14],"right_children":[2,4,6,8,10,12,14,16,18,-1,20,22,24,-1,26,-1,-1,-1,-1,-1,-1,-1,-1,-1,-1,-1,-1],"split_conditions":[1.3247505E0,1.2625709E0,2.0487688E0,1.2398845E0,1.3030447E0,1.0240208E0,1.3174089E0,1.2263615E0,1.3271089E0,3.5638463E-2,1.3180887E0,1.303687E0,1.1845359E0,-3.6376265E-3,1.4664414E0,4.2946736E-4,2.6486322E-2,-8.116832E-3,-2.2902233E-3,-4.9411836E-3,1.2404247E-2,4.3755057E-3,-4.728744E-3,-1.2091765E-2,-2.8183952E-3,-2.7167199E-3,-2.0061018E-6],"split_indices":[18,18,18,9,18,9,36,9,9,0,18,36,0,0,9,0,0,0,0,0,0,0,0,0,0,0,0],"split_type":[0,0,0,0,0,0,0,0,0,0,0,0,0,0,0,0,0,0,0,0,0,0,0,0,0,0,0],"sum_hessian":[7.72E2,7.31E2,4.1E1,7.23E2,8E0,1.3E1,2.8E1,7.07E2,1.6E1,3E0,5E0,4E0,9E0,1.5E1,1.3E1,7.06E2,1E0,8E0,8E0,4E0,1E0,1E0,3E0,7E0,2E0,5E0,8E0],"tree_param":{"num_deleted":"0","num_feature":"72","num_nodes":"27","size_leaf_vector":"1"}},{"base_weights":[5.232915E-3,-3.9707706E-3,3.380695E-1,-2.4545677E-3,-2.8869225E-2,5.011751E-1,-1.5322371E-1,-7.3474036E-3,1.787031E-1,6.789004E-1,-2.5600648E-2,-1.4892893E-2,-6.4421818E-3,-1.7799033E-4,-3.4329463E-3,-1.1132066E-3,2.4146847E-2,5.6480408E-2,9.779686E-3,-8.031214E-3,5.897826E-3,1.9204766E-4,-5.575106E-4],"categories":[],"categories_nodes":[],"categories_segments":[],"categories_sizes":[],"default_left":[0,0,0,0,0,0,0,0,0,0,0,0,0,0,0,0,0,0,0,0,0,0,0],"id":51,"left_children":[1,3,5,7,-1,9,11,13,15,17,19,-1,21,-1,-1,-1,-1,-1,-1,-1,-1,-1,-1],"loss_changes":[2.3907347E0,6.593357E-1,1.7595778E0,6.740714E-1,0E0,1.5153222E0,1.2545885E-1,1.7160088E-1,1.233573E0,2.3930168E0,1.15864724E-1,0E0,2.3648064E-4,0E0,0E0,0E0,0E0,0E0,0E0,0E0,0E0,0E0,0E0],"parents":[2147483647,0,0,1,1,2,2,3,3,5,5,6,6,7,7,8,8,9,9,10,10,12,12],"right_children":[2,4,6,8,-1,10,12,14,16,18,20,-1,22,-1,-1,-1,-1,-1,-1,-1,-1,-1,-1],"split_conditions":[3.3653135E0,3.2962043E0,4.1049643E0,1.4150237E0,-2.8869225E-2,-2.1694359E-1,7.1987715E0,1.305538E0,-2.1694359E-1,4.1049643E0,1.0786437E0,-1.4892893E-2,7.918685E0,-1.7799033E-4,-3.4329463E-3,-1.1132066E-3,2.4146847E-2,5.6480408E-2,9.779686E-3,-8.031214E-3,5.897826E-3,1.9204766E-4,-5.575106E-4],"split_indices":[63,63,54,63,0,27,54,27,45,63,27,0,54,0,0,0,0,0,0,0,0,0,0],"split_type":[0,0,0,0,0,0,0,0,0,0,0,0,0,0,0,0,0,0,0,0,0,0,0],"sum_hessian":[7.79E2,7.59E2,2E1,7.58E2,1E0,1.5E1,5E0,7.39E2,1.9E1,1.1E1,4E0,2E0,3E0,6.97E2,4.2E1,1.2E1,7E0,5E0,6E0,2E0,2E0,1E0,2E0],"tree_param":{"num_deleted":"0","num_feature":"72","num_nodes":"23","size_leaf_vector":"1"}},{"base_weights":[8.514854E-4,-6.983839E-3,3.0325243E-1,-5.5325865E-3,-2.8147494E-2,6.064084E-1,5.0614424E-2,-1.1507318E-2,9.8445676E-2,3.519662E-2,-4.3445826E-3,-2.3077768E-3,5.196063E-3,-4.7158665E-4,-3.260005E-3,1.7127226E-3,1.6500374E-2,7.4777304E-4,-3.83878E-4],"categories":[],"categories_nodes":[],"categories_segments":[],"categories_sizes":[],"default_left":[0,0,0,0,0,0,0,0,0,0,0,0,0,0,0,0,0,0,0],"id":52,"left_children":[1,3,5,7,-1,9,11,13,15,-1,-1,17,-1,-1,-1,-1,-1,-1,-1],"loss_changes":[1.8763208E0,6.197716E-1,1.5010817E0,4.8011065E-1,0E0,6.696861E-1,3.409321E-2,8.073913E-2,6.129936E-1,0E0,0E0,7.6372037E-4,0E0,0E0,0E0,0E0,0E0,0E0,0E0],"parents":[2147483647,0,0,1,1,2,2,3,3,5,5,6,6,7,7,8,8,11,11],"right_children":[2,4,6,8,-1,10,12,14,16,-1,-1,18,-1,-1,-1,-1,-1,-1,-1],"split_conditions":[3.3653135E0,3.2962043E0,4.1049643E0,4.8241886E-1,-2.8147494E-2,-2.1694359E-1,5.556471E0,1.7014422E0,-2.0661132E-1,3.519662E-2,-4.3445826E-3,4.114978E0,5.196063E-3,-4.7158665E-4,-3.260005E-3,1.7127226E-3,1.6500374E-2,7.4777304E-4,-3.83878E-4],"split_indices":[63,63,63,63,0,27,63,18,0,0,0,63,0,0,0,0,0,0,0],"split_type":[0,0,0,0,0,0,0,0,0,0,0,0,0,0,0,0,0,0,0],"sum_hessian":[7.9E2,7.71E2,1.9E1,7.7E2,1E0,8E0,1.1E1,7.29E2,4.1E1,7E0,1E0,6E0,5E0,7.03E2,2.6E1,3.3E1,8E0,1E0,5E0],"tree_param":{"num_deleted":"0","num_feature":"72","num_nodes":"19","size_leaf_vector":"1"}},{"base_weights":[5.7298355E-3,-4.5387754E-3,1.9117644E-1,-1.7928001E-3,-5.98778E-2,2.7327877E-1,-1.3110726E-1,-3.985523E-3,2.5505456E-1,-6.587578E-2,3.0754954E-3,2.1382196E-1,3.982865E-2,-2.3820457E-1,2.211523E-3,-9.296319E-5,-3.481087E-3,4.6387627E-3,2.6661277E-2,-3.6005396E-3,-1.3644471E-3,1.8752033E-4,2.6269043E-5,1.3395937E-2,-2.811724E-3,-9.926654E-4,-1.4391454E-2,-1.2482979E-3,2.773036E-3],"categories":[],"categories_nodes":[],"categories_segments":[],"categories_sizes":[],"default_left":[0,0,0,0,0,0,0,0,0,0,0,0,0,0,0,0,0,0,0,0,0,0,0,0,0,0,0,0,0],"id":53,"left_children":[1,3,5,7,9,11,13,15,17,19,21,23,-1,25,27,-1,-1,-1,-1,-1,-1,-1,-1,-1,-1,-1,-1,-1,-1],"loss_changes":[1.4881098E0,1.1249472E-1,1.1206987E0,3.991954E-1,1.3418347E-2,8.564179E-1,1.2902954E-1,9.78414E-2,2.213782E-1,5.6102723E-3,4.9140144E-6,4.6795106E-1,0E0,4.8463494E-2,8.620526E-3,0E0,0E0,0E0,0E0,0E0,0E0,0E0,0E0,0E0,0E0,0E0,0E0,0E0,0E0],"parents":[2147483647,0,0,1,1,2,2,3,3,4,4,5,5,6,6,7,7,8,8,9,9,10,10,11,11,13,13,14,14],"right_children":[2,4,6,8,10,12,14,16,18,20,22,24,-1,26,28,-1,-1,-1,-1,-1,-1,-1,-1,-1,-1,-1,-1,-1,-1],"split_conditions":[1.3946207E0,1.3121862E0,4.1049643E0,-1.19795024E-1,2.3955445E0,3.631689E0,3.7221053E0,1.7014422E0,5.589393E-1,1.2544583E0,-2.0661132E-1,-2.1694359E-1,3.982865E-2,4.114978E0,1.32487E1,-9.296319E-5,-3.481087E-3,4.6387627E-3,2.6661277E-2,-3.6005396E-3,-1.3644471E-3,1.8752033E-4,2.6269043E-5,1.3395937E-2,-2.811724E-3,-9.926654E-4,-1.4391454E-2,-1.2482979E-3,2.773036E-3],"split_indices":[63,45,54,54,18,54,63,18,0,63,0,27,0,54,54,0,0,0,0,0,0,0,0,0,0,0,0,0,0],"split_type":[0,0,0,0,0,0,0,0,0,0,0,0,0,0,0,0,0,0,0,0,0,0,0,0,0,0,0,0,0],"sum_hessian":[7.8E2,7.4E2,4E1,7.06E2,3.4E1,3.2E1,8E0,7.01E2,5E0,3.1E1,3E0,3E1,2E0,4E0,4E0,6.8E2,2.1E1,4E0,1E0,2.6E1,5E0,2E0,1E0,2.5E1,5E0,1E0,3E0,3E0,1E0],"tree_param":{"num_deleted":"0","num_feature":"72","num_nodes":"29","size_leaf_vector":"1"}},{"base_weights":[-3.6929683E-3,-1.0037415E-2,2.3662898E-1,-7.043483E-3,-3.2980958E-1,3.822731E-1,-1.669195E-1,-9.675575E-3,6.977948E-2,-3.0538991E-2,-9.526554E-2,7.015952E-1,1.5245256E-1,-1.5089968E-2,-2.4029732E-2,-3.3275815E-4,-2.9389302E-3,1.798403E-2,-3.1471052E-3,-6.8649906E-3,-1.073805E-3,5.826336E-2,-7.5249635E-3,2.360981E-3,2.7488727E-2,-4.8452071E-4,-1.6761922E-3],"categories":[],"categories_nodes":[],"categories_segments":[],"categories_sizes":[],"default_left":[0,0,0,0,0,0,0,0,0,0,0,0,0,0,0,0,0,0,0,0,0,0,0,0,0,0,0],"id":54,"left_children":[1,3,5,7,9,11,13,15,17,-1,19,21,23,-1,25,-1,-1,-1,-1,-1,-1,-1,-1,-1,-1,-1,-1],"loss_changes":[1.18555E0,7.224106E-1,1.2392982E0,1.5253118E-1,4.0311295E-1,9.9384165E-1,1.0838556E-1,1.0743121E-1,9.845425E-1,0E0,1.255976E-2,2.545926E0,3.921534E-1,0E0,2.196962E-4,0E0,0E0,0E0,0E0,0E0,0E0,0E0,0E0,0E0,0E0,0E0,0E0],"parents":[2147483647,0,0,1,1,2,2,3,3,4,4,5,5,6,6,7,7,8,8,10,10,11,11,12,12,14,14],"right_children":[2,4,6,8,10,12,14,16,18,-1,20,22,24,-1,26,-1,-1,-1,-1,-1,-1,-1,-1,-1,-1,-1,-1],"split_conditions":[3.3653135E0,1.7042391E0,3.6468964E0,9.837933E-1,3.3653135E0,4.1049643E0,7.1987715E0,1.3030447E0,1.0786437E0,-3.0538991E-2,2.6933367E0,-2.1694359E-1,1.32487E1,-1.5089968E-2,3.3845363E0,-3.3275815E-4,-2.9389302E-3,1.798403E-2,-3.1471052E-3,-6.8649906E-3,-1.073805E-3,5.826336E-2,-7.5249635E-3,2.360981E-3,2.7488727E-2,-4.8452071E-4,-1.6761922E-3],"split_indices":[63,63,54,63,54,63,54,18,54,0,63,36,63,0,18,0,0,0,0,0,0,0,0,0,0,0,0],"split_type":[0,0,0,0,0,0,0,0,0,0,0,0,0,0,0,0,0,0,0,0,0,0,0,0,0,0,0],"sum_hessian":[7.75E2,7.56E2,1.9E1,7.5E2,6E0,1.4E1,5E0,7.26E2,2.4E1,2E0,4E0,5E0,9E0,2E0,3E0,6.85E2,4.1E1,7E0,1.7E1,2E0,2E0,3E0,2E0,8E0,1E0,2E0,1E0],"tree_param":{"num_deleted":"0","num_feature":"72","num_nodes":"27","size_leaf_vector":"1"}},{"base_weights":[-2.4904835E-3,-7.8121093E-3,2.1386665E-1,-6.4206733E-3,-2.7015233E-2,5.3167963E-1,6.2384892E-2,-8.166009E-3,2.6259795E-1,6.69836E-1,-3.9775493E-3,-1.5282452E-2,2.680151E-2,-3.3864577E-4,-1.3610268E-2,-1.0380115E-3,2.2921173E-2,1.4890256E-2,4.092941E-2,-1.2745777E-2,1.2964967E-3],"categories":[],"categories_nodes":[],"categories_segments":[],"categories_sizes":[],