{"learner":{"attributes":{"scikit_learn":"{\"_estimator_type\": \"regressor\"}"},"feature_names":[],"feature_types":[],"gradient_booster":{"model":{"gbtree_model_param":{"num_parallel_tree":"1","num_trees":"200"},"iteration_indptr":[0,1,2,3,4,5,6,7,8,9,10,11,12,13,14,15,16,17,18,19,20,21,22,23,24,25,26,27,28,29,30,31,32,33,34,35,36,37,38,39,40,41,42,43,44,45,46,47,48,49,50,51,52,53,54,55,56,57,58,59,60,61,62,63,64,65,66,67,68,69,70,71,72,73,74,75,76,77,78,79,80,81,82,83,84,85,86,87,88,89,90,91,92,93,94,95,96,97,98,99,100,101,102,103,104,105,106,107,108,109,110,111,112,113,114,115,116,117,118,119,120,121,122,123,124,125,126,127,128,129,130,131,132,133,134,135,136,137,138,139,140,141,142,143,144,145,146,147,148,149,150,151,152,153,154,155,156,157,158,159,160,161,162,163,164,165,166,167,168,169,170,171,172,173,174,175,176,177,178,179,180,181,182,183,184,185,186,187,188,189,190,191,192,193,194,195,196,197,198,199,200],"tree_info":[0,0,0,0,0,0,0,0,0,0,0,0,0,0,0,0,0,0,0,0,0,0,0,0,0,0,0,0,0,0,0,0,0,0,0,0,0,0,0,0,0,0,0,0,0,0,0,0,0,0,0,0,0,0,0,0,0,0,0,0,0,0,0,0,0,0,0,0,0,0,0,0,0,0,0,0,0,0,0,0,0,0,0,0,0,0,0,0,0,0,0,0,0,0,0,0,0,0,0,0,0,0,0,0,0,0,0,0,0,0,0,0,0,0,0,0,0,0,0,0,0,0,0,0,0,0,0,0,0,0,0,0,0,0,0,0,0,0,0,0,0,0,0,0,0,0,0,0,0,0,0,0,0,0,0,0,0,0,0,0,0,0,0,0,0,0,0,0,0,0,0,0,0,0,0,0,0,0,0,0,0,0,0,0,0,0,0,0,0,0,0,0,0,0,0,0,0,0,0,0],"trees":[{"base_weights":[4.6810858E-2,-5.7770567E0,8.343438E0,-3.2914696E0,-1.1791732E1,1.7591972E1,3.5298066E0,-4.3537307E0,1.5303912E1,-1.230265E1,-2.143073E0,1.1298462E1,2.2947298E1,-2.2286098E0,1.155237E1,-2.0607364E-1,-6.9423705E-1,9.4379467E-1,-9.584971E-2,-5.129279E-1,-7.593841E-1,5.956359E-1,-6.479546E-1,4.5344788E-1,7.7431494E-1,1.669588E0,8.773746E-1,3.150358E-1,-4.462288E-1,8.0850375E-1,1.5431662E-1],"categories":[],"categories_nodes":[],"categories_segments":[],"categories_sizes":[],"default_left":[0,0,0,0,0,0,0,0,0,0,0,0,0,0,0,0,0,0,0,0,0,0,0,0,0,0,0,0,0,0,0],"id":0,"left_children":[1,3,5,7,9,11,13,15,17,19,21,23,25,27,29,-1,-1,-1,-1,-1,-1,-1,-1,-1,-1,-1,-1,-1,-1,-1,-1],"loss_changes":[3.8074832E4,6.883037E3,1.4406592E4,6.565415E3,6.391406E2,3.4818516E3,9.958156E3,6.334326E2,1.1434146E3,5.990469E2,1.3705995E3,3.5440625E2,2.741543E3,7.252353E3,3.4685234E3,0E0,0E0,0E0,0E0,0E0,0E0,0E0,0E0,0E0,0E0,0E0,0E0,0E0,0E0,0E0,0E0],"parents":[2147483647,0,0,1,1,2,2,3,3,4,4,5,5,6,6,7,7,8,8,9,9,10,10,11,11,12,12,13,13,14,14],"right_children":[2,4,6,8,10,12,14,16,18,20,22,24,26,28,30,-1,-1,-1,-1,-1,-1,-1,-1,-1,-1,-1,-1,-1,-1,-1,-1],"split_conditions":[-1.7053993E-1,1.5466891E-2,3.433359E-1,1.9292637E0,-3.3361587E-1,-6.679256E-1,9.3294615E-1,-6.679256E-1,-2.4257469E-1,-4.6391535E-1,-6.699957E-1,1.6657718E0,1.168488E-1,5.8911407E-1,1.7640852E0,-2.0607364E-1,-6.9423705E-1,9.4379467E-1,-9.584971E-2,-5.129279E-1,-7.593841E-1,5.956359E-1,-6.479546E-1,4.5344788E-1,7.7431494E-1,1.669588E0,8.773746E-1,3.150358E-1,-4.462288E-1,8.0850375E-1,1.5431662E-1],"split_indices":[63,36,54,18,63,54,63,54,36,54,18,63,54,54,54,0,0,0,0,0,0,0,0,0,0,0,0,0,0,0,0],"split_type":[0,0,0,0,0,0,0,0,0,0,0,0,0,0,0,0,0,0,0,0,0,0,0,0,0,0,0,0,0,0,0],"sum_hessian":[7.86E2,4.62E2,3.24E2,3.28E2,1.34E2,1.1E2,2.14E2,3.11E2,1.7E1,1.27E2,7E0,5.2E1,5.8E1,1.25E2,8.9E1,3.05E2,6E0,1.4E1,3E0,7.7E1,5E1,3E0,4E0,3.6E1,1.6E1,1.8E1,4E1,5.5E1,7E1,5.7E1,3.2E1],"tree_param":{"num_deleted":"0","num_feature":"72","num_nodes":"31","size_leaf_vector":"1"}},{"base_weights":[-3.8816047E-1,-4.963383E0,7.0459495E0,-2.3921347E0,-1.1788459E1,1.6258284E1,2.8153524E0,-3.4637296E0,1.7386667E1,-1.3254921E1,-1.2610971E0,1.0029621E1,2.20085E1,-6.661306E-1,1.1470519E1,-2.2156341E-1,6.3032883E-1,1.6719588E0,2.0657551E-1,-7.2366685E-1,-1.7590715E-1,-2.803237E-1,1.0443077E0,2.5720087E-1,7.562776E-1,1.1989712E0,-2.586897E-1,3.3714077E-1,-2.378805E-1,7.3176306E-1,-2.5918844E-1],"categories":[],"categories_nodes":[],"categories_segments":[],"categories_sizes":[],"default_left":[0,0,0,0,0,0,0,0,0,0,0,0,0,0,0,0,0,0,0,0,0,0,0,0,0,0,0,0,0,0,0],"id":1,"left_children":[1,3,5,7,9,11,13,15,17,19,21,23,25,27,29,-1,-1,-1,-1,-1,-1,-1,-1,-1,-1,-1,-1,-1,-1,-1,-1],"loss_changes":[2.6156734E4,8.325108E3,1.1373511E4,7.4148403E3,1.9902227E3,3.0743496E3,6.0944697E3,5.186915E3,3.6918584E3,1.3015117E3,1.7531465E3,1.0674419E3,2.6420527E3,4.427545E3,3.1328442E3,0E0,0E0,0E0,0E0,0E0,0E0,0E0,0E0,0E0,0E0,0E0,0E0,0E0,0E0,0E0,0E0],"parents":[2147483647,0,0,1,1,2,2,3,3,4,4,5,5,6,6,7,7,8,8,9,9,10,10,11,11,12,12,13,13,14,14],"right_children":[2,4,6,8,10,12,14,16,18,20,22,24,26,28,30,-1,-1,-1,-1,-1,-1,-1,-1,-1,-1,-1,-1,-1,-1,-1,-1],"split_conditions":[2.1783305E-2,-5.6725794E-1,3.144818E-1,2.2183757E0,1.9708214E0,-6.679256E-1,1.382524E0,2.2183757E0,-6.699957E-1,-1.7053993E-1,1.5797403E-1,-6.699957E-1,8.945303E-1,5.426221E-1,3.0675468E0,-2.2156341E-1,6.3032883E-1,1.6719588E0,2.0657551E-1,-7.2366685E-1,-1.7590715E-1,-2.803237E-1,1.0443077E0,2.5720087E-1,7.562776E-1,1.1989712E0,-2.586897E-1,3.3714077E-1,-2.378805E-1,7.3176306E-1,-2.5918844E-1],"split_indices":[63,45,54,0,27,54,63,18,18,63,54,0,63,54,54,0,0,0,0,0,0,0,0,0,0,0,0,0,0,0,0],"split_type":[0,0,0,0,0,0,0,0,0,0,0,0,0,0,0,0,0,0,0,0,0,0,0,0,0,0,0,0,0,0,0],"sum_hessian":[7.67E2,4.75E2,2.92E2,3.46E2,1.29E2,9.1E1,2.01E2,3.29E2,1.7E1,1.13E2,1.6E1,4.5E1,4.6E1,1.44E2,5.7E1,3.11E2,1.8E1,7E0,1E1,1E2,1.3E1,1.4E1,2E0,2.4E1,2.1E1,4.3E1,3E0,5.1E1,9.3E1,4.8E1,9E0],"tree_param":{"num_deleted":"0","num_feature":"72","num_nodes":"31","size_leaf_vector":"1"}},{"base_weights":[7.0713127E-1,-4.5698943E0,8.4123535E0,-1.3669674E0,-1.0346289E1,1.714981E1,4.003944E0,-2.2980194E0,3.2787304E1,-1.19485655E1,-8.955994E-1,1.1436744E1,2.1680683E1,-1.3246428E0,1.0707113E1,-1.7383002E-1,6.538419E-1,1.9400803E0,4.9147993E-1,-7.139455E-1,-4.7585002E-1,2.9830822E-1,-3.8442352E-1,3.380942E-1,8.6739475E-1,1.604318E0,8.291769E-1,3.5425723E-1,-4.718492E-1,7.3600525E-1,1.2359698E-1],"categories":[],"categories_nodes":[],"categories_segments":[],"categories_sizes":[],"default_left":[0,0,0,0,0,0,0,0,0,0,0,0,0,0,0,0,0,0,0,0,0,0,0,0,0,0,0,0,0,0,0],"id":2,"left_children":[1,3,5,7,9,11,13,15,17,19,21,23,25,27,29,-1,-1,-1,-1,-1,-1,-1,-1,-1,-1,-1,-1,-1,-1,-1,-1],"loss_changes":[3.1713094E4,8.551989E3,1.2141631E4,9.583367E3,2.48783E3,2.495873E3,7.5864883E3,5.3366523E3,7.2319336E2,6.630703E2,1.2111475E3,1.236752E3,2.5441719E3,8.185407E3,3.0700938E3,0E0,0E0,0E0,0E0,0E0,0E0,0E0,0E0,0E0,0E0,0E0,0E0,0E0,0E0,0E0,0E0],"parents":[2147483647,0,0,1,1,2,2,3,3,4,4,5,5,6,6,7,7,8,8,9,9,10,10,11,11,12,12,13,13,14,14],"right_children":[2,4,6,8,10,12,14,16,18,20,22,24,26,28,30,-1,-1,-1,-1,-1,-1,-1,-1,-1,-1,-1,-1,-1,-1,-1,-1],"split_conditions":[-1.0991163E-1,-5.689215E-1,3.411172E-1,2.2183757E0,1.9708214E0,-6.679256E-1,8.8275266E-1,2.2183757E0,-6.699957E-1,6.743732E-1,-6.699957E-1,-6.699957E-1,9.636934E-2,5.8551216E-1,1.7940326E0,-1.7383002E-1,6.538419E-1,1.9400803E0,4.9147993E-1,-7.139455E-1,-4.7585002E-1,2.9830822E-1,-3.8442352E-1,3.380942E-1,8.6739475E-1,1.604318E0,8.291769E-1,3.5425723E-1,-4.718492E-1,7.3600525E-1,1.2359698E-1],"split_indices":[63,36,54,18,27,54,63,0,0,27,0,0,54,54,54,0,0,0,0,0,0,0,0,0,0,0,0,0,0,0,0],"split_type":[0,0,0,0,0,0,0,0,0,0,0,0,0,0,0,0,0,0,0,0,0,0,0,0,0,0,0,0,0,0,0],"sum_hessian":[7.78E2,4.62E2,3.16E2,2.98E2,1.64E2,1.05E2,2.11E2,2.91E2,7E0,1.4E2,2.4E1,4.8E1,5.7E1,1.18E2,9.3E1,2.71E2,2E1,5E0,2E0,6.9E1,7.1E1,1.2E1,1.2E1,2.8E1,2E1,1.7E1,4E1,5.8E1,6E1,6.2E1,3.1E1],"tree_param":{"num_deleted":"0","num_feature":"72","num_nodes":"31","size_leaf_vector":"1"}},{"base_weights":[3.48126E-1,-4.619138E0,7.2271175E0,-3.0363543E0,-1.2534732E1,1.4200626E1,4.2416177E0,-4.046021E0,9.602137E0,-1.3007853E1,5.8556E-1,1.2842333E1,3.04119E1,9.5029294E-1,1.2529433E1,-2.4759641E-1,5.801001E-1,1.3236935E0,9.570747E-2,-3.1455874E-1,-6.646812E-1,7.661035E-1,3.7795135E-1,1.8350878E0,4.8957524E-1,2.9899463E-1,-2.0748292E-1,7.400581E-1,-4.5284882E-1],"categories":[],"categories_nodes":[],"categories_segments":[],"categories_sizes":[],"default_left":[0,0,0,0,0,0,0,0,0,0,0,0,0,0,0,0,0,0,0,0,0,0,0,0,0,0,0,0,0],"id":3,"left_children":[1,3,5,7,9,11,13,15,17,19,-1,21,23,25,27,-1,-1,-1,-1,-1,-1,-1,-1,-1,-1,-1,-1,-1,-1],"loss_changes":[2.7300855E4,5.775243E3,6.9142676E3,4.989986E3,1.035624E3,1.8114043E3,6.425676E3,5.16069E3,3.7109055E3,6.224414E1,0E0,1.1156943E3,5.485303E2,4.385435E3,3.4196309E3,0E0,0E0,0E0,0E0,0E0,0E0,0E0,0E0,0E0,0E0,0E0,0E0,0E0,0E0],"parents":[2147483647,0,0,1,1,2,2,3,3,4,4,5,5,6,6,7,7,8,8,9,9,11,11,12,12,13,13,14,14],"right_children":[2,4,6,8,10,12,14,16,18,20,-1,22,24,26,28,-1,-1,-1,-1,-1,-1,-1,-1,-1,-1,-1,-1,-1,-1],"split_conditions":[-1.7053993E-1,-6.679256E-1,3.0280846E-1,1.9708214E0,3.4996586E0,1.8279573E0,1.382524E0,2.2183757E0,4.9423277E-1,-5.708008E-1,5.8556E-1,5.5123144E-1,-6.699957E-1,6.723255E-1,3.0675468E0,-2.4759641E-1,5.801001E-1,1.3236935E0,9.570747E-2,-3.1455874E-1,-6.646812E-1,7.661035E-1,3.7795135E-1,1.8350878E0,4.8957524E-1,2.9899463E-1,-2.0748292E-1,7.400581E-1,-4.5284882E-1],"split_indices":[63,54,54,18,27,18,63,0,27,54,0,63,0,54,54,0,0,0,0,0,0,0,0,0,0,0,0,0,0],"split_type":[0,0,0,0,0,0,0,0,0,0,0,0,0,0,0,0,0,0,0,0,0,0,0,0,0,0,0,0,0],"sum_hessian":[7.97E2,4.63E2,3.34E2,3.87E2,7.6E1,9.9E1,2.35E2,3.59E2,2.8E1,7.5E1,1E0,9.3E1,6E0,1.69E2,6.6E1,3.4E2,1.9E1,8E0,2E1,4E0,7.1E1,6.2E1,3.1E1,4E0,2E0,8.5E1,8.4E1,6E1,6E0],"tree_param":{"num_deleted":"0","num_feature":"72","num_nodes":"29","size_leaf_vector":"1"}},{"base_weights":[5.7972744E-2,-4.8629303E0,7.1402135E0,-2.1602962E0,-9.32384E0,1.5273764E1,3.0020654E0,-3.5045621E0,1.4313501E1,-1.1346523E1,-6.614246E-1,1.3198357E1,2.430076E1,-1.5489963E0,8.719174E0,-2.0048599E-1,1.5419139E0,1.3006135E0,1.249902E-2,-6.55952E-1,-4.47187E-1,-1.2896998E-1,1.0008725E0,7.227382E-1,1.9135694E-1,1.6017641E0,8.5596746E-1,3.1252912E-1,-4.1224012E-1,6.917514E-1,1.629039E-2],"categories":[],"categories_nodes":[],"categories_segments":[],"categories_sizes":[],"default_left":[0,0,0,0,0,0,0,0,0,0,0,0,0,0,0,0,0,0,0,0,0,0,0,0,0,0,0,0,0,0,0],"id":4,"left_children":[1,3,5,7,9,11,13,15,17,19,21,23,25,27,29,-1,-1,-1,-1,-1,-1,-1,-1,-1,-1,-1,-1,-1,-1,-1,-1],"loss_changes":[2.7288219E4,5.549824E3,1.07583125E4,6.450115E3,3.041206E3,1.7026172E3,5.5815537E3,4.7730645E3,3.6130664E3,4.8318164E2,1.4001263E3,1.0043467E3,5.069287E2,6.3184707E3,4.0747202E3,0E0,0E0,0E0,0E0,0E0,0E0,0E0,0E0,0E0,0E0,0E0,0E0,0E0,0E0,0E0,0E0],"parents":[2147483647,0,0,1,1,2,2,3,3,4,4,5,5,6,6,7,7,8,8,9,9,10,10,11,11,12,12,13,13,14,14],"right_children":[2,4,6,8,10,12,14,16,18,20,22,24,26,28,30,-1,-1,-1,-1,-1,-1,-1,-1,-1,-1,-1,-1,-1,-1,-1,-1],"split_conditions":[-1.1837376E-1,-5.689215E-1,3.433359E-1,1.8741465E0,1.9708214E0,5.266521E-1,8.8275266E-1,2.449418E0,-6.699957E-1,6.743732E-1,1.5797403E-1,4.1281942E-1,9.484869E-2,5.8551216E-1,1.7640852E0,-2.0048599E-1,1.5419139E0,1.3006135E0,1.249902E-2,-6.55952E-1,-4.47187E-1,-1.2896998E-1,1.0008725E0,7.227382E-1,1.9135694E-1,1.6017641E0,8.5596746E-1,3.1252912E-1,-4.1224012E-1,6.917514E-1,1.629039E-2],"split_indices":[63,36,54,9,27,27,63,18,27,27,54,36,54,54,54,0,0,0,0,0,0,0,0,0,0,0,0,0,0,0,0],"split_type":[0,0,0,0,0,0,0,0,0,0,0,0,0,0,0,0,0,0,0,0,0,0,0,0,0,0,0,0,0,0,0],"sum_hessian":[7.81E2,4.61E2,3.2E2,2.88E2,1.73E2,1.07E2,2.13E2,2.67E2,2.1E1,1.4E2,3.3E1,8.9E1,1.8E1,1.19E2,9.4E1,2.64E2,3E0,1.1E1,1E1,7.8E1,6.2E1,3.1E1,2E0,7.8E1,1.1E1,7E0,1.1E1,5.5E1,6.4E1,5.8E1,3.6E1],"tree_param":{"num_deleted":"0","num_feature":"72","num_nodes":"31","size_leaf_vector":"1"}},{"base_weights":[-2.2298981E-1,-4.6756334E0,6.286449E0,-2.3733351E0,-1.0885933E1,1.1656887E1,1.258122E0,-3.4309032E0,8.243463E0,-1.1118191E1,-4.271614E0,1.4219438E1,1.122486E0,-1.8624916E0,9.7107E0,-2.0284314E-1,5.247928E-1,1.5743068E0,8.343816E-2,-5.781939E-1,-3.3951867E-1,3.7210622E-1,-4.0513936E-1,4.7226095E-1,9.868132E-1,-5.4575306E-1,4.4453835E-1,3.9714208E-1,-2.3873909E-1,8.094698E-1,2.3946283E-2],"categories":[],"categories_nodes":[],"categories_segments":[],"categories_sizes":[],"default_left":[0,0,0,0,0,0,0,0,0,0,0,0,0,0,0,0,0,0,0,0,0,0,0,0,0,0,0,0,0,0,0],"id":5,"left_children":[1,3,5,7,9,11,13,15,17,19,21,23,25,27,29,-1,-1,-1,-1,-1,-1,-1,-1,-1,-1,-1,-1,-1,-1,-1,-1],"loss_changes":[2.3332697E4,6.808589E3,8.815746E3,3.9580774E3,1.5068164E2,4.2492383E3,4.5022153E3,2.823492E3,4.837491E3,1.6065527E2,3.2956607E2,3.15858E3,3.0893972E3,3.6074224E3,2.7434995E3,0E0,0E0,0E0,0E0,0E0,0E0,0E0,0E0,0E0,0E0,0E0,0E0,0E0,0E0,0E0,0E0],"parents":[2147483647,0,0,1,1,2,2,3,3,4,4,5,5,6,6,7,7,8,8,9,9,10,10,11,11,12,12,13,13,14,14],"right_children":[2,4,6,8,10,12,14,16,18,20,22,24,26,28,30,-1,-1,-1,-1,-1,-1,-1,-1,-1,-1,-1,-1,-1,-1,-1,-1],"split_conditions":[-8.797652E-2,-5.6725794E-1,3.405794E-1,1.9012657E0,2.2183757E0,7.489666E-1,1.382524E0,1.9708214E0,3.0992782E-1,-3.009187E-1,2.325444E0,-6.683944E-1,9.149966E-1,4.400486E-1,1.8813338E0,-2.0284314E-1,5.247928E-1,1.5743068E0,8.343816E-2,-5.781939E-1,-3.3951867E-1,3.7210622E-1,-4.0513936E-1,4.7226095E-1,9.868132E-1,-5.4575306E-1,4.4453835E-1,3.9714208E-1,-2.3873909E-1,8.094698E-1,2.3946283E-2],"split_indices":[63,45,45,9,18,54,63,18,18,63,18,45,63,54,63,0,0,0,0,0,0,0,0,0,0,0,0,0,0,0,0],"split_type":[0,0,0,0,0,0,0,0,0,0,0,0,0,0,0,0,0,0,0,0,0,0,0,0,0,0,0,0,0,0,0],"sum_hessian":[8.03E2,4.77E2,3.26E2,3.49E2,1.28E2,1.57E2,1.69E2,3.18E2,3.1E1,1.23E2,5E0,1.26E2,3.1E1,1.24E2,4.5E1,3.05E2,1.3E1,6E0,2.5E1,1.1E2,1.3E1,1E0,4E0,6.9E1,5.7E1,1.2E1,1.9E1,2.8E1,9.6E1,2.6E1,1.9E1],"tree_param":{"num_deleted":"0","num_feature":"72","num_nodes":"31","size_leaf_vector":"1"}},{"base_weights":[-1.536273E-1,-4.5336666E0,5.832892E0,-2.5579383E0,-9.900877E0,1.3405479E1,2.2394378E0,-3.0365186E0,5.035812E0,-1.1063857E1,-2.6313891E0,1.0977397E0,1.1754991E1,-7.0893574E-1,3.7355995E0,-1.6498394E-1,9.0258706E-1,1.9372641E0,-4.3110024E-2,-5.6697154E-1,-6.6982985E-2,-3.3229166E-1,9.8280543E-1,3.848091E-1,7.464645E-1,-2.470458E-4,3.8690138E-1],"categories":[],"categories_nodes":[],"categories_segments":[],"categories_sizes":[],"default_left":[0,0,0,0,0,0,0,0,0,0,0,0,0,0,0,0,0,0,0,0,0,0,0,0,0,0,0],"id":6,"left_children":[1,3,5,7,9,11,13,15,17,19,21,-1,23,-1,25,-1,-1,-1,-1,-1,-1,-1,-1,-1,-1,-1,-1],"loss_changes":[2.0478975E4,4.7571455E3,8.9498545E3,1.218218E3,9.938545E2,1.2376406E3,5.5799136E3,1.7910376E3,4.0097837E3,2.6350098E2,1.7411255E3,0E0,1.0575332E3,0E0,3.0990857E3,0E0,0E0,0E0,0E0,0E0,0E0,0E0,0E0,0E0,0E0,0E0,0E0],"parents":[2147483647,0,0,1,1,2,2,3,3,4,4,5,5,6,6,7,7,8,8,9,9,10,10,12,12,14,14],"right_children":[2,4,6,8,10,12,14,16,18,20,22,-1,24,-1,26,-1,-1,-1,-1,-1,-1,-1,-1,-1,-1,-1,-1],"split_conditions":[-1.4010441E-1,-5.6725794E-1,3.411172E-1,1.9708214E0,1.9708214E0,9.573566E-2,1.6771282E-1,2.5392706E0,-3.8930318E-1,-1.7053993E-1,1.5797403E-1,1.0977397E0,-6.679256E-1,-7.0893574E-1,8.8275266E-1,-1.6498394E-1,9.0258706E-1,1.9372641E0,-4.3110024E-2,-5.6697154E-1,-6.6982985E-2,-3.3229166E-1,9.8280543E-1,3.848091E-1,7.464645E-1,-2.470458E-4,3.8690138E-1],"split_indices":[63,45,54,18,27,63,63,27,27,63,54,0,54,0,63,0,0,0,0,0,0,0,0,0,0,0,0],"split_type":[0,0,0,0,0,0,0,0,0,0,0,0,0,0,0,0,0,0,0,0,0,0,0,0,0,0,0],"sum_hessian":[7.79E2,4.5E2,3.29E2,3.3E2,1.2E2,1.05E2,2.24E2,3.11E2,1.9E1,1.03E2,1.7E1,1.5E1,9E1,1.8E1,2.06E2,3.08E2,3E0,2E0,1.7E1,1E2,3E0,1.5E1,2E0,4.1E1,4.9E1,1.07E2,9.9E1],"tree_param":{"num_deleted":"0","num_feature":"72","num_nodes":"27","size_leaf_vector":"1"}},{"base_weights":[-2.359831E-1,-3.7564943E0,5.4022975E0,-4.770284E0,1.2244095E1,9.080604E0,2.0157256E0,-5.317397E0,1.05392685E1,2.774961E1,1.2268573E0,3.3910317E0,1.7960804E1,-1.3167443E0,9.680068E0,-2.064987E-1,-5.4230964E-1,7.870967E-1,-3.777466E-2,2.2768881E0,9.8191017E-1,1.0575192E0,-1.2927411E-1,7.01317E-1,6.0937822E-2,1.4907521E0,6.4483464E-1,2.9770017E-2,-3.7954432E-1,5.925506E-1,-3.7458515E-1],"categories":[],"categories_nodes":[],"categories_segments":[],"categories_sizes":[],"default_left":[0,0,0,0,0,0,0,0,0,0,0,0,0,0,0,0,0,0,0,0,0,0,0,0,0,0,0,0,0,0,0],"id":7,"left_children":[1,3,5,7,9,11,13,15,17,19,21,23,25,27,29,-1,-1,-1,-1,-1,-1,-1,-1,-1,-1,-1,-1,-1,-1,-1,-1],"loss_changes":[1.5542704E4,7.8770425E3,3.731207E3,3.8587705E3,4.919965E3,7.214627E3,4.0482544E3,2.837249E3,9.520985E2,8.3716406E2,1.4218783E3,2.0390559E3,2.9772324E3,1.3361941E3,1.8781738E3,0E0,0E0,0E0,0E0,0E0,0E0,0E0,0E0,0E0,0E0,0E0,0E0,0E0,0E0,0E0,0E0],"parents":[2147483647,0,0,1,1,2,2,3,3,4,4,5,5,6,6,7,7,8,8,9,9,10,10,11,11,12,12,13,13,14,14],"right_children":[2,4,6,8,10,12,14,16,18,20,22,24,26,28,30,-1,-1,-1,-1,-1,-1,-1,-1,-1,-1,-1,-1,-1,-1,-1,-1],"split_conditions":[5.470974E-2,1.9708214E0,3.4556973E-1,2.3650892E0,-6.699957E-1,-6.683944E-1,1.382524E0,3.032746E-1,-6.699957E-1,-3.8930318E-1,2.1509967E0,3.6617863E-1,9.584829E-2,1.76345E0,1.5983996E0,-2.064987E-1,-5.4230964E-1,7.870967E-1,-3.777466E-2,2.2768881E0,9.8191017E-1,1.0575192E0,-1.2927411E-1,7.01317E-1,6.0937822E-2,1.4907521E0,6.4483464E-1,2.9770017E-2,-3.7954432E-1,5.925506E-1,-3.7458515E-1],"split_indices":[63,9,45,27,27,45,63,45,9,18,9,63,45,45,27,0,0,0,0,0,0,0,0,0,0,0,0,0,0,0,0],"split_type":[0,0,0,0,0,0,0,0,0,0,0,0,0,0,0,0,0,0,0,0,0,0,0,0,0,0,0,0,0,0,0],"sum_hessian":[7.81E2,4.81E2,3E2,4.53E2,2.8E1,1.43E2,1.57E2,4.38E2,1.5E1,1.1E1,1.7E1,8.8E1,5.5E1,1.1E2,4.7E1,3.62E2,7.6E1,1E1,5E0,2E0,9E0,2E0,1.5E1,1.4E1,7.4E1,1.5E1,4E1,8.5E1,2.5E1,4.2E1,5E0],"tree_param":{"num_deleted":"0","num_feature":"72","num_nodes":"31","size_leaf_vector":"1"}},{"base_weights":[-7.112812E-2,-4.111347E0,5.4584503E0,-4.789738E0,1.2549199E1,1.067712E1,1.1273569E0,-3.1204083E0,-9.261997E0,3.6910114E1,-2.7071018E0,6.3466816E0,1.871628E1,-9.9598724E-1,7.0757756E0,-1.8698747E-1,3.427746E-1,-4.7939467E-1,-1.7912185E-1,6.1462057E-1,2.2149358E0,7.3964757E-1,-2.8214148E-1,8.911566E-1,1.9598086E-1,1.0005634E0,-4.5527935E-1,3.0248067E-1,-1.6673781E-1,-2.8287002E-1,5.079631E-1],"categories":[],"categories_nodes":[],"categories_segments":[],"categories_sizes":[],"default_left":[0,0,0,0,0,0,0,0,0,0,0,0,0,0,0,0,0,0,0,0,0,0,0,0,0,0,0,0,0,0,0],"id":8,"left_children":[1,3,5,7,9,11,13,15,17,19,21,23,25,27,29,-1,-1,-1,-1,-1,-1,-1,-1,-1,-1,-1,-1,-1,-1,-1,-1],"loss_changes":[1.7515215E4,5.180078E3,7.469407E3,3.2261338E3,6.7897524E3,5.103176E3,2.3058057E3,1.9965747E3,1.840625E2,7.286963E2,6.9997876E2,2.6876938E3,2.0557188E3,2.244708E3,1.9420791E3,0E0,0E0,0E0,0E0,0E0,0E0,0E0,0E0,0E0,0E0,0E0,0E0,0E0,0E0,0E0,0E0],"parents":[2147483647,0,0,1,1,2,2,3,3,4,4,5,5,6,6,7,7,8,8,9,9,10,10,11,11,12,12,13,13,14,14],"right_children":[2,4,6,8,10,12,14,16,18,20,22,24,26,28,30,-1,-1,-1,-1,-1,-1,-1,-1,-1,-1,-1,-1,-1,-1,-1,-1],"split_conditions":[-1.1837376E-1,2.3106506E0,2.9282385E-1,-5.712762E-1,-6.699957E-1,-6.683944E-1,1.382524E0,1.9708214E0,1.8779975E0,2.449418E0,2.325444E0,3.4040588E-1,8.9509404E-1,4.2575535E-1,7.184867E-1,-1.8698747E-1,3.427746E-1,-4.7939467E-1,-1.7912185E-1,6.1462057E-1,2.2149358E0,7.3964757E-1,-2.8214148E-1,8.911566E-1,1.9598086E-1,1.0005634E0,-4.5527935E-1,3.0248067E-1,-1.6673781E-1,-2.8287002E-1,5.079631E-1],"split_indices":[63,0,45,45,18,45,63,9,18,0,0,63,54,54,54,0,0,0,0,0,0,0,0,0,0,0,0,0,0,0,0],"split_type":[0,0,0,0,0,0,0,0,0,0,0,0,0,0,0,0,0,0,0,0,0,0,0,0,0,0,0,0,0,0,0],"sum_hessian":[7.82E2,4.52E2,3.3E2,4.35E2,1.7E1,1.49E2,1.81E2,3.18E2,1.17E2,6E0,1.1E1,9.8E1,5.1E1,1.34E2,4.7E1,3E2,1.8E1,1.1E2,7E0,2E0,4E0,1E0,1E1,1.6E1,8.2E1,4.9E1,2E0,3.3E1,1.01E2,9E0,3.8E1],"tree_param":{"num_deleted":"0","num_feature":"72","num_nodes":"31","size_leaf_vector":"1"}},{"base_weights":[-2.0539473E-1,-3.4566844E0,5.147767E0,-4.1336718E0,1.0292218E1,7.120354E0,-4.860481E0,-4.7071824E0,7.550503E0,2.8334427E1,-3.3302312E0,1.0851857E1,4.5334787E0,-9.904381E0,8.0626446E-1,-1.4788072E-1,-3.6257395E-1,7.8698945E-1,8.7331995E-2,1.6816467E0,-4.8380366E-1,2.4086563E-1,-5.021526E-1,3.543229E-1,6.784049E-1,5.2690484E-2,6.751997E-1,-3.7104174E-1,-6.091724E-1,3.7507007E-1,-3.2569942E-1],"categories":[],"categories_nodes":[],"categories_segments":[],"categories_sizes":[],"default_left":[0,0,0,0,0,0,0,0,0,0,0,0,0,0,0,0,0,0,0,0,0,0,0,0,0,0,0,0,0,0,0],"id":9,"left_children":[1,3,5,7,9,11,13,15,17,19,21,23,25,27,29,-1,-1,-1,-1,-1,-1,-1,-1,-1,-1,-1,-1,-1,-1,-1,-1],"loss_changes":[1.354123E4,4.5475356E3,5.838797E3,3.1314023E3,5.7472783E3,2.3254238E3,1.408528E3,1.9416289E3,1.0181572E3,2.3394243E3,8.1408264E2,9.2662305E2,4.57429E3,5.6753174E1,1.2251063E3,0E0,0E0,0E0,0E0,0E0,0E0,0E0,0E0,0E0,0E0,0E0,0E0,0E0,0E0,0E0,0E0],"parents":[2147483647,0,0,1,1,2,2,3,3,4,4,5,5,6,6,7,7,8,8,9,9,10,10,11,11,12,12,13,13,14,14],"right_children":[2,4,6,8,10,12,14,16,18,20,22,24,26,28,30,-1,-1,-1,-1,-1,-1,-1,-1,-1,-1,-1,-1,-1,-1,-1,-1],"split_conditions":[4.4754338E-2,2.2183757E0,1.7640852E0,1.9708214E0,-6.699957E-1,3.433359E-1,1.4765317E0,-4.2970783E-1,1.3678681E0,5.0931525E0,3.1229296E0,-6.679256E-1,1.242298E0,-2.5950676E-2,2.7619784E0,-1.4788072E-1,-3.6257395E-1,7.8698945E-1,8.7331995E-2,1.6816467E0,-4.8380366E-1,2.4086563E-1,-5.021526E-1,3.543229E-1,6.784049E-1,5.2690484E-2,6.751997E-1,-3.7104174E-1,-6.091724E-1,3.7507007E-1,-3.2569942E-1],"split_indices":[63,9,54,18,27,54,63,18,27,0,9,54,63,18,54,0,0,0,0,0,0,0,0,0,0,0,0,0,0,0,0],"split_type":[0,0,0,0,0,0,0,0,0,0,0,0,0,0,0,0,0,0,0,0,0,0,0,0,0,0,0,0,0,0,0],"sum_hessian":[7.76E2,4.83E2,2.93E2,4.61E2,2.2E1,2.45E2,4.8E1,4.4E2,2.1E1,9E0,1.3E1,9.9E1,1.46E2,2.5E1,2.3E1,2.62E2,1.78E2,8E0,1.3E1,8E0,1E0,6E0,7E0,4.3E1,5.6E1,1.06E2,4E1,1.4E1,1.1E1,1.2E1,1.1E1],"tree_param":{"num_deleted":"0","num_feature":"72","num_nodes":"31","size_leaf_vector":"1"}},{"base_weights":[1.9566844E-1,-3.1684425E0,5.2729564E0,-1.1616008E0,-6.755336E0,4.9809966E0,1.3473271E0,-1.8801572E0,9.904795E0,-8.315638E0,9.072803E-1,6.5586243E0,2.6554358E0,-1.0660297E-1,1.1506568E0,1.1316229E0,2.9714301E-2,-4.9137217E-1,-3.1199467E-1,-5.261547E-2,9.447179E-1,1.993161E-1,6.962268E-1,-6.932816E-2,3.2673582E-1],"categories":[],"categories_nodes":[],"categories_segments":[],"categories_sizes":[],"default_left":[0,0,0,0,0,0,0,0,0,0,0,0,0,0,0,0,0,0,0,0,0,0,0,0,0],"id":10,"left_children":[1,3,5,7,9,11,-1,13,15,17,19,21,23,-1,-1,-1,-1,-1,-1,-1,-1,-1,-1,-1,-1],"loss_changes":[1.3629914E4,3.4473496E3,1.8780244E3,2.475738E3,2.0639746E3,1.1382773E3,0E0,1.8738312E3,2.2380698E3,3.874287E2,1.0773014E3,3.4876475E3,2.0317869E3,0E0,0E0,0E0,0E0,0E0,0E0,0E0,0E0,0E0,0E0,0E0,0E0],"parents":[2147483647,0,0,1,1,2,2,3,3,4,4,5,5,7,7,8,8,9,9,10,10,11,11,12,12],"right_children":[2,4,6,8,10,12,-1,14,16,18,20,22,24,-1,-1,-1,-1,-1,-1,-1,-1,-1,-1,-1,-1],"split_conditions":[-1.0991163E-1,-5.689215E-1,2.325444E0,2.2183757E0,1.9708214E0,3.2175985E-1,1.3473271E0,7.987745E-1,3.1229296E0,8.14876E-1,-6.686262E-1,-6.699957E-1,4.3722084E-1,-1.0660297E-1,1.1506568E0,1.1316229E0,2.9714301E-2,-4.9137217E-1,-3.1199467E-1,-5.261547E-2,9.447179E-1,1.993161E-1,6.962268E-1,-6.932816E-2,3.2673582E-1],"split_indices":[63,36,0,0,27,36,0,27,0,27,63,36,27,0,0,0,0,0,0,0,0,0,0,0,0],"split_type":[0,0,0,0,0,0,0,0,0,0,0,0,0,0,0,0,0,0,0,0,0,0,0,0,0],"sum_hessian":[7.96E2,4.79E2,3.17E2,3.08E2,1.71E2,3.14E2,3E0,2.9E2,1.8E1,1.42E2,2.9E1,1.86E2,1.28E2,2.88E2,2E0,7E0,1.1E1,8E1,6.2E1,2.7E1,2E0,1.39E2,4.7E1,6.3E1,6.5E1],"tree_param":{"num_deleted":"0","num_feature":"72","num_nodes":"25","size_leaf_vector":"1"}},{"base_weights":[6.223186E-3,-2.8657181E0,4.3519034E0,-3.6198783E0,9.362847E0,1.2296546E1,7.9195845E-1,-2.3051217E0,-6.1192107E0,1.6843754E1,-1.0509777E1,9.78002E-1,1.06698065E1,-1.0540255E1,2.0337622E0,-9.799717E-2,-6.355583E-1,-3.907694E-1,1.1028009E-1,4.013497E-1,1.8039181E0,-3.0498E-1,-6.697527E-1,3.6396638E-1,6.980286E-1,-5.970083E-1,4.3644902E-1,2.1505165E-1,-2.4052098E-1],"categories":[],"categories_nodes":[],"categories_segments":[],"categories_sizes":[],"default_left":[0,0,0,0,0,0,0,0,0,0,0,0,0,0,0,0,0,0,0,0,0,0,0,0,0,0,0,0,0],"id":11,"left_children":[1,3,5,7,9,11,13,15,17,19,21,-1,23,25,27,-1,-1,-1,-1,-1,-1,-1,-1,-1,-1,-1,-1,-1,-1],"loss_changes":[9.535122E3,4.2761494E3,8.588139E3,1.4120249E3,4.1909863E3,9.019844E2,2.9907095E3,1.0023815E3,2.12117E3,3.1021377E3,2.0092163E1,0E0,7.798008E2,6.7070483E2,2.9845535E3,0E0,0E0,0E0,0E0,0E0,0E0,0E0,0E0,0E0,0E0,0E0,0E0,0E0,0E0],"parents":[2147483647,0,0,1,1,2,2,3,3,4,4,5,5,6,6,7,7,8,8,9,9,10,10,12,12,13,13,14,14],"right_children":[2,4,6,8,10,12,14,16,18,20,22,-1,24,26,28,-1,-1,-1,-1,-1,-1,-1,-1,-1,-1,-1,-1,-1,-1],"split_conditions":[-1.4010441E-1,1.9708214E0,3.0280846E-1,-3.8930318E-1,3.4996586E0,1.19334675E-1,1.6771282E-1,1.7673402E0,1.9401755E0,2.398365E0,1.8815847E-1,9.78002E-1,-6.679256E-1,1.3236029E0,1.7574896E0,-9.799717E-2,-6.355583E-1,-3.907694E-1,1.1028009E-1,4.013497E-1,1.8039181E0,-3.0498E-1,-6.697527E-1,3.6396638E-1,6.980286E-1,-5.970083E-1,4.3644902E-1,2.1505165E-1,-2.4052098E-1],"split_indices":[63,9,54,36,9,63,63,9,27,9,27,0,54,27,54,0,0,0,0,0,0,0,0,0,0,0,0,0,0],"split_type":[0,0,0,0,0,0,0,0,0,0,0,0,0,0,0,0,0,0,0,0,0,0,0,0,0,0,0,0,0],"sum_hessian":[7.62E2,4.59E2,3.03E2,4.33E2,2.6E1,9.3E1,2.1E2,2.85E2,1.48E2,1.9E1,7E0,1.5E1,7.8E1,2E1,1.9E2,2.77E2,8E0,1.23E2,2.5E1,1.4E1,5E0,4E0,3E0,4E1,3.8E1,1.9E1,1E0,1.43E2,4.7E1],"tree_param":{"num_deleted":"0","num_feature":"72","num_nodes":"29","size_leaf_vector":"1"}},{"base_weights":[5.6477305E-2,-2.978758E0,4.80497E0,-3.6979756E0,8.891968E0,2.9917068E0,1.0650883E1,-2.0809605E0,-7.3186336E0,2.3485592E1,-5.203557E-1,4.096454E0,-4.2481165E0,1.9091032E1,6.3865943E0,-1.1719942E-1,7.4266917E-1,-4.2884102E-1,3.6112E-2,1.384673E0,-4.6482697E-1,7.80581E-1,-2.3937629E-1,1.527503E-1,6.147606E-1,-3.7077543E-1,7.169452E-1,3.6115503E-1,1.1322863E0,5.330665E-1,4.524448E-2],"categories":[],"categories_nodes":[],"categories_segments":[],"categories_sizes":[],"default_left":[0,0,0,0,0,0,0,0,0,0,0,0,0,0,0,0,0,0,0,0,0,0,0,0,0,0,0,0,0,0,0],"id":12,"left_children":[1,3,5,7,9,11,13,15,17,19,21,23,25,27,29,-1,-1,-1,-1,-1,-1,-1,-1,-1,-1,-1,-1,-1,-1,-1,-1],"loss_changes":[1.1458071E4,4.173634E3,3.2541914E3,2.6662036E3,3.8582986E3,1.9209673E3,2.5054326E3,1.4512533E3,1.4326807E3,1.7748242E3,1.3138228E3,1.7299243E3,1.9902466E3,8.4891113E2,1.1619949E3,0E0,0E0,0E0,0E0,0E0,0E0,0E0,0E0,0E0,0E0,0E0,0E0,0E0,0E0,0E0,0E0],"parents":[2147483647,0,0,1,1,2,2,3,3,4,4,5,5,6,6,7,7,8,8,9,9,10,10,11,11,12,12,13,13,14,14],"right_children":[2,4,6,8,10,12,14,16,18,20,22,24,26,28,30,-1,-1,-1,-1,-1,-1,-1,-1,-1,-1,-1,-1,-1,-1,-1,-1],"split_conditions":[5.470974E-2,1.9708214E0,3.0107528E-1,-5.712762E-1,-6.699957E-1,1.76345E0,1.7355731E-1,-3.8725936E-1,1.9012657E0,5.0931525E0,2.140781E0,1.3264319E0,1.382524E0,-6.699957E-1,9.4515073E-1,-1.1719942E-1,7.4266917E-1,-4.2884102E-1,3.6112E-2,1.384673E0,-4.6482697E-1,7.80581E-1,-2.3937629E-1,1.527503E-1,6.147606E-1,-3.7077543E-1,7.169452E-1,3.6115503E-1,1.1322863E0,5.330665E-1,4.524448E-2],"split_indices":[63,9,9,45,27,45,45,63,27,0,9,45,63,27,0,0,0,0,0,0,0,0,0,0,0,0,0,0,0,0,0],"split_type":[0,0,0,0,0,0,0,0,0,0,0,0,0,0,0,0,0,0,0,0,0,0,0,0,0,0,0,0,0,0,0],"sum_hessian":[7.93E2,4.84E2,3.09E2,4.57E2,2.7E1,2.37E2,7.2E1,3.17E2,1.4E2,1E1,1.7E1,2.06E2,3.1E1,2.3E1,4.9E1,3.13E2,4E0,1.21E2,1.9E1,9E0,1E0,3E0,1.4E1,1.84E2,2.2E1,2.7E1,4E0,6E0,1.7E1,2.7E1,2.2E1],"tree_param":{"num_deleted":"0","num_feature":"72","num_nodes":"31","size_leaf_vector":"1"}},{"base_weights":[-6.154538E-2,-4.601041E-1,1.1437708E1,-6.99053E-1,1.3140232E1,1.9973036E0,7.397591E0,-2.2820039E0,1.4104245E0,1.558476E0,4.614494E0,3.8663433E0,2.0043064E1,-6.4250134E-2,-3.919451E-1,4.112946E-1,-8.612033E-2,-3.4211E-1,6.6963285E-1,6.845423E-1,-1.9121143E-1,1.5684489E0,1.01806484E-1],"categories":[],"categories_nodes":[],"categories_segments":[],"categories_sizes":[],"default_left":[0,0,0,0,0,0,0,0,0,0,0,0,0,0,0,0,0,0,0,0,0,0,0],"id":13,"left_children":[1,3,5,7,9,-1,11,13,15,-1,17,19,21,-1,-1,-1,-1,-1,-1,-1,-1,-1,-1],"loss_changes":[3.5571865E3,2.4465244E3,2.6990999E3,2.4675479E3,1.8544373E3,0E0,9.9420996E2,2.327906E3,6.7826597E3,0E0,1.0973224E3,1.5634778E3,9.558535E2,0E0,0E0,0E0,0E0,0E0,0E0,0E0,0E0,0E0,0E0],"parents":[2147483647,0,0,1,1,2,2,3,3,4,4,6,6,7,7,8,8,10,10,11,11,12,12],"right_children":[2,4,6,8,10,-1,12,14,16,-1,18,20,22,-1,-1,-1,-1,-1,-1,-1,-1,-1,-1],"split_conditions":[2.3106506E0,2.449418E0,-3.8930318E-1,-1.5612186E-1,-6.699957E-1,1.9973036E0,4.886363E0,-5.712762E-1,3.1280717E-1,1.558476E0,4.783612E-1,2.6748345E0,2.5392706E0,-6.4250134E-2,-3.919451E-1,4.112946E-1,-8.612033E-2,-3.4211E-1,6.6963285E-1,6.845423E-1,-1.9121143E-1,1.5684489E0,1.01806484E-1],"split_indices":[9,18,18,54,36,0,9,45,45,0,36,9,18,0,0,0,0,0,0,0,0,0,0],"split_type":[0,0,0,0,0,0,0,0,0,0,0,0,0,0,0,0,0,0,0,0,0,0,0],"sum_hessian":[7.74E2,7.49E2,2.5E1,7.37E2,1.2E1,2E0,2.3E1,4.21E2,3.16E2,3E0,9E0,1.9E1,4E0,3.58E2,6.3E1,9.9E1,2.17E2,4E0,5E0,8E0,1.1E1,2E0,2E0],"tree_param":{"num_deleted":"0","num_feature":"72","num_nodes":"23","size_leaf_vector":"1"}},{"base_weights":[-6.799812E-2,-3.372787E0,4.2303967E0,-1.9156487E0,-4.0698525E-1,9.843006E0,1.2652695E0,-2.5855596E0,7.3133807E0,1.0436184E1,-5.412761E0,-2.456494E0,4.534745E0,-1.5262462E-1,3.150921E-1,1.1408443E0,-1.2381407E-1,6.068295E-1,3.2546547E-1,-2.9696807E-1,-8.265896E-2,9.600308E-2,-3.7040696E-1,2.837012E-1,-4.946818E-1],"categories":[],"categories_nodes":[],"categories_segments":[],"categories_sizes":[],"default_left":[0,0,0,0,0,0,0,0,0,0,0,0,0,0,0,0,0,0,0,0,0,0,0,0,0],"id":14,"left_children":[1,3,5,7,-1,9,11,13,15,17,19,21,23,-1,-1,-1,-1,-1,-1,-1,-1,-1,-1,-1,-1],"loss_changes":[1.0980751E4,3.019834E3,5.579292E3,2.0962725E3,0E0,1.1062158E3,2.7003152E3,1.322279E3,3.5473052E3,6.6885547E2,8.016968E-2,2.2680237E3,1.995815E3,0E0,0E0,0E0,0E0,0E0,0E0,0E0,0E0,0E0,0E0,0E0,0E0],"parents":[2147483647,0,0,1,1,2,2,3,3,5,5,6,6,7,7,8,8,9,9,10,10,11,11,12,12],"right_children":[2,4,6,8,-1,10,12,14,16,18,20,22,24,-1,-1,-1,-1,-1,-1,-1,-1,-1,-1,-1,-1],"split_conditions":[-3.3361587E-1,-4.6439806E-1,3.4101814E-1,1.9708214E0,-4.0698525E-1,3.0671735E0,6.8167394E-1,2.2183757E0,-6.699957E-1,1.7355731E-1,3.3227239E0,5.9354967E-1,3.0675468E0,-1.5262462E-1,3.150921E-1,1.1408443E0,-1.2381407E-1,6.068295E-1,3.2546547E-1,-2.9696807E-1,-8.265896E-2,9.600308E-2,-3.7040696E-1,2.837012E-1,-4.946818E-1],"split_indices":[63,45,54,0,0,63,63,18,18,45,63,54,54,0,0,0,0,0,0,0,0,0,0,0,0],"split_type":[0,0,0,0,0,0,0,0,0,0,0,0,0,0,0,0,0,0,0,0,0,0,0,0,0],"sum_hessian":[7.71E2,4.36E2,3.35E2,3.35E2,1.01E2,1.15E2,2.2E2,3.13E2,2.2E1,1.11E2,4E0,1.03E2,1.17E2,2.98E2,1.5E1,8E0,1.4E1,7.6E1,3.5E1,3E0,1E0,5.5E1,4.8E1,1.09E2,8E0],"tree_param":{"num_deleted":"0","num_feature":"72","num_nodes":"25","size_leaf_vector":"1"}},{"base_weights":[5.209162E-1,-2.112791E0,3.9299917E0,-3.0531828E0,9.549397E0,8.702987E0,1.4729944E0,-1.703495E0,-6.507174E0,2.1836649E1,4.708504E-1,1.7891975E1,7.356429E0,-1.9270325E0,5.7422986E0,-1.0376578E-1,5.924251E-1,-3.7945563E-1,5.632894E-3,1.2443321E0,-4.4533068E-1,8.882985E-1,-2.4816513E-1,6.0819376E-1,1.094119E0,4.4431034E-1,1.0301003E-2,2.1374142E-1,-3.3957502E-1,5.0329435E-1,-3.624801E-2],"categories":[],"categories_nodes":[],"categories_segments":[],"categories_sizes":[],"default_left":[0,0,0,0,0,0,0,0,0,0,0,0,0,0,0,0,0,0,0,0,0,0,0,0,0,0,0,0,0,0,0],"id":15,"left_children":[1,3,5,7,9,11,13,15,17,19,21,23,25,27,29,-1,-1,-1,-1,-1,-1,-1,-1,-1,-1,-1,-1,-1,-1,-1,-1],"loss_changes":[6.984603E3,4.84368E3,3.962713E3,1.8862715E3,3.670881E3,1.291332E3,3.2771091E3,1.506029E3,8.1735156E2,1.5343892E3,1.9678644E3,5.382959E1,1.1138999E3,3.8302952E3,2.8034739E3,0E0,0E0,0E0,0E0,0E0,0E0,0E0,0E0,0E0,0E0,0E0,0E0,0E0,0E0,0E0,0E0],"parents":[2147483647,0,0,1,1,2,2,3,3,4,4,5,5,6,6,7,7,8,8,9,9,10,10,11,11,12,12,13,13,14,14],"right_children":[2,4,6,8,10,12,14,16,18,20,22,24,26,28,30,-1,-1,-1,-1,-1,-1,-1,-1,-1,-1,-1,-1,-1,-1,-1,-1],"split_conditions":[-1.1837376E-1,1.9012657E0,3.4101814E-1,-5.6725794E-1,-6.699957E-1,1.19334675E-1,9.4228536E-1,2.2183757E0,1.9708214E0,5.0931525E0,2.1509967E0,5.266521E-1,2.9282385E-1,5.8551216E-1,1.7640852E0,-1.0376578E-1,5.924251E-1,-3.7945563E-1,5.632894E-3,1.2443321E0,-4.4533068E-1,8.882985E-1,-2.4816513E-1,6.0819376E-1,1.094119E0,4.4431034E-1,1.0301003E-2,2.1374142E-1,-3.3957502E-1,5.0329435E-1,-3.624801E-2],"split_indices":[63,9,54,45,27,63,63,27,27,0,9,27,45,54,54,0,0,0,0,0,0,0,0,0,0,0,0,0,0,0,0],"split_type":[0,0,0,0,0,0,0,0,0,0,0,0,0,0,0,0,0,0,0,0,0,0,0,0,0,0,0,0,0,0,0],"sum_hessian":[7.76E2,4.38E2,3.38E2,4.06E2,3.2E1,1.14E2,2.24E2,2.93E2,1.13E2,1.3E1,1.9E1,1.3E1,1.01E2,1.25E2,9.9E1,2.86E2,7E0,9.7E1,1.6E1,1.2E1,1E0,4E0,1.5E1,7E0,6E0,8.3E1,1.8E1,5.5E1,7E1,5.9E1,4E1],"tree_param":{"num_deleted":"0","num_feature":"72","num_nodes":"31","size_leaf_vector":"1"}},{"base_weights":[-3.1365082E-1,-3.19188E0,3.8003917E0,-1.9111187E0,-6.770562E0,7.432446E0,8.483912E-1,-2.359282E0,3.740478E0,-7.6554723E0,-1.3799294E0,3.4878044E0,1.5084706E1,-1.6848457E0,7.090341E0,-6.1713245E-2,-2.7961704E-1,5.750456E-1,-4.5251313E-1,-2.7384135E-1,-4.0763456E-1,-2.4712215E-1,9.04006E-1,5.8962613E-1,7.633078E-2,5.5920845E-1,1.2362918E0,-1.9680896E-1,1.8161765E-1,6.9913757E-1,4.646676E-2],"categories":[],"categories_nodes":[],"categories_segments":[],"categories_sizes":[],"default_left":[0,0,0,0,0,0,0,0,0,0,0,0,0,0,0,0,0,0,0,0,0,0,0,0,0,0,0,0,0,0,0],"id":16,"left_children":[1,3,5,7,9,11,13,15,17,19,21,23,25,27,29,-1,-1,-1,-1,-1,-1,-1,-1,-1,-1,-1,-1,-1,-1,-1,-1],"loss_changes":[9.117981E3,2.063358E3,3.3925132E3,8.5732544E2,5.570928E2,4.2337188E3,2.7949172E3,1.1242815E3,2.585629E3,6.5842285E1,1.3372405E3,1.5292737E3,1.5285303E3,1.5226167E3,2.1526785E3,0E0,0E0,0E0,0E0,0E0,0E0,0E0,0E0,0E0,0E0,0E0,0E0,0E0,0E0,0E0,0E0],"parents":[2147483647,0,0,1,1,2,2,3,3,4,4,5,5,6,6,7,7,8,8,9,9,10,10,11,11,12,12,13,13,14,14],"right_children":[2,4,6,8,10,12,14,16,18,20,22,24,26,28,30,-1,-1,-1,-1,-1,-1,-1,-1,-1,-1,-1,-1,-1,-1,-1,-1],"split_conditions":[-1.7053993E-1,-4.6439806E-1,2.9282385E-1,1.9012657E0,1.9708214E0,-6.683944E-1,1.382524E0,-5.7293725E-1,3.1229296E0,6.9303443E-3,-6.686262E-1,2.6316738E-1,5.5123144E-1,9.7216374E-1,1.7332311E0,-6.1713245E-2,-2.7961704E-1,5.750456E-1,-4.5251313E-1,-2.7384135E-1,-4.0763456E-1,-2.4712215E-1,9.04006E-1,5.8962613E-1,7.633078E-2,5.5920845E-1,1.2362918E0,-1.9680896E-1,1.8161765E-1,6.9913757E-1,4.646676E-2],"split_indices":[63,45,45,18,27,45,63,27,18,45,63,63,63,36,63,0,0,0,0,0,0,0,0,0,0,0,0,0,0,0,0],"split_type":[0,0,0,0,0,0,0,0,0,0,0,0,0,0,0,0,0,0,0,0,0,0,0,0,0,0,0,0,0,0,0],"sum_hessian":[7.68E2,4.52E2,3.16E2,3.34E2,1.18E2,1.41E2,1.75E2,3.1E2,2.4E1,1.01E2,1.7E1,9.4E1,4.7E1,1.25E2,5E1,2.31E2,7.9E1,1.5E1,9E0,2.1E1,8E1,1.5E1,2E0,1.7E1,7.7E1,3.5E1,1.2E1,8.8E1,3.7E1,2.3E1,2.7E1],"tree_param":{"num_deleted":"0","num_feature":"72","num_nodes":"31","size_leaf_vector":"1"}},{"base_weights":[9.544552E-2,-2.3183682E0,3.6117508E0,-3.1502542E0,9.599423E0,9.137194E0,1.161961E0,-2.0340202E0,-6.309677E0,2.3652384E1,1.3903245E0,1.1253051E1,4.55382E0,-6.198255E0,2.1909394E0,-1.1921078E-1,3.5327324E-1,-3.6480534E-1,-2.1305865E-2,-2.7453843E-1,1.5369362E0,8.554047E-1,-1.8041867E-1,3.2001996E-1,6.633777E-1,2.894007E-1,-4.653028E-1,-4.6045977E-1,6.708475E-1,1.902047E-1,-1.7436479E-1],"categories":[],"categories_nodes":[],"categories_segments":[],"categories_sizes":[],"default_left":[0,0,0,0,0,0,0,0,0,0,0,0,0,0,0,0,0,0,0,0,0,0,0,0,0,0,0,0,0,0,0],"id":17,"left_children":[1,3,5,7,9,11,13,15,17,19,21,23,25,27,29,-1,-1,-1,-1,-1,-1,-1,-1,-1,-1,-1,-1,-1,-1,-1,-1],"loss_changes":[6.526931E3,4.5511367E3,4.226205E3,1.4930479E3,3.4279797E3,8.797412E2,1.6646038E3,1.0269971E3,6.41104E2,2.440481E3,1.6331E3,5.50501E2,6.0124817E2,1.7181847E3,1.7719612E3,0E0,0E0,0E0,0E0,0E0,0E0,0E0,0E0,0E0,0E0,0E0,0E0,0E0,0E0,0E0,0E0],"parents":[2147483647,0,0,1,1,2,2,3,3,4,4,5,5,6,6,7,7,8,8,9,9,10,10,11,11,12,12,13,13,14,14],"right_children":[2,4,6,8,10,12,14,16,18,20,22,24,26,28,30,-1,-1,-1,-1,-1,-1,-1,-1,-1,-1,-1,-1,-1,-1,-1,-1],"split_conditions":[-2.0716625E-1,1.9708214E0,2.8207442E-1,-4.6439806E-1,-6.699957E-1,7.483901E-1,1.9413461E-1,2.1509967E0,1.9708214E0,2.2183757E0,2.1509967E0,-6.679256E-1,1.7143781E-1,1.6776681E0,1.7574896E0,-1.1921078E-1,3.5327324E-1,-3.6480534E-1,-2.1305865E-2,-2.7453843E-1,1.5369362E0,8.554047E-1,-1.8041867E-1,3.2001996E-1,6.633777E-1,2.894007E-1,-4.653028E-1,-4.6045977E-1,6.708475E-1,1.902047E-1,-1.7436479E-1],"split_indices":[63,9,54,45,27,63,63,27,27,9,9,54,36,27,54,0,0,0,0,0,0,0,0,0,0,0,0,0,0,0,0],"split_type":[0,0,0,0,0,0,0,0,0,0,0,0,0,0,0,0,0,0,0,0,0,0,0,0,0,0,0,0,0,0,0],"sum_hessian":[7.67E2,4.55E2,3.12E2,4.26E2,2.9E1,9.5E1,2.17E2,3.16E2,1.1E2,1E1,1.9E1,6.4E1,3.1E1,2.6E1,1.91E2,3.05E2,1.1E1,9.4E1,1.6E1,2E0,8E0,4E0,1.5E1,2E1,4.4E1,2.9E1,2E0,2.3E1,3E0,1.49E2,4.2E1],"tree_param":{"num_deleted":"0","num_feature":"72","num_nodes":"31","size_leaf_vector":"1"}},{"base_weights":[-3.874075E-2,-2.157616E0,3.0314524E0,-9.037915E-1,-5.868928E0,7.0362916E0,-6.5956295E-1,-1.5751146E0,8.738343E0,-6.0838947E0,4.8205528E-1,3.490627E0,1.2298489E1,-2.8212552E0,4.8484793E0,-1.1377492E-1,3.5162854E-1,1.1266615E0,-8.696572E-2,-3.321529E-1,-1.0694933E-1,5.615799E-1,7.5472765E-2,6.7653435E-1,-4.4755274E-1,-5.0570476E-1,-6.8888955E-2,6.371661E-1,6.1142918E-2],"categories":[],"categories_nodes":[],"categories_segments":[],"categories_sizes":[],"default_left":[0,0,0,0,0,0,0,0,0,0,0,0,0,0,0,0,0,0,0,0,0,0,0,0,0,0,0,0,0],"id":18,"left_children":[1,3,5,7,9,11,13,15,17,19,-1,21,23,25,27,-1,-1,-1,-1,-1,-1,-1,-1,-1,-1,-1,-1,-1,-1],"loss_changes":[5.1457725E3,2.172456E3,4.779202E3,2.2857827E3,4.5208472E2,2.8490586E3,2.0259098E3,1.9994392E3,3.3635686E3,2.4387451E2,0E0,1.4246486E3,1.744499E3,1.270364E3,1.3583545E3,0E0,0E0,0E0,0E0,0E0,0E0,0E0,0E0,0E0,0E0,0E0,0E0,0E0,0E0],"parents":[2147483647,0,0,1,1,2,2,3,3,4,4,5,5,6,6,7,7,8,8,9,9,11,11,12,12,13,13,14,14],"right_children":[2,4,6,8,10,12,14,16,18,20,-1,22,24,26,28,-1,-1,-1,-1,-1,-1,-1,-1,-1,-1,-1,-1,-1,-1],"split_conditions":[-1.7053993E-1,-5.6725794E-1,3.405794E-1,1.9708214E0,5.0931525E0,-6.683944E-1,4.0826526E-1,1.9708214E0,-6.699957E-1,1.9708214E0,4.8205528E-1,3.4040588E-1,1.2788448E0,1.7348868E-1,7.4592763E-1,-1.1377492E-1,3.5162854E-1,1.1266615E0,-8.696572E-2,-3.321529E-1,-1.0694933E-1,5.615799E-1,7.5472765E-2,6.7653435E-1,-4.4755274E-1,-5.0570476E-1,-6.8888955E-2,6.371661E-1,6.1142918E-2],"split_indices":[63,45,45,0,27,45,18,18,18,27,0,63,63,63,18,0,0,0,0,0,0,0,0,0,0,0,0,0,0],"split_type":[0,0,0,0,0,0,0,0,0,0,0,0,0,0,0,0,0,0,0,0,0,0,0,0,0,0,0,0,0],"sum_hessian":[7.89E2,4.67E2,3.22E2,3.5E2,1.17E2,1.54E2,1.68E2,3.28E2,2.2E1,1.16E2,1E0,9.3E1,6.1E1,1.21E2,4.7E1,3.04E2,2.4E1,9E0,1.3E1,1.01E2,1.5E1,1.8E1,7.5E1,5.8E1,3E0,1.9E1,1.02E2,1.4E1,3.3E1],"tree_param":{"num_deleted":"0","num_feature":"72","num_nodes":"29","size_leaf_vector":"1"}},{"base_weights":[-1.3718316E-1,-2.5629787E0,3.1543298E0,-2.7162318E0,1.6370338E0,8.031014E0,7.238161E-1,-1.4846209E0,-6.3976893E0,3.221683E0,1.1904942E1,-3.2160156E0,4.349019E0,-8.933429E-2,4.8108968E-1,-3.2434243E-1,8.524513E-2,2.775905E-2,5.3841263E-1,8.590962E-1,3.207076E-1,7.648321E-2,-3.9071283E-1,2.9440936E-1,-4.0902337E-1],"categories":[],"categories_nodes":[],"categories_segments":[],"categories_sizes":[],"default_left":[0,0,0,0,0,0,0,0,0,0,0,0,0,0,0,0,0,0,0,0,0,0,0,0,0],"id":19,"left_children":[1,3,5,7,-1,9,11,13,15,17,19,21,23,-1,-1,-1,-1,-1,-1,-1,-1,-1,-1,-1,-1],"loss_changes":[6.1721475E3,2.4965557E3,3.8819219E3,2.0036531E3,0E0,1.9924243E3,3.1561782E3,1.1377131E3,9.124805E1,1.00016864E3,1.6282822E3,2.325062E3,2.2659417E3,0E0,0E0,0E0,0E0,0E0,0E0,0E0,0E0,0E0,0E0,0E0,0E0],"parents":[2147483647,0,0,1,1,2,2,3,3,5,5,6,6,7,7,8,8,9,9,10,10,11,11,12,12],"right_children":[2,4,6,8,-1,10,12,14,16,18,20,22,24,-1,-1,-1,-1,-1,-1,-1,-1,-1,-1,-1,-1],"split_conditions":[-3.3361587E-1,4.886363E0,3.4101814E-1,-5.6725794E-1,1.6370338E0,-6.679256E-1,7.084858E-1,1.7673402E0,2.398365E0,7.987745E-1,1.9028826E-1,5.9354967E-1,3.0675468E0,-8.933429E-2,4.8108968E-1,-3.2434243E-1,8.524513E-2,2.775905E-2,5.3841263E-1,8.590962E-1,3.207076E-1,7.648321E-2,-3.9071283E-1,2.9440936E-1,-4.0902337E-1],"split_indices":[63,0,54,45,0,54,63,27,18,0,45,54,54,0,0,0,0,0,0,0,0,0,0,0,0],"split_type":[0,0,0,0,0,0,0,0,0,0,0,0,0,0,0,0,0,0,0,0,0,0,0,0,0],"sum_hessian":[7.71E2,4.44E2,3.27E2,4.43E2,1E0,1.08E2,2.19E2,3.33E2,1.1E2,4.9E1,5.9E1,1.05E2,1.14E2,3.25E2,8E0,1.09E2,1E0,3.7E1,1.2E1,2.9E1,3E1,5.2E1,5.3E1,1.02E2,1.2E1],"tree_param":{"num_deleted":"0","num_feature":"72","num_nodes":"25","size_leaf_vector":"1"}},{"base_weights":[1.5474322E-1,-1.5224988E0,2.7288704E0,1.322115E-1,-4.673226E0,2.4188273E0,1.5980932E1,-1.3931179E0,5.7380958E0,-6.13694E0,1.6478564E0,1.1895018E0,5.527924E0,-2.8004856E0,2.4053596E1,-8.6072646E-2,9.6149254E-1,8.017484E-1,1.2606703E-1,-4.0543243E-1,-2.3818283E-1,1.7145714E-3,8.61711E-1,4.585878E-2,7.90099E-1,3.275393E-1,-4.6862563E-1,8.402782E-2,-2.9406425E-1,3.249137E-1,1.340893E0],"categories":[],"categories_nodes":[],"categories_segments":[],"categories_sizes":[],"default_left":[0,0,0,0,0,0,0,0,0,0,0,0,0,0,0,0,0,0,0,0,0,0,0,0,0,0,0,0,0,0,0],"id":20,"left_children":[1,3,5,7,9,11,13,15,17,19,21,23,25,27,29,-1,-1,-1,-1,-1,-1,-1,-1,-1,-1,-1,-1,-1,-1,-1,-1],"loss_changes":[3.436515E3,2.5135442E3,1.2514805E3,2.718604E3,1.545987E3,1.1706288E3,1.1286742E3,1.7259143E3,2.2119019E3,3.2691455E2,8.041966E2,8.6892456E2,1.3873723E3,5.1299393E1,6.836792E1,0E0,0E0,0E0,0E0,0E0,0E0,0E0,0E0,0E0,0E0,0E0,0E0,0E0,0E0,0E0,0E0],"parents":[2147483647,0,0,1,1,2,2,3,3,4,4,5,5,6,6,7,7,8,8,9,9,10,10,11,11,12,12,13,13,14,14],"right_children":[2,4,6,8,10,12,14,16,18,20,22,24,26,28,30,-1,-1,-1,-1,-1,-1,-1,-1,-1,-1,-1,-1,-1,-1,-1,-1],"split_conditions":[2.1783305E-2,-5.689215E-1,1.8563881E0,6.897124E-1,1.9708214E0,1.382524E0,5.2207327E-1,2.9489312E-1,1.0180013E0,5.586151E-1,-6.686262E-1,1.8563881E0,1.5151176E0,2.325444E0,-3.3379018E-1,-8.6072646E-2,9.6149254E-1,8.017484E-1,1.2606703E-1,-4.0543243E-1,-2.3818283E-1,1.7145714E-3,8.61711E-1,4.585878E-2,7.90099E-1,3.275393E-1,-4.6862563E-1,8.402782E-2,-2.9406425E-1,3.249137E-1,1.340893E0],"split_indices":[63,36,9,9,27,63,63,27,9,27,63,27,27,9,27,0,0,0,0,0,0,0,0,0,0,0,0,0,0,0,0],"split_type":[0,0,0,0,0,0,0,0,0,0,0,0,0,0,0,0,0,0,0,0,0,0,0,0,0,0,0,0,0,0,0],"sum_hessian":[7.94E2,4.81E2,3.13E2,3.16E2,1.65E2,3.07E2,6E0,2.49E2,6.7E1,1.34E2,3.1E1,2.21E2,8.6E1,2E0,4E0,2.46E2,3E0,1.5E1,5.2E1,5.3E1,8.1E1,2.9E1,2E0,2.18E2,3E0,8.1E1,5E0,1E0,1E0,1E0,3E0],"tree_param":{"num_deleted":"0","num_feature":"72","num_nodes":"31","size_leaf_vector":"1"}},{"base_weights":[2.7307823E-1,-1.7861265E0,3.2558484E0,-2.4435794E0,7.5606656E0,8.07052E0,8.9983416E-1,-2.6912823E0,9.662619E0,2.398472E1,-1.4024423E0,9.443752E0,4.2768755E0,-1.225063E0,6.147201E0,-1.5354504E-1,2.4242344E-1,1.610437E0,-3.489282E-1,4.6913624E-1,1.5494164E0,7.7026606E-1,-2.5297937E-1,2.954155E-1,7.709883E-1,3.0419272E-1,-4.4947243E-1,1.8557285E-1,-2.0133145E-1,4.458042E-1,-3.1817785E-1],"categories":[],"categories_nodes":[],"categories_segments":[],"categories_sizes":[],"default_left":[0,0,0,0,0,0,0,0,0,0,0,0,0,0,0,0,0,0,0,0,0,0,0,0,0,0,0,0,0,0,0],"id":21,"left_children":[1,3,5,7,9,11,13,15,17,19,21,23,25,27,29,-1,-1,-1,-1,-1,-1,-1,-1,-1,-1,-1,-1,-1,-1,-1,-1],"loss_changes":[4.858101E3,2.8943708E3,3.656668E3,1.3394529E3,4.5971646E3,5.1182324E2,2.438256E3,1.245647E3,3.6015176E3,8.341782E2,1.3687816E3,1.5357393E3,7.738493E2,2.1724224E3,2.2391099E3,0E0,0E0,0E0,0E0,0E0,0E0,0E0,0E0,0E0,0E0,0E0,0E0,0E0,0E0,0E0,0E0],"parents":[2147483647,0,0,1,1,2,2,3,3,4,4,5,5,6,6,7,7,8,8,9,9,10,10,11,11,12,12,13,13,14,14],"right_children":[2,4,6,8,10,12,14,16,18,20,22,24,26,28,30,-1,-1,-1,-1,-1,-1,-1,-1,-1,-1,-1,-1,-1,-1,-1,-1],"split_conditions":[-1.4010441E-1,1.9708214E0,3.4101814E-1,2.449418E0,-6.699957E-1,1.7355731E-1,1.382524E0,1.9708214E0,3.2554135E-1,2.3650892E0,2.1509967E0,-6.679256E-1,5.2207327E-1,5.518252E-1,3.0675468E0,-1.5354504E-1,2.4242344E-1,1.610437E0,-3.489282E-1,4.6913624E-1,1.5494164E0,7.7026606E-1,-2.5297937E-1,2.954155E-1,7.709883E-1,3.0419272E-1,-4.4947243E-1,1.8557285E-1,-2.0133145E-1,4.458042E-1,-3.1817785E-1],"split_indices":[63,9,54,0,27,45,63,18,9,9,9,54,63,54,54,0,0,0,0,0,0,0,0,0,0,0,0,0,0,0,0],"split_type":[0,0,0,0,0,0,0,0,0,0,0,0,0,0,0,0,0,0,0,0,0,0,0,0,0,0,0,0,0,0,0],"sum_hessian":[7.89E2,4.67E2,3.22E2,4.37E2,3E1,1.05E2,2.17E2,4.29E2,8E0,1E1,2E1,7.6E1,2.9E1,1.55E2,6.2E1,4.09E2,2E1,3E0,5E0,4E0,6E0,3E0,1.7E1,4.9E1,2.7E1,2.6E1,3E0,5.6E1,9.9E1,5.1E1,1.1E1],"tree_param":{"num_deleted":"0","num_feature":"72","num_nodes":"31","size_leaf_vector":"1"}},{"base_weights":[-6.0613666E-2,-2.1911025E0,3.0042555E0,-1.0608907E0,-5.4946465E0,6.9283643E0,1.02803E0,-1.3820727E0,1.2481066E1,-6.1265197E0,-1.1625314E0,5.9918985E0,2.1537474E1,-9.112416E-1,5.1481237E0,-9.176554E-2,3.3383676E-1,8.5781574E-1,-5.061417E-1,-2.877427E-1,-3.713832E-1,-1.6957109E-1,8.067705E-1,5.9915835E-1,2.4450245E-1,1.2098664E0,2.0595522E-1,1.50559E-1,-2.2560039E-1,4.7977877E-1,-1.2026413E-1],"categories":[],"categories_nodes":[],"categories_segments":[],"categories_sizes":[],"default_left":[0,0,0,0,0,0,0,0,0,0,0,0,0,0,0,0,0,0,0,0,0,0,0,0,0,0,0,0,0,0,0],"id":22,"left_children":[1,3,5,7,9,11,13,15,17,19,21,23,25,27,29,-1,-1,-1,-1,-1,-1,-1,-1,-1,-1,-1,-1,-1,-1,-1,-1],"loss_changes":[5.0474873E3,1.6967397E3,2.451188E3,1.500406E3,3.1041016E2,1.3211279E3,1.698567E3,1.2322085E3,1.0191013E3,6.0976562E0,6.716054E2,6.081511E2,1.7831055E2,2.0615261E3,2.3074326E3,0E0,0E0,0E0,0E0,0E0,0E0,0E0,0E0,0E0,0E0,0E0,0E0,0E0,0E0,0E0,0E0],"parents":[2147483647,0,0,1,1,2,2,3,3,4,4,5,5,6,6,7,7,8,8,9,9,10,10,11,11,12,12,13,13,14,14],"right_children":[2,4,6,8,10,12,14,16,18,20,22,24,26,28,30,-1,-1,-1,-1,-1,-1,-1,-1,-1,-1,-1,-1,-1,-1,-1,-1],"split_conditions":[-1.7053993E-1,-5.6725794E-1,3.4101814E-1,2.3650892E0,1.9708214E0,1.8563881E0,1.242298E0,1.9708214E0,5.0931525E0,9.7216374E-1,1.5797403E-1,1.19334675E-1,-6.699957E-1,6.723255E-1,1.8597078E0,-9.176554E-2,3.3383676E-1,8.5781574E-1,-5.061417E-1,-2.877427E-1,-3.713832E-1,-1.6957109E-1,8.067705E-1,5.9915835E-1,2.4450245E-1,1.2098664E0,2.0595522E-1,1.50559E-1,-2.2560039E-1,4.7977877E-1,-1.2026413E-1],"split_indices":[63,45,54,27,27,18,63,0,18,18,54,63,0,54,63,0,0,0,0,0,0,0,0,0,0,0,0,0,0,0,0],"split_type":[0,0,0,0,0,0,0,0,0,0,0,0,0,0,0,0,0,0,0,0,0,0,0,0,0,0,0,0,0,0,0],"sum_hessian":[7.71E2,4.55E2,3.16E2,3.4E2,1.15E2,1.05E2,2.11E2,3.33E2,7E0,1E2,1.5E1,1E2,5E0,1.44E2,6.7E1,3.16E2,1.7E1,6E0,1E0,8.2E1,1.8E1,1.4E1,1E0,1.4E1,8.6E1,4E0,1E0,6.9E1,7.5E1,4.2E1,2.5E1],"tree_param":{"num_deleted":"0","num_feature":"72","num_nodes":"31","size_leaf_vector":"1"}},{"base_weights":[9.0099774E-2,-2.473353E-1,7.2674656E0,-4.57121E-1,1.1053806E1,1.8851387E1,1.4164852E0,-6.37641E-1,7.3958416E0,1.5642816E0,-1.6748628E-1,8.075113E0,1.4140904E0,-2.245661E0,1.6514202E1,-7.918343E-2,2.734187E-2,9.626425E-1,4.255091E-2,-4.6379325E-1,1.6345458E-1,4.119123E-2,5.4054326E-1,2.7885243E-1,-3.74432E-1,3.3084047E-1,1.045343E0],"categories":[],"categories_nodes":[],"categories_segments":[],"categories_sizes":[],"default_left":[0,0,0,0,0,0,0,0,0,0,0,0,0,0,0,0,0,0,0,0,0,0,0,0,0,0,0],"id":23,"left_children":[1,3,5,7,9,11,13,15,17,-1,19,21,-1,23,25,-1,-1,-1,-1,-1,-1,-1,-1,-1,-1,-1,-1],"loss_changes":[1.9417355E3,1.8210996E3,2.4132798E3,1.0721815E3,3.183621E3,9.9111865E2,1.4193364E3,8.267107E2,1.3028496E3,0E0,3.4334015E2,1.2995782E2,0E0,9.0306494E2,7.90426E1,0E0,0E0,0E0,0E0,0E0,0E0,0E0,0E0,0E0,0E0,0E0,0E0],"parents":[2147483647,0,0,1,1,2,2,3,3,4,4,5,5,6,6,7,7,8,8,10,10,11,11,13,13,14,14],"right_children":[2,4,6,8,10,12,14,16,18,-1,20,22,-1,24,26,-1,-1,-1,-1,-1,-1,-1,-1,-1,-1,-1,-1],"split_conditions":[1.9708214E0,2.449418E0,-6.699957E-1,2.2183757E0,-6.699957E-1,2.449418E0,5.226696E-1,-1.5612186E-1,-6.699957E-1,1.5642816E0,1.9012657E0,2.9489312E-1,1.4140904E0,2.325444E0,5.9685445E-1,-7.918343E-2,2.734187E-2,9.626425E-1,4.255091E-2,-4.6379325E-1,1.6345458E-1,4.119123E-2,5.4054326E-1,2.7885243E-1,-3.74432E-1,3.3084047E-1,1.045343E0],"split_indices":[0,9,18,18,27,0,54,54,36,0,18,9,0,0,18,0,0,0,0,0,0,0,0,0,0,0,0],"split_type":[0,0,0,0,0,0,0,0,0,0,0,0,0,0,0,0,0,0,0,0,0,0,0,0,0,0,0],"sum_hessian":[8E2,7.65E2,3.5E1,7.52E2,1.3E1,1.1E1,2.4E1,7.36E2,1.6E1,4E0,9E0,6E0,5E0,2E1,4E0,4.09E2,3.27E2,5E0,1.1E1,2E0,7E0,2E0,4E0,8E0,1.2E1,2E0,2E0],"tree_param":{"num_deleted":"0","num_feature":"72","num_nodes":"27","size_leaf_vector":"1"}},{"base_weights":[-1.8328528E-1,-2.0842814E0,2.742869E0,-2.575983E0,4.787846E0,3.8856509E0,-3.3768494E0,-1.9102958E0,-6.0958548E0,1.6195408E0,1.8679545E0,3.4813368E0,2.0421383E1,-9.17316E0,2.1034694E0,-1.13700785E-1,6.5466166E-1,-3.3652112E-1,5.159807E-1,3.7684688E-1,-1.4552498E-1,1.5813813E-1,1.1340597E0,1.145386E0,1.9974256E-1,-5.1095283E-1,3.720616E-1,-9.116421E-2,6.5111345E-1],"categories":[],"categories_nodes":[],"categories_segments":[],"categories_sizes":[],"default_left":[0,0,0,0,0,0,0,0,0,0,0,0,0,0,0,0,0,0,0,0,0,0,0,0,0,0,0,0,0],"id":24,"left_children":[1,3,5,7,9,11,13,15,17,-1,19,21,23,25,27,-1,-1,-1,-1,-1,-1,-1,-1,-1,-1,-1,-1,-1,-1],"loss_changes":[4.350114E3,1.6139966E3,2.16712E3,1.0263635E3,2.5186216E3,1.6671692E3,1.575811E3,2.0707227E3,7.9862524E2,0E0,8.346055E2,1.4879934E3,1.5353809E2,4.9308887E2,1.1385046E3,0E0,0E0,0E0,0E0,0E0,0E0,0E0,0E0,0E0,0E0,0E0,0E0,0E0,0E0],"parents":[2147483647,0,0,1,1,2,2,3,3,4,4,5,5,6,6,7,7,8,8,10,10,11,11,12,12,13,13,14,14],"right_children":[2,4,6,8,10,12,14,16,18,-1,20,22,24,26,28,-1,-1,-1,-1,-1,-1,-1,-1,-1,-1,-1,-1,-1,-1],"split_conditions":[5.470974E-2,1.9708214E0,1.7940326E0,5.420705E-1,-3.8930318E-1,1.8563881E0,1.4765317E0,-3.009187E-1,2.398365E0,1.6195408E0,-2.4257469E-1,2.3650892E0,7.598361E-1,1.6626018E0,9.422659E-1,-1.13700785E-1,6.5466166E-1,-3.3652112E-1,5.159807E-1,3.7684688E-1,-1.4552498E-1,1.5813813E-1,1.1340597E0,1.145386E0,1.9974256E-1,-5.1095283E-1,3.720616E-1,-9.116421E-2,6.5111345E-1],"split_indices":[63,18,54,45,27,18,63,63,27,0,36,0,36,36,45,0,0,0,0,0,0,0,0,0,0,0,0,0,0],"split_type":[0,0,0,0,0,0,0,0,0,0,0,0,0,0,0,0,0,0,0,0,0,0,0,0,0,0,0,0,0],"sum_hessian":[7.8E2,4.73E2,3.07E2,4.42E2,3.1E1,2.59E2,4.8E1,3.73E2,6.9E1,2E0,2.9E1,2.54E2,5E0,2.3E1,2.5E1,3.65E2,8E0,6.7E1,2E0,1.3E1,1.6E1,2.51E2,3E0,4E0,1E0,2.2E1,1E0,1.9E1,6E0],"tree_param":{"num_deleted":"0","num_feature":"72","num_nodes":"29","size_leaf_vector":"1"}},{"base_weights":[8.536956E-2,-1.5353149E0,2.264988E0,-2.1056762E0,7.6895766E0,6.3572197E0,2.4460886E-1,-2.397805E0,1.0520369E1,2.3553553E1,-3.0276763E0,5.630179E0,1.0467631E0,-2.335044E0,4.139469E0,-4.920473E-2,-2.167586E-1,1.4634748E0,-3.4286493E-1,1.4050173E0,-5.478593E-1,6.355048E-1,-2.402834E-1,3.5661224E-1,8.1035815E-2,9.864684E-2,-3.0728713E-1,3.0095527E-1,-3.381364E-1],"categories":[],"categories_nodes":[],"categories_segments":[],"categories_sizes":[],"default_left":[0,0,0,0,0,0,0,0,0,0,0,0,0,0,0,0,0,0,0,0,0,0,0,0,0,0,0,0,0],"id":25,"left_children":[1,3,5,7,9,11,13,15,17,19,21,23,-1,25,27,-1,-1,-1,-1,-1,-1,-1,-1,-1,-1,-1,-1,-1,-1],"loss_changes":[2.8329885E3,2.4364912E3,2.8260527E3,1.6260054E3,4.661805E3,1.0797983E3,2.3205647E3,1.1597556E3,3.4588704E3,2.0339453E3,5.367682E2,6.448904E2,0E0,2.2940068E3,1.9259851E3,0E0,0E0,0E0,0E0,0E0,0E0,0E0,0E0,0E0,0E0,0E0,0E0,0E0,0E0],"parents":[2147483647,0,0,1,1,2,2,3,3,4,4,5,5,6,6,7,7,8,8,9,9,10,10,11,11,13,13,14,14],"right_children":[2,4,6,8,10,12,14,16,18,20,22,24,-1,26,28,-1,-1,-1,-1,-1,-1,-1,-1,-1,-1,-1,-1,-1,-1],"split_conditions":[-3.3361587E-1,1.9708214E0,3.4101814E-1,2.3106506E0,-6.699957E-1,1.7001063E0,9.3294615E-1,-2.962068E-1,4.1619197E-1,5.0931525E0,2.1509967E0,1.7355731E-1,1.0467631E0,5.9354967E-1,3.0675468E0,-4.920473E-2,-2.167586E-1,1.4634748E0,-3.4286493E-1,1.4050173E0,-5.478593E-1,6.355048E-1,-2.402834E-1,3.5661224E-1,8.1035815E-2,9.864684E-2,-3.0728713E-1,3.0095527E-1,-3.381364E-1],"split_indices":[63,9,54,0,27,27,63,0,9,0,9,45,0,54,54,0,0,0,0,0,0,0,0,0,0,0,0,0,0],"split_type":[0,0,0,0,0,0,0,0,0,0,0,0,0,0,0,0,0,0,0,0,0,0,0,0,0,0,0,0,0],"sum_hessian":[8E2,4.59E2,3.41E2,4.33E2,2.6E1,1.12E2,2.29E2,4.24E2,9E0,1E1,1.6E1,1.08E2,4E0,1.38E2,9.1E1,2.46E2,1.78E2,4E0,5E0,9E0,1E0,1E0,1.5E1,7.8E1,3E1,6.5E1,7.3E1,7.8E1,1.3E1],"tree_param":{"num_deleted":"0","num_feature":"72","num_nodes":"29","size_leaf_vector":"1"}},{"base_weights":[3.4180537E-1,-3.7007663E-1,5.270083E0,3.0466187E-1,-4.5222416E0,7.9375715E0,-1.2584277E0,-1.047252E0,4.433905E0,-7.486611E0,4.3318246E-2,4.3090935E0,1.4561422E1,-5.0367755E-1,2.004273E0,-7.452311E-2,4.1341016E-1,1.8060206E-1,6.9839525E-1,-4.4821748E-1,2.1746421E-1,-3.6611542E-1,1.290848E-1,4.184467E-1,-5.571613E-1,9.6500266E-1,4.1072273E-1,-1.916564E-1,6.349433E-1],"categories":[],"categories_nodes":[],"categories_segments":[],"categories_sizes":[],"default_left":[0,0,0,0,0,0,0,0,0,0,0,0,0,0,0,0,0,0,0,0,0,0,0,0,0,0,0,0,0],"id":26,"left_children":[1,3,5,7,9,11,13,15,17,19,21,23,25,-1,27,-1,-1,-1,-1,-1,-1,-1,-1,-1,-1,-1,-1,-1,-1],"loss_changes":[2.6963647E3,1.8840702E3,1.6992175E3,3.2368423E3,1.2725208E3,1.5956343E3,8.542623E2,1.816567E3,1.0700454E3,1.035939E3,7.293802E2,2.9790186E3,5.632827E2,0E0,1.4221061E3,0E0,0E0,0E0,0E0,0E0,0E0,0E0,0E0,0E0,0E0,0E0,0E0,0E0,0E0],"parents":[2147483647,0,0,1,1,2,2,3,3,4,4,5,5,6,6,7,7,8,8,9,9,10,10,11,11,12,12,14,14],"right_children":[2,4,6,8,10,12,14,16,18,20,22,24,26,-1,28,-1,-1,-1,-1,-1,-1,-1,-1,-1,-1,-1,-1,-1,-1],"split_conditions":[1.242298E0,5.9354967E-1,1.7640852E0,-3.009187E-1,6.6054296E-1,1.0731655E0,1.4765317E0,2.2183757E0,1.1753986E0,9.149966E-1,1.5810217E-1,2.7255315E-1,1.5279827E0,-5.0367755E-1,9.422659E-1,-7.452311E-2,4.1341016E-1,1.8060206E-1,6.9839525E-1,-4.4821748E-1,2.1746421E-1,-3.6611542E-1,1.290848E-1,4.184467E-1,-5.571613E-1,9.6500266E-1,4.1072273E-1,-1.916564E-1,6.349433E-1],"split_indices":[63,54,54,63,36,54,63,0,27,63,63,36,54,0,45,0,0,0,0,0,0,0,0,0,0,0,0,0,0],"split_type":[0,0,0,0,0,0,0,0,0,0,0,0,0,0,0,0,0,0,0,0,0,0,0,0,0,0,0,0,0],"sum_hessian":[7.67E2,6.71E2,9.6E1,5.78E2,9.3E1,6.8E1,2.8E1,4.36E2,1.42E2,5.6E1,3.7E1,4.5E1,2.3E1,7E0,2.1E1,4.17E2,1.9E1,1.32E2,1E1,5E1,6E0,9E0,2.8E1,3.6E1,9E0,1.2E1,1.1E1,1.4E1,7E0],"tree_param":{"num_deleted":"0","num_feature":"72","num_nodes":"29","size_leaf_vector":"1"}},{"base_weights":[2.7349827E-1,-2.5705265E-2,1.1231271E1,-3.267041E-1,9.343955E0,2.396461E1,3.152844E0,-1.7853725E0,1.4823241E0,1.8450253E1,3.6376653E0,1.5621332E0,1.3349243E1,-1.6872085E0,1.5674778E1,-2.1329267E-2,-1.992126E-1,2.3983149E-1,-1.8720774E-2,2.1101843E-1,1.24309E0,5.254177E-1,-3.3486345E-1,1.00375436E-1,1.4679044E0,1.482776E-1,-3.9318156E-1,1.3966203E-1,9.518771E-1],"categories":[],"categories_nodes":[],"categories_segments":[],"categories_sizes":[],"default_left":[0,0,0,0,0,0,0,0,0,0,0,0,0,0,0,0,0,0,0,0,0,0,0,0,0,0,0,0,0],"id":27,"left_children":[1,3,5,7,9,11,13,15,17,19,21,-1,23,25,27,-1,-1,-1,-1,-1,-1,-1,-1,-1,-1,-1,-1,-1,-1],"loss_changes":[2.590386E3,2.1746504E3,2.0846152E3,1.9738096E3,1.18E3,2.0100781E2,8.749421E2,1.2352533E3,2.057166E3,7.1619434E2,1.2065068E3,0E0,8.4890375E2,3.394316E2,1.2009381E2,0E0,0E0,0E0,0E0,0E0,0E0,0E0,0E0,0E0,0E0,0E0,0E0,0E0,0E0],"parents":[2147483647,0,0,1,1,2,2,3,3,4,4,5,5,6,6,7,7,8,8,9,9,10,10,12,12,13,13,14,14],"right_children":[2,4,6,8,10,12,14,16,18,20,22,-1,24,26,28,-1,-1,-1,-1,-1,-1,-1,-1,-1,-1,-1,-1,-1,-1],"split_conditions":[2.398365E0,1.9708214E0,-6.699957E-1,-3.3361587E-1,-2.4257469E-1,1.9209968E-1,4.7808E-1,-8.9793876E-2,3.433359E-1,2.449418E0,3.1229296E0,1.5621332E0,3.7062707E0,3.7062707E0,2.5392706E0,-2.1329267E-2,-1.992126E-1,2.3983149E-1,-1.8720774E-2,2.1101843E-1,1.24309E0,5.254177E-1,-3.3486345E-1,1.00375436E-1,1.4679044E0,1.482776E-1,-3.9318156E-1,1.3966203E-1,9.518771E-1],"split_indices":[0,9,18,63,27,9,54,9,54,9,9,0,0,0,0,0,0,0,0,0,0,0,0,0,0,0,0,0,0],"split_type":[0,0,0,0,0,0,0,0,0,0,0,0,0,0,0,0,0,0,0,0,0,0,0,0,0,0,0,0,0],"sum_hessian":[7.89E2,7.69E2,2E1,7.46E2,2.3E1,7E0,1.3E1,4.13E2,3.33E2,8E0,1.5E1,3E0,4E0,1E1,3E0,2.56E2,1.57E2,1.19E2,2.14E2,3E0,5E0,9E0,6E0,3E0,1E0,6E0,4E0,1E0,2E0],"tree_param":{"num_deleted":"0","num_feature":"72","num_nodes":"29","size_leaf_vector":"1"}},{"base_weights":[3.2461908E-1,-5.596087E-1,3.0122724E0,2.3117809E-1,-6.130781E0,3.7705376E0,-8.739104E0,-8.1126314E-1,5.5142484E0,-7.492897E0,7.78244E0,-3.7958014E-1,5.7643304E0,-5.0510865E-1,-1.2825083E0,1.04026785E-2,-2.093641E-1,5.977809E-1,1.923664E-1,-3.9235982E-1,-1.2914939E-1,5.488881E-1,-2.8473717E-1,-3.7447834E-1,2.638875E-1,8.5393095E-1,1.6337402E-1,-2.0973349E-1,1.1354537E-1],"categories":[],"categories_nodes":[],"categories_segments":[],"categories_sizes":[],"default_left":[0,0,0,0,0,0,0,0,0,0,0,0,0,0,0,0,0,0,0,0,0,0,0,0,0,0,0,0,0],"id":28,"left_children":[1,3,5,7,9,11,13,15,17,19,21,23,25,-1,27,-1,-1,-1,-1,-1,-1,-1,-1,-1,-1,-1,-1,-1,-1],"loss_changes":[1.8529774E3,2.58751E3,1.7527083E3,2.840728E3,1.4417668E3,1.5081423E3,1.0901001E2,1.4840424E3,8.6666895E2,9.628247E1,3.6396298E2,2.4529407E3,3.4189565E3,0E0,4.057007E1,0E0,0E0,0E0,0E0,0E0,0E0,0E0,0E0,0E0,0E0,0E0,0E0,0E0,0E0],"parents":[2147483647,0,0,1,1,2,2,3,3,4,4,5,5,6,6,7,7,8,8,9,9,10,10,11,11,12,12,14,14],"right_children":[2,4,6,8,10,12,14,16,18,20,22,24,26,-1,28,-1,-1,-1,-1,-1,-1,-1,-1,-1,-1,-1,-1,-1,-1],"split_conditions":[4.763949E-1,4.400486E-1,3.0675468E0,-3.3361587E-1,1.6776681E0,-6.683944E-1,5.099166E0,-5.6725794E-1,1.19334675E-1,1.4109963E0,1.0611106E0,1.4638325E0,2.3330718E-1,-5.0510865E-1,-6.683944E-1,1.04026785E-2,-2.093641E-1,5.977809E-1,1.923664E-1,-3.9235982E-1,-1.2914939E-1,5.488881E-1,-2.8473717E-1,-3.7447834E-1,2.638875E-1,8.5393095E-1,1.6337402E-1,-2.0973349E-1,1.1354537E-1],"split_indices":[63,54,54,63,27,45,54,45,63,27,0,63,45,0,45,0,0,0,0,0,0,0,0,0,0,0,0,0,0],"split_type":[0,0,0,0,0,0,0,0,0,0,0,0,0,0,0,0,0,0,0,0,0,0,0,0,0,0,0,0,0],"sum_hessian":[7.78E2,5.86E2,1.92E2,5.14E2,7.2E1,1.81E2,1.1E1,4.3E2,8.4E1,6.6E1,6E0,5.9E1,1.22E2,9E0,2E0,3.31E2,9.9E1,1.6E1,6.8E1,6.1E1,5E0,5E0,1E0,2.6E1,3.3E1,2.1E1,1.01E2,1E0,1E0],"tree_param":{"num_deleted":"0","num_feature":"72","num_nodes":"29","size_leaf_vector":"1"}},{"base_weights":[2.6605633E-1,-1.0382037E0,2.1261344E0,4.4055083E-1,-3.6175938E0,4.737734E0,-3.4094793E-1,2.3242919E-1,1.0206064E0,-4.5388694E0,5.705465E-1,2.0468385E0,9.127056E0,-2.0892568E0,3.038963E0,-3.4300964E-2,2.084591E-1,-1.9454564E-1,-3.5777473E-1,1.3154493E-1,-5.334732E-1,4.8123908E-1,-9.809256E-4,7.5330216E-1,1.8226111E-1,-4.0048704E-1,-2.1600267E-2,1.2391738E-2,4.304088E-1],"categories":[],"categories_nodes":[],"categories_segments":[],"categories_sizes":[],"default_left":[0,0,0,0,0,0,0,0,0,0,0,0,0,0,0,0,0,0,0,0,0,0,0,0,0,0,0,0,0],"id":29,"left_children":[1,3,5,7,9,11,13,15,-1,17,19,21,23,25,27,-1,-1,-1,-1,-1,-1,-1,-1,-1,-1,-1,-1,-1,-1],"loss_changes":[1.889655E3,1.7485361E3,2.0698281E3,1.2089586E3,6.4694775E2,1.823867E3,9.872645E2,1.0514144E3,0E0,2.0443652E2,7.459801E2,1.5348191E3,1.8659165E3,1.0758303E3,8.838968E2,0E0,0E0,0E0,0E0,0E0,0E0,0E0,0E0,0E0,0E0,0E0,0E0,0E0,0E0],"parents":[2147483647,0,0,1,1,2,2,3,3,4,4,5,5,6,6,7,7,9,9,10,10,11,11,12,12,13,13,14,14],"right_children":[2,4,6,8,10,12,14,16,-1,18,20,22,24,26,28,-1,-1,-1,-1,-1,-1,-1,-1,-1,-1,-1,-1,-1,-1],"split_conditions":[-1.7053993E-1,-5.7293725E-1,3.405794E-1,7.987745E-1,1.9708214E0,-6.683944E-1,9.7216374E-1,6.897124E-1,1.0206064E0,1.5462375E0,3.1229296E0,3.4040588E-1,1.8815847E-1,2.5381282E-1,1.4114156E0,-3.4300964E-2,2.084591E-1,-1.9454564E-1,-3.5777473E-1,1.3154493E-1,-5.334732E-1,4.8123908E-1,-9.809256E-4,7.5330216E-1,1.8226111E-1,-4.0048704E-1,-2.1600267E-2,1.2391738E-2,4.304088E-1],"split_indices":[63,36,45,27,27,45,36,9,0,18,18,63,36,63,54,0,0,0,0,0,0,0,0,0,0,0,0,0,0],"split_type":[0,0,0,0,0,0,0,0,0,0,0,0,0,0,0,0,0,0,0,0,0,0,0,0,0,0,0,0,0],"sum_hessian":[7.77E2,4.57E2,3.2E2,2.91E2,1.66E2,1.55E2,1.65E2,2.89E2,2E0,1.36E2,3E1,9.7E1,5.8E1,1.09E2,5.6E1,2.35E2,5.4E1,1.11E2,2.5E1,2.6E1,4E0,2E1,7.7E1,2.7E1,3.1E1,2.3E1,8.6E1,3.8E1,1.8E1],"tree_param":{"num_deleted":"0","num_feature":"72","num_nodes":"29","size_leaf_vector":"1"}},{"base_weights":[9.084763E-2,-1.3730063E0,2.2247815E0,-1.8422271E0,5.3009205E0,6.236687E0,5.609925E-1,-2.2360926E0,5.3616962E0,1.5469735E1,-1.9356854E0,3.6313689E0,8.876337E0,-2.7081676E0,2.3464043E0,-3.963858E-2,-2.2357379E-1,1.5702342E0,6.929754E-2,9.139695E-1,-4.561532E-1,4.817073E-1,-2.3535815E-1,-3.962316E-3,5.310359E-1,7.9087347E-1,2.3235758E-1,1.5331434E-1,-2.9937515E-1,1.5453993E-1,-4.7468838E-1],"categories":[],"categories_nodes":[],"categories_segments":[],"categories_sizes":[],"default_left":[0,0,0,0,0,0,0,0,0,0,0,0,0,0,0,0,0,0,0,0,0,0,0,0,0,0,0,0,0,0,0],"id":30,"left_children":[1,3,5,7,9,11,13,15,17,19,21,23,25,27,29,-1,-1,-1,-1,-1,-1,-1,-1,-1,-1,-1,-1,-1,-1,-1,-1],"loss_changes":[2.4645835E3,1.4753286E3,2.1391648E3,1.2547601E3,2.3111633E3,6.142168E2,1.3371442E3,1.3386272E3,2.3379016E3,1.065029E3,6.545945E2,1.2716462E3,1.2768391E3,1.5522056E3,1.3337786E3,0E0,0E0,0E0,0E0,0E0,0E0,0E0,0E0,0E0,0E0,0E0,0E0,0E0,0E0,0E0,0E0],"parents":[2147483647,0,0,1,1,2,2,3,3,4,4,5,5,6,6,7,7,8,8,9,9,10,10,11,11,12,12,13,13,14,14],"right_children":[2,4,6,8,10,12,14,16,18,20,22,24,26,28,30,-1,-1,-1,-1,-1,-1,-1,-1,-1,-1,-1,-1,-1,-1,-1,-1],"split_conditions":[-8.797652E-2,1.9708214E0,2.7818504E-1,1.9708214E0,-6.699957E-1,-6.679256E-1,4.9382347E-1,-5.7293725E-1,-3.8930318E-1,5.0931525E0,2.140781E0,1.6657718E0,9.636934E-2,4.400486E-1,1.5983996E0,-3.963858E-2,-2.2357379E-1,1.5702342E0,6.929754E-2,9.139695E-1,-4.561532E-1,4.817073E-1,-2.3535815E-1,-3.962316E-3,5.310359E-1,7.9087347E-1,2.3235758E-1,1.5331434E-1,-2.9937515E-1,1.5453993E-1,-4.7468838E-1],"split_indices":[63,18,54,9,36,54,63,18,18,9,18,63,54,54,27,0,0,0,0,0,0,0,0,0,0,0,0,0,0,0,0],"split_type":[0,0,0,0,0,0,0,0,0,0,0,0,0,0,0,0,0,0,0,0,0,0,0,0,0,0,0,0,0,0,0],"sum_hessian":[7.87E2,4.67E2,3.2E2,4.37E2,3E1,9.3E1,2.27E2,4.15E2,2.2E1,1.2E1,1.8E1,4.8E1,4.5E1,8E1,1.47E2,2.53E2,1.62E2,2E0,2E1,1.1E1,1E0,3E0,1.5E1,3.2E1,1.6E1,1.6E1,2.9E1,2.9E1,5.1E1,1.39E2,8E0],"tree_param":{"num_deleted":"0","num_feature":"72","num_nodes":"31","size_leaf_vector":"1"}},{"base_weights":[-2.141211E-1,-1.4539709E0,1.4964005E0,-5.4605633E-1,-4.5356803E0,4.170968E0,-5.666693E-1,-7.5883025E-1,1.0231442E1,-4.093705E0,-7.619844E0,1.1644584E0,9.424571E0,-2.3144925E0,3.3533196E0,-5.701214E-2,2.8148147E-1,7.5294304E-1,-4.6832666E-1,-2.2655891E-1,5.3433454E-1,-2.4788335E-1,-4.7278714E-1,4.2084724E-1,-2.155703E-2,7.669725E-1,1.3461094E-1,-1.9051525E-1,6.105668E-2,2.7317733E-1,-2.683515E-1],"categories":[],"categories_nodes":[],"categories_segments":[],"categories_sizes":[],"default_left":[0,0,0,0,0,0,0,0,0,0,0,0,0,0,0,0,0,0,0,0,0,0,0,0,0,0,0,0,0,0,0],"id":31,"left_children":[1,3,5,7,9,11,13,15,17,19,21,23,25,27,29,-1,-1,-1,-1,-1,-1,-1,-1,-1,-1,-1,-1,-1,-1,-1,-1],"loss_changes":[1.6903246E3,1.2901665E3,1.850833E3,8.287191E2,1.11934326E2,2.2950964E3,1.3095364E3,8.6411584E2,8.033026E2,6.56229E2,1.1771545E1,1.0914023E3,2.0692183E3,7.027526E2,1.115036E3,0E0,0E0,0E0,0E0,0E0,0E0,0E0,0E0,0E0,0E0,0E0,0E0,0E0,0E0,0E0,0E0],"parents":[2147483647,0,0,1,1,2,2,3,3,4,4,5,5,6,6,7,7,8,8,9,9,10,10,11,11,12,12,13,13,14,14],"right_children":[2,4,6,8,10,12,14,16,18,20,22,24,26,28,30,-1,-1,-1,-1,-1,-1,-1,-1,-1,-1,-1,-1,-1,-1,-1,-1],"split_conditions":[-3.3361587E-1,-4.6439806E-1,2.9282385E-1,2.3650892E0,2.1509967E0,-6.683944E-1,9.7216374E-1,2.2183757E0,5.0931525E0,2.0566564E0,7.598361E-1,2.6316738E-1,1.8815847E-1,1.242298E0,1.3307568E0,-5.701214E-2,2.8148147E-1,7.5294304E-1,-4.6832666E-1,-2.2655891E-1,5.3433454E-1,-2.4788335E-1,-4.7278714E-1,4.2084724E-1,-2.155703E-2,7.669725E-1,1.3461094E-1,-1.9051525E-1,6.105668E-2,2.7317733E-1,-2.683515E-1],"split_indices":[63,45,45,27,27,45,36,9,18,27,18,63,36,63,9,0,0,0,0,0,0,0,0,0,0,0,0,0,0,0,0],"split_type":[0,0,0,0,0,0,0,0,0,0,0,0,0,0,0,0,0,0,0,0,0,0,0,0,0,0,0,0,0,0,0],"sum_hessian":[7.95E2,4.61E2,3.34E2,3.57E2,1.04E2,1.45E2,1.89E2,3.51E2,6E0,9.3E1,1.1E1,9.3E1,5.2E1,1.31E2,5.8E1,3.32E2,1.9E1,5E0,1E0,9.1E1,2E0,6E0,5E0,1.6E1,7.7E1,2.7E1,2.5E1,9.2E1,3.9E1,4.7E1,1.1E1],"tree_param":{"num_deleted":"0","num_feature":"72","num_nodes":"31","size_leaf_vector":"1"}},{"base_weights":[3.9848325E-1,-7.2900635E-1,1.9922537E0,-1.2102245E0,6.272958E0,3.0421915E0,-3.7700002E0,-1.5690217E0,5.2851424E0,1.4876245E0,3.5332594E0,2.7930562E0,1.9409693E1,-5.394131E0,7.209414E0,-5.702585E-2,-2.8838363E-1,1.0044887E0,-1.22374736E-1,2.70678E-1,-4.5509663E-1,1.6430336E-1,-2.2143021E-1,1.1555463E0,2.0764975E-1,-4.378495E-1,-1.04337804E-1,7.01748E-1,-3.284817E-1],"categories":[],"categories_nodes":[],"categories_segments":[],"categories_sizes":[],"default_left":[0,0,0,0,0,0,0,0,0,0,0,0,0,0,0,0,0,0,0,0,0,0,0,0,0,0,0,0,0],"id":32,"left_children":[1,3,5,7,9,11,13,15,17,-1,19,21,23,25,27,-1,-1,-1,-1,-1,-1,-1,-1,-1,-1,-1,-1,-1,-1],"loss_changes":[1.4228474E3,1.5710269E3,1.9958715E3,1.02206836E3,1.8246815E3,1.0793943E3,9.48321E2,7.3646735E2,2.682183E3,0E0,7.144966E2,9.936511E2,1.298949E2,4.822268E2,7.505512E2,0E0,0E0,0E0,0E0,0E0,0E0,0E0,0E0,0E0,0E0,0E0,0E0,0E0,0E0],"parents":[2147483647,0,0,1,1,2,2,3,3,4,4,5,5,6,6,7,7,8,8,10,10,11,11,12,12,13,13,14,14],"right_children":[2,4,6,8,10,12,14,16,18,-1,20,22,24,26,28,-1,-1,-1,-1,-1,-1,-1,-1,-1,-1,-1,-1,-1,-1],"split_conditions":[-3.009187E-1,1.9708214E0,1.7640852E0,1.9708214E0,-3.8930318E-1,2.3650892E0,1.4109963E0,1.0880977E0,-6.699957E-1,1.4876245E0,3.4996586E0,1.9435599E0,2.6748345E0,1.4765317E0,1.5151176E0,-5.702585E-2,-2.8838363E-1,1.0044887E0,-1.22374736E-1,2.70678E-1,-4.5509663E-1,1.6430336E-1,-2.2143021E-1,1.1555463E0,2.0764975E-1,-4.378495E-1,-1.04337804E-1,7.01748E-1,-3.284817E-1],"split_indices":[63,18,54,0,27,0,36,18,18,0,9,63,0,63,18,0,0,0,0,0,0,0,0,0,0,0,0,0,0],"split_type":[0,0,0,0,0,0,0,0,0,0,0,0,0,0,0,0,0,0,0,0,0,0,0,0,0,0,0,0,0],"sum_hessian":[7.9E2,4.63E2,3.27E2,4.34E2,2.9E1,2.77E2,5E1,4.12E2,2.2E1,2E0,2.7E1,2.74E2,3E0,4.4E1,6E0,3.75E2,3.7E1,7E0,1.5E1,2.4E1,3E0,2.57E2,1.7E1,2E0,1E0,2.1E1,2.3E1,4E0,2E0],"tree_param":{"num_deleted":"0","num_feature":"72","num_nodes":"29","size_leaf_vector":"1"}},{"base_weights":[-2.9760817E-1,-6.511893E-1,7.635522E0,-1.9529823E0,1.0051107E0,1.9057743E1,1.3441231E0,-2.3034813E0,2.5986671E0,4.815781E0,-7.4785966E-1,5.5942416E0,1.2545108E0,-1.5163031E0,1.1944918E1,-6.4341016E-2,-1.7929177E-1,4.3335435E-1,-8.450907E-2,3.083747E-1,6.7327864E-2,-1.15226224E-1,1.1976993E-1,6.1405785E-2,4.04781E-1,2.6812944E-1,-2.178046E-1,1.8227343E-1,8.131364E-1],"categories":[],"categories_nodes":[],"categories_segments":[],"categories_sizes":[],"default_left":[0,0,0,0,0,0,0,0,0,0,0,0,0,0,0,0,0,0,0,0,0,0,0,0,0,0,0,0,0],"id":33,"left_children":[1,3,5,7,9,11,13,15,17,19,21,23,-1,25,27,-1,-1,-1,-1,-1,-1,-1,-1,-1,-1,-1,-1,-1,-1],"loss_changes":[2.2349512E3,1.6449568E3,2.417683E3,6.872002E2,2.248079E3,8.342573E2,7.155363E2,5.1296216E2,8.214713E2,4.8877075E2,1.1358031E3,4.466432E1,0E0,3.9451733E2,1.1989203E2,0E0,0E0,0E0,0E0,0E0,0E0,0E0,0E0,0E0,0E0,0E0,0E0,0E0,0E0],"parents":[2147483647,0,0,1,1,2,2,3,3,4,4,5,5,6,6,7,7,8,8,9,9,10,10,11,11,13,13,14,14],"right_children":[2,4,6,8,10,12,14,16,18,20,22,24,-1,26,28,-1,-1,-1,-1,-1,-1,-1,-1,-1,-1,-1,-1,-1,-1],"split_conditions":[1.9708214E0,-3.3361587E-1,-6.699957E-1,1.9012657E0,3.4101814E-1,2.246059E0,6.629395E-1,-6.699957E-1,-5.3403E-1,7.483901E-1,1.242298E0,-6.686262E-1,1.2545108E0,2.325444E0,2.5392706E0,-6.4341016E-2,-1.7929177E-1,4.3335435E-1,-8.450907E-2,3.083747E-1,6.7327864E-2,-1.15226224E-1,1.1976993E-1,6.1405785E-2,4.04781E-1,2.6812944E-1,-2.178046E-1,1.8227343E-1,8.131364E-1],"split_indices":[0,63,18,18,54,0,63,9,36,63,63,63,0,0,0,0,0,0,0,0,0,0,0,0,0,0,0,0,0],"split_type":[0,0,0,0,0,0,0,0,0,0,0,0,0,0,0,0,0,0,0,0,0,0,0,0,0,0,0,0,0],"sum_hessian":[7.94E2,7.61E2,3.3E1,4.26E2,3.35E2,1.1E1,2.2E1,3.96E2,3E1,1.05E2,2.3E2,4E0,7E0,1.8E1,4E0,2.22E2,1.74E2,1.2E1,1.8E1,7.5E1,3E1,1.54E2,7.6E1,2E0,2E0,5E0,1.3E1,2E0,2E0],"tree_param":{"num_deleted":"0","num_feature":"72","num_nodes":"29","size_leaf_vector":"1"}},{"base_weights":[1.03842214E-1,-9.780758E-2,6.017494E0,5.069418E-1,-1.467121E0,2.0967218E1,-5.9383667E-1,-3.211603E-1,4.785994E0,-2.7664464E0,1.8821683E0,-6.700569E-2,1.2172712E0,-2.2690158E0,3.1276697E-1,-2.5415266E-2,2.5387752E-1,5.273769E-1,1.1258974E-1,-1.6588925E-1,2.3616925E-1,-9.7170666E-2,3.132032E-1,3.6415967E-1,-2.0769227E-1],"categories":[],"categories_nodes":[],"categories_segments":[],"categories_sizes":[],"default_left":[0,0,0,0,0,0,0,0,0,0,0,0,0,0,0,0,0,0,0,0,0,0,0,0,0],"id":34,"left_children":[1,3,5,7,9,11,13,15,17,19,21,-1,-1,23,-1,-1,-1,-1,-1,-1,-1,-1,-1,-1,-1],"loss_changes":[9.4026807E2,6.3257745E2,2.5822278E3,1.8795876E3,1.023532E3,6.354956E2,2.321918E2,4.52183E2,1.2319265E3,7.135458E2,1.1185514E3,0E0,0E0,3.1832178E2,0E0,0E0,0E0,0E0,0E0,0E0,0E0,0E0,0E0,0E0,0E0],"parents":[2147483647,0,0,1,1,2,2,3,3,4,4,5,5,6,6,7,7,8,8,9,9,10,10,13,13],"right_children":[2,4,6,8,10,12,14,16,18,20,22,-1,-1,24,-1,-1,-1,-1,-1,-1,-1,-1,-1,-1,-1],"split_conditions":[2.3106506E0,3.405743E-1,-6.699957E-1,-1.8705969E-1,1.3264319E0,2.3650892E0,5.226696E-1,1.6628134E0,8.928427E-2,1.9708214E0,1.383045E0,-6.700569E-2,1.2172712E0,2.325444E0,3.1276697E-1,-2.5415266E-2,2.5387752E-1,5.273769E-1,1.1258974E-1,-1.6588925E-1,2.3616925E-1,-9.7170666E-2,3.132032E-1,3.6415967E-1,-2.0769227E-1],"split_indices":[0,36,18,36,45,0,54,18,36,18,54,0,0,0,0,0,0,0,0,0,0,0,0,0,0],"split_type":[0,0,0,0,0,0,0,0,0,0,0,0,0,0,0,0,0,0,0,0,0,0,0,0,0],"sum_hessian":[7.87E2,7.62E2,2.5E1,5.29E2,2.33E2,7E0,1.8E1,4.44E2,8.5E1,1.68E2,6.5E1,1E0,6E0,1.5E1,3E0,4.3E2,1.4E1,2.5E1,6E1,1.57E2,1.1E1,3.5E1,3E1,2E0,1.3E1],"tree_param":{"num_deleted":"0","num_feature":"72","num_nodes":"25","size_leaf_vector":"1"}},{"base_weights":[2.6991691E-2,-4.9137455E-1,3.8743804E0,3.0097964E-1,-2.5530002E0,4.842011E0,-9.258301E0,-6.1942774E-1,5.0966635E0,-2.9097488E0,7.698741E0,2.6374903E0,9.969856E0,-5.2171606E-1,-5.5054426E-2,-5.7166617E-2,3.147907E-1,6.521226E-1,5.520272E-2,-1.8037842E-1,-3.2522507E-2,-8.103099E-2,7.546708E-1,2.631062E-1,-1.9969194E-1,4.648347E-3,7.451568E-1],"categories":[],"categories_nodes":[],"categories_segments":[],"categories_sizes":[],"default_left":[0,0,0,0,0,0,0,0,0,0,0,0,0,0,0,0,0,0,0,0,0,0,0,0,0,0,0],"id":35,"left_children":[1,3,5,7,9,11,13,15,17,19,21,23,25,-1,-1,-1,-1,-1,-1,-1,-1,-1,-1,-1,-1,-1,-1],"loss_changes":[1.6292986E3,1.1769156E3,1.2774646E3,2.3028423E3,7.5385974E2,1.0024087E3,5.5662292E1,1.5940402E3,2.6504526E3,3.0351038E2,5.068562E2,1.1523284E3,1.3142021E3,0E0,0E0,0E0,0E0,0E0,0E0,0E0,0E0,0E0,0E0,0E0,0E0,0E0,0E0],"parents":[2147483647,0,0,1,1,2,2,3,3,4,4,5,5,6,6,7,7,8,8,9,9,10,10,11,11,12,12],"right_children":[2,4,6,8,10,12,14,16,18,20,22,24,26,-1,-1,-1,-1,-1,-1,-1,-1,-1,-1,-1,-1,-1,-1],"split_conditions":[1.242298E0,3.405794E-1,1.5983996E0,-1.18227735E-1,2.398365E0,9.477467E-1,2.7575629E0,1.9012657E0,1.7143781E-1,1.6626018E0,-6.686262E-1,2.7255315E-1,1.382524E0,-5.2171606E-1,-5.5054426E-2,-5.7166617E-2,3.147907E-1,6.521226E-1,5.520272E-2,-1.8037842E-1,-3.2522507E-2,-8.103099E-2,7.546708E-1,2.631062E-1,-1.9969194E-1,4.648347E-3,7.451568E-1],"split_indices":[63,45,27,45,27,45,27,9,36,36,63,36,63,0,0,0,0,0,0,0,0,0,0,0,0,0,0],"split_type":[0,0,0,0,0,0,0,0,0,0,0,0,0,0,0,0,0,0,0,0,0,0,0,0,0,0,0],"sum_hessian":[8.15E2,7.19E2,9.6E1,5.2E2,1.99E2,9E1,6E0,4.37E2,8.3E1,1.93E2,6E0,6.4E1,2.6E1,5E0,1E0,4.07E2,3E1,2.7E1,5.6E1,1.47E2,4.6E1,3E0,3E0,4.6E1,1.8E1,9E0,1.7E1],"tree_param":{"num_deleted":"0","num_feature":"72","num_nodes":"27","size_leaf_vector":"1"}},{"base_weights":[-6.888311E-2,-5.9640217E-1,4.5543637E0,-1.8482749E-1,-5.524254E0,9.63831E0,5.871356E-1,-1.2469878E0,2.133046E0,-8.057446E0,-1.02346735E-2,4.049178E0,1.2378328E1,4.0312133E0,-5.525186E0,-7.9365715E-2,1.9390675E-1,7.848518E-2,7.08219E-1,-4.3186685E-1,3.204656E-1,2.8124878E-1,-3.1352207E-1,5.422731E-1,-4.4969842E-1,8.590256E-1,3.6813816E-1,-2.971825E-2,4.6800217E-1,-4.5626593E-1,4.2282876E-1],"categories":[],"categories_nodes":[],"categories_segments":[],"categories_sizes":[],"default_left":[0,0,0,0,0,0,0,0,0,0,0,0,0,0,0,0,0,0,0,0,0,0,0,0,0,0,0,0,0,0,0],"id":36,"left_children":[1,3,5,7,9,11,13,15,17,19,21,23,25,27,29,-1,-1,-1,-1,-1,-1,-1,-1,-1,-1,-1,-1,-1,-1,-1,-1],"loss_changes":[1.9050201E3,1.4207324E3,1.6078749E3,1.5980054E3,7.541935E2,4.858794E2,9.9063354E2,7.823313E2,1.3604283E3,3.6575732E2,6.702675E2,1.2499277E3,4.274746E2,7.4503094E2,9.328843E2,0E0,0E0,0E0,0E0,0E0,0E0,0E0,0E0,0E0,0E0,0E0,0E0,0E0,0E0,0E0,0E0],"parents":[2147483647,0,0,1,1,2,2,3,3,4,4,5,5,6,6,7,7,8,8,9,9,10,10,11,11,12,12,13,13,14,14],"right_children":[2,4,6,8,10,12,14,16,18,20,22,24,26,28,30,-1,-1,-1,-1,-1,-1,-1,-1,-1,-1,-1,-1,-1,-1,-1,-1],"split_conditions":[1.382524E0,1.279375E0,1.7570014E0,-3.009187E-1,9.149966E-1,1.0731655E0,-2.5950676E-2,1.9708214E0,1.7001063E0,5.0931525E0,1.7574896E0,1.7143781E-1,1.6020219E0,2.5431173E0,1.4108045E0,-7.9365715E-2,1.9390675E-1,7.848518E-2,7.08219E-1,-4.3186685E-1,3.204656E-1,2.8124878E-1,-3.1352207E-1,5.422731E-1,-4.4969842E-1,8.590256E-1,3.6813816E-1,-2.971825E-2,4.6800217E-1,-4.5626593E-1,4.2282876E-1],"split_indices":[63,54,63,63,63,54,27,9,27,36,54,27,54,63,45,0,0,0,0,0,0,0,0,0,0,0,0,0,0,0,0],"split_type":[0,0,0,0,0,0,0,0,0,0,0,0,0,0,0,0,0,0,0,0,0,0,0,0,0,0,0,0,0,0,0],"sum_hessian":[7.79E2,7E2,7.9E1,6.47E2,5.3E1,3.4E1,4.5E1,4.44E2,2.03E2,3.6E1,1.7E1,1.2E1,2.2E1,2.9E1,1.6E1,4.17E2,2.7E1,1.95E2,8E0,3.5E1,1E0,9E0,8E0,8E0,4E0,1E1,1.2E1,1.6E1,1.3E1,1.3E1,3E0],"tree_param":{"num_deleted":"0","num_feature":"72","num_nodes":"31","size_leaf_vector":"1"}},{"base_weights":[2.286616E-2,-4.776066E-1,3.3382783E0,8.7297216E-2,-4.439517E0,5.74341E0,-2.7858272E0,-9.316467E-1,3.0707805E0,-7.0292206E0,-9.833329E-1,7.0415654E0,-1.0358972E1,-5.6859126E0,9.762166E0,4.8060273E-3,-1.4474854E-1,1.8253016E-1,-2.8218648E-1,-1.4290087E-1,-3.5729548E-1,1.14733614E-1,-3.7318513E-1,5.750603E-1,2.0724665E-1,-5.958388E-1,-6.42488E-2,-3.620927E-1,4.0691385E-1,1.2118051E0,1.0100796E-1],"categories":[],"categories_nodes":[],"categories_segments":[],"categories_sizes":[],"default_left":[0,0,0,0,0,0,0,0,0,0,0,0,0,0,0,0,0,0,0,0,0,0,0,0,0,0,0,0,0,0,0],"id":37,"left_children":[1,3,5,7,9,11,13,15,17,19,21,23,25,27,29,-1,-1,-1,-1,-1,-1,-1,-1,-1,-1,-1,-1,-1,-1,-1,-1],"loss_changes":[1.315739E3,1.5424371E3,1.5478452E3,1.8390221E3,7.628303E2,1.6406982E3,1.1472144E3,9.103243E2,7.9874536E2,3.427002E0,8.243487E2,8.565842E2,6.9500244E1,5.96677E2,6.233831E2,0E0,0E0,0E0,0E0,0E0,0E0,0E0,0E0,0E0,0E0,0E0,0E0,0E0,0E0,0E0,0E0],"parents":[2147483647,0,0,1,1,2,2,3,3,4,4,5,5,6,6,7,7,8,8,9,9,10,10,11,11,12,12,13,13,14,14],"right_children":[2,4,6,8,10,12,14,16,18,20,22,24,26,28,30,-1,-1,-1,-1,-1,-1,-1,-1,-1,-1,-1,-1,-1,-1,-1,-1],"split_conditions":[1.242298E0,5.9354967E-1,1.8317367E0,-3.009187E-1,6.6054296E-1,1.5151176E0,2.4531953E0,-3.8930318E-1,9.149966E-1,-6.686262E-1,1.0692353E0,1.6015201E0,1.9292637E0,5.8618444E-1,3.0675468E0,4.8060273E-3,-1.4474854E-1,1.8253016E-1,-2.8218648E-1,-1.4290087E-1,-3.5729548E-1,1.14733614E-1,-3.7318513E-1,5.750603E-1,2.0724665E-1,-5.958388E-1,-6.42488E-2,-3.620927E-1,4.0691385E-1,1.2118051E0,1.0100796E-1],"split_indices":[63,54,54,63,36,36,63,36,63,63,18,63,27,9,54,0,0,0,0,0,0,0,0,0,0,0,0,0,0,0,0],"split_type":[0,0,0,0,0,0,0,0,0,0,0,0,0,0,0,0,0,0,0,0,0,0,0,0,0,0,0,0,0,0,0],"sum_hessian":[7.91E2,6.88E2,1.03E2,6.03E2,8.5E1,7.4E1,2.9E1,4.5E2,1.53E2,4.8E1,3.7E1,6.9E1,5E0,2.4E1,5E0,2.96E2,1.54E2,1.44E2,9E0,2E0,4.6E1,2.5E1,1.2E1,2.6E1,4.3E1,4E0,1E0,2.2E1,2E0,1E0,4E0],"tree_param":{"num_deleted":"0","num_feature":"72","num_nodes":"31","size_leaf_vector":"1"}},{"base_weights":[2.8682366E-1,-7.364921E-1,1.8192624E0,-1.0244551E0,4.929587E0,1.610441E0,1.4444106E1,-2.486595E-1,-3.1558206E0,1.1104962E0,2.2262256E0,9.187971E-1,4.676384E0,1.0352056E0,1.6846997E-1,-2.887046E-4,-5.027218E-1,-1.4603572E-1,-4.62186E-1,1.3803065E-2,6.917595E-1,1.0710267E-1,-8.919259E-2,3.7979746E-1,-1.568246E-2],"categories":[],"categories_nodes":[],"categories_segments":[],"categories_sizes":[],"default_left":[0,0,0,0,0,0,0,0,0,0,0,0,0,0,0,0,0,0,0,0,0,0,0,0,0],"id":38,"left_children":[1,3,5,7,9,11,13,15,17,-1,19,21,23,-1,-1,-1,-1,-1,-1,-1,-1,-1,-1,-1,-1],"loss_changes":[1.2339205E3,7.7517523E2,8.0718506E2,7.432919E2,1.0250005E3,6.5519147E2,2.768783E2,7.882781E2,1.4475806E2,0E0,4.716078E2,8.4685925E2,8.3280005E2,0E0,0E0,0E0,0E0,0E0,0E0,0E0,0E0,0E0,0E0,0E0,0E0],"parents":[2147483647,0,0,1,1,2,2,3,3,4,4,5,5,6,6,7,7,8,8,10,10,11,11,12,12],"right_children":[2,4,6,8,10,12,14,16,18,-1,20,22,24,-1,-1,-1,-1,-1,-1,-1,-1,-1,-1,-1,-1],"split_conditions":[-1.7053993E-1,2.2183757E0,2.3650892E0,-1.5854193E-1,-3.8930318E-1,6.2006223E-1,-2.962068E-1,3.4996586E0,2.1509967E0,1.1104962E0,-6.686262E-1,2.8776985E-1,1.6101354E0,1.0352056E0,1.6846997E-1,-2.887046E-4,-5.027218E-1,-1.4603572E-1,-4.62186E-1,1.3803065E-2,6.917595E-1,1.0710267E-1,-8.919259E-2,3.7979746E-1,-1.568246E-2],"split_indices":[63,27,0,36,36,27,36,0,27,0,63,36,36,0,0,0,0,0,0,0,0,0,0,0,0],"split_type":[0,0,0,0,0,0,0,0,0,0,0,0,0,0,0,0,0,0,0,0,0,0,0,0,0],"sum_hessian":[7.85E2,4.71E2,3.14E2,4.49E2,2.2E1,3.1E2,4E0,3.3E2,1.19E2,2E0,2E1,2.54E2,5.6E1,2E0,2E0,3.23E2,7E0,1.16E2,3E0,1.8E1,2E0,1.75E2,7.9E1,3.5E1,2.1E1],"tree_param":{"num_deleted":"0","num_feature":"72","num_nodes":"25","size_leaf_vector":"1"}},{"base_weights":[6.6521764E-2,-7.197198E-1,2.8741143E0,-1.0877568E0,7.775118E0,4.8450584E0,-3.0126746E0,-6.31996E-1,-5.971314E0,1.3822263E1,-2.0731115E0,5.947739E0,-1.7951555E0,-5.107191E0,1.0056536E1,-6.745102E-2,9.226974E-2,-3.2253474E-1,4.0200472E-1,1.408776E0,4.723361E-1,2.8577054E-1,-5.502358E-1,3.4073487E-1,-1.9803368E-1,-2.571319E-1,5.603346E-1,-3.3755273E-1,3.2174864E-1,8.3675736E-1,-1.10023014E-1],"categories":[],"categories_nodes":[],"categories_segments":[],"categories_sizes":[],"default_left":[0,0,0,0,0,0,0,0,0,0,0,0,0,0,0,0,0,0,0,0,0,0,0,0,0,0,0,0,0,0,0],"id":39,"left_children":[1,3,5,7,9,11,13,15,17,19,21,23,25,27,29,-1,-1,-1,-1,-1,-1,-1,-1,-1,-1,-1,-1,-1,-1,-1,-1],"loss_changes":[1.6245415E3,1.8061455E3,1.882604E3,1.2248313E3,1.4579432E3,8.9664355E2,1.1736813E3,9.0132227E2,3.675536E2,6.758828E2,7.5853656E2,9.203699E2,8.4105414E2,7.264974E2,5.2798346E2,0E0,0E0,0E0,0E0,0E0,0E0,0E0,0E0,0E0,0E0,0E0,0E0,0E0,0E0,0E0,0E0],"parents":[2147483647,0,0,1,1,2,2,3,3,4,4,5,5,6,6,7,7,8,8,9,9,10,10,11,11,12,12,13,13,14,14],"right_children":[2,4,6,8,10,12,14,16,18,20,22,24,26,28,30,-1,-1,-1,-1,-1,-1,-1,-1,-1,-1,-1,-1,-1,-1,-1,-1],"split_conditions":[5.7730347E-1,2.2183757E0,1.7640852E0,5.9354967E-1,3.318276E0,2.0601306E0,2.401856E0,-3.3361587E-1,1.730009E0,-3.8930318E-1,6.1487377E-1,1.5151176E0,1.0180013E0,4.904988E-1,2.7619784E0,-6.745102E-2,9.226974E-2,-3.2253474E-1,4.0200472E-1,1.408776E0,4.723361E-1,2.8577054E-1,-5.502358E-1,3.4073487E-1,-1.9803368E-1,-2.571319E-1,5.603346E-1,-3.3755273E-1,3.2174864E-1,8.3675736E-1,-1.10023014E-1],"split_indices":[63,18,54,54,18,63,45,63,27,27,9,27,0,27,54,0,0,0,0,0,0,0,0,0,0,0,0,0,0,0,0],"split_type":[0,0,0,0,0,0,0,0,0,0,0,0,0,0,0,0,0,0,0,0,0,0,0,0,0,0,0,0,0,0,0],"sum_hessian":[7.34E2,5.74E2,1.6E2,5.51E2,2.3E1,1.2E2,4E1,5.05E2,4.6E1,1.4E1,9E0,1.03E2,1.7E1,3.5E1,5E0,3.92E2,1.13E2,4.5E1,1E0,2E0,1.2E1,5E0,4E0,9.5E1,8E0,1.4E1,3E0,3.1E1,4E0,3E0,2E0],"tree_param":{"num_deleted":"0","num_feature":"72","num_nodes":"31","size_leaf_vector":"1"}},{"base_weights":[-2.6592296E-1,-5.0237036E-1,1.1952491E1,-7.1888435E-1,6.0131445E0,1.875896E1,-1.3837081E0,-1.84258E0,6.5627885E-1,1.7440151E1,1.486713E0,1.3379768E0,1.1507354E1,-5.33796E-1,2.6099184E0,-7.694063E-2,-3.8673338E-1,2.8232457E-3,1.9049053E-1,1.40655E0,3.7688062E-1,2.525905E-1,-3.5398158E-1,-1.16852425E-1,1.1237459E0,-2.411917E-1,2.8371575E-1],"categories":[],"categories_nodes":[],"categories_segments":[],"categories_sizes":[],"default_left":[0,0,0,0,0,0,0,0,0,0,0,0,0,0,0,0,0,0,0,0,0,0,0,0,0,0,0],"id":40,"left_children":[1,3,5,7,9,11,13,15,17,19,21,-1,23,-1,25,-1,-1,-1,-1,-1,-1,-1,-1,-1,-1,-1,-1],"loss_changes":[2.2825464E3,1.0962047E3,1.3875435E3,1.1601578E3,1.2671605E3,2.7223877E2,2.5052106E2,7.2729504E2,6.391228E2,5.290254E2,6.160221E2,0E0,1.1154006E3,0E0,1.4127176E2,0E0,0E0,0E0,0E0,0E0,0E0,0E0,0E0,0E0,0E0,0E0,0E0],"parents":[2147483647,0,0,1,1,2,2,3,3,4,4,5,5,6,6,7,7,8,8,9,9,10,10,12,12,14,14],"right_children":[2,4,6,8,10,12,14,16,18,20,22,-1,24,-1,26,-1,-1,-1,-1,-1,-1,-1,-1,-1,-1,-1,-1],"split_conditions":[2.398365E0,1.9708214E0,4.9423277E-1,-3.009187E-1,-2.4257469E-1,1.9209968E-1,5.023169E-1,1.5462375E0,4.9188712E-1,-6.699957E-1,3.4996586E0,1.3379768E0,1.9292637E0,-5.33796E-1,2.7575629E0,-7.694063E-2,-3.8673338E-1,2.8232457E-3,1.9049053E-1,1.40655E0,3.7688062E-1,2.525905E-1,-3.5398158E-1,-1.16852425E-1,1.1237459E0,-2.411917E-1,2.8371575E-1],"split_indices":[0,9,18,63,27,9,18,9,18,0,9,0,9,0,0,0,0,0,0,0,0,0,0,0,0,0,0],"split_type":[0,0,0,0,0,0,0,0,0,0,0,0,0,0,0,0,0,0,0,0,0,0,0,0,0,0,0],"sum_hessian":[7.87E2,7.73E2,1.4E1,7.49E2,2.4E1,9E0,5E0,4.12E2,3.37E2,6E0,1.8E1,3E0,6E0,1E0,4E0,3.93E2,1.9E1,2.84E2,5.3E1,2E0,4E0,1.3E1,5E0,3E0,3E0,1E0,3E0],"tree_param":{"num_deleted":"0","num_feature":"72","num_nodes":"27","size_leaf_vector":"1"}},{"base_weights":[2.0554744E-1,-9.814372E-1,1.8183782E0,-8.156185E-1,-5.7268137E-1,2.7431364E0,-2.3652632E0,-1.1120538E0,1.3767394E1,4.3524823E0,9.78897E-1,-5.520712E0,1.5508267E0,-6.0920776E-3,-1.2071617E-1,1.0775039E0,-4.4906664E-1,7.927408E-2,4.023033E-1,-3.121753E-2,5.273431E-1,-3.3882737E-1,1.5592216E-1,4.8712617E-1,-8.218342E-2],"categories":[],"categories_nodes":[],"categories_segments":[],"categories_sizes":[],"default_left":[0,0,0,0,0,0,0,0,0,0,0,0,0,0,0,0,0,0,0,0,0,0,0,0,0],"id":41,"left_children":[1,3,5,7,-1,9,11,13,15,17,19,21,23,-1,-1,-1,-1,-1,-1,-1,-1,-1,-1,-1,-1],"loss_changes":[1.5084216E3,7.790222E2,1.2986863E3,1.9519778E3,0E0,7.7369995E2,7.6233997E2,5.6709607E2,1.7869641E3,1.4487241E3,2.0314407E3,3.900105E2,7.487268E2,0E0,0E0,0E0,0E0,0E0,0E0,0E0,0E0,0E0,0E0,0E0,0E0],"parents":[2147483647,0,0,1,1,2,2,3,3,5,5,6,6,7,7,8,8,9,9,10,10,11,11,12,12],"right_children":[2,4,6,8,-1,10,12,14,16,18,20,22,24,-1,-1,-1,-1,-1,-1,-1,-1,-1,-1,-1,-1],"split_conditions":[-1.7053993E-1,3.1229296E0,1.6020219E0,2.3106506E0,-5.7268137E-1,3.4556973E-1,1.4971697E0,-5.7293725E-1,-2.4257469E-1,-6.683944E-1,1.383045E0,1.2419868E0,1.7570014E0,-6.0920776E-3,-1.2071617E-1,1.0775039E0,-4.4906664E-1,7.927408E-2,4.023033E-1,-3.121753E-2,5.273431E-1,-3.3882737E-1,1.5592216E-1,4.8712617E-1,-8.218342E-2],"split_indices":[63,9,54,9,0,45,63,18,36,45,54,36,63,0,0,0,0,0,0,0,0,0,0,0,0],"split_type":[0,0,0,0,0,0,0,0,0,0,0,0,0,0,0,0,0,0,0,0,0,0,0,0,0],"sum_hessian":[7.86E2,4.53E2,3.33E2,4.47E2,6E0,2.73E2,6E1,4.39E2,8E0,1.42E2,1.31E2,3.3E1,2.7E1,2.5E2,1.89E2,6E0,2E0,8.2E1,6E1,1.13E2,1.8E1,2.9E1,4E0,7E0,2E1],"tree_param":{"num_deleted":"0","num_feature":"72","num_nodes":"25","size_leaf_vector":"1"}},{"base_weights":[5.565011E-1,4.0422115E-1,6.658481E0,2.3323464E-1,5.673712E0,1.6144312E1,1.0385354E0,9.522104E-2,5.480004E0,1.878698E1,-8.3098555E-1,1.256684E0,7.52183E0,-3.1957598E0,5.68232E-1,-3.6688387E-2,6.1823357E-2,6.329852E-1,-4.4623874E-2,-7.7463485E-2,1.0956742E0,7.3594904E-1,-2.6072386E-1,-4.008077E-1,6.705182E-1,1.0929842E-1,-3.5739535E-1],"categories":[],"categories_nodes":[],"categories_segments":[],"categories_sizes":[],"default_left":[0,0,0,0,0,0,0,0,0,0,0,0,0,0,0,0,0,0,0,0,0,0,0,0,0,0,0],"id":42,"left_children":[1,3,5,7,9,11,13,15,17,19,21,-1,23,25,-1,-1,-1,-1,-1,-1,-1,-1,-1,-1,-1,-1,-1],"loss_changes":[7.24879E2,6.879507E2,9.9612085E2,5.3677936E2,2.0627598E3,3.535232E2,6.0472766E2,6.858693E2,8.805959E2,5.426006E2,1.2355253E3,0E0,5.649794E2,2.2831892E2,0E0,0E0,0E0,0E0,0E0,0E0,0E0,0E0,0E0,0E0,0E0,0E0,0E0],"parents":[2147483647,0,0,1,1,2,2,3,3,4,4,5,5,6,6,7,7,8,8,9,9,10,10,12,12,13,13],"right_children":[2,4,6,8,10,12,14,16,18,20,22,-1,24,26,-1,-1,-1,-1,-1,-1,-1,-1,-1,-1,-1,-1,-1],"split_conditions":[2.449418E0,2.2183757E0,-6.699957E-1,1.9708214E0,-6.699957E-1,-6.699957E-1,9.4229466E-1,-1.7053993E-1,1.3678681E0,2.3650892E0,2.6748345E0,1.256684E0,3.2554135E-1,7.598361E-1,5.68232E-1,-3.6688387E-2,6.1823357E-2,6.329852E-1,-4.4623874E-2,-7.7463485E-2,1.0956742E0,7.3594904E-1,-2.6072386E-1,-4.008077E-1,6.705182E-1,1.0929842E-1,-3.5739535E-1],"split_indices":[18,0,9,9,18,36,0,63,18,0,0,0,36,9,0,0,0,0,0,0,0,0,0,0,0,0,0],"split_type":[0,0,0,0,0,0,0,0,0,0,0,0,0,0,0,0,0,0,0,0,0,0,0,0,0,0,0],"sum_hessian":[7.82E2,7.64E2,1.8E1,7.41E2,2.3E1,6E0,1.2E1,7.23E2,1.8E1,7E0,1.6E1,2E0,4E0,9E0,3E0,4.19E2,3.04E2,8E0,1E1,1E0,6E0,3E0,1.3E1,1E0,3E0,4E0,5E0],"tree_param":{"num_deleted":"0","num_feature":"72","num_nodes":"27","size_leaf_vector":"1"}},{"base_weights":[-1.4084083E-1,-2.257431E-1,8.214542E-1,6.660531E-1,-1.3852015E0,1.4963798E-1,1.5322267E1,-1.1884474E0,-1.0547189E1,3.461916E-2,-7.103747E-2,5.622185E-1,1.3942866E0,-4.6719957E-2,-3.4551874E-1,-6.8912786E-1,2.2162561E-1],"categories":[],"categories_nodes":[],"categories_segments":[],"categories_sizes":[],"default_left":[0,0,0,0,0,0,0,0,0,0,0,0,0,0,0,0,0],"id":43,"left_children":[1,3,-1,5,7,9,11,13,15,-1,-1,-1,-1,-1,-1,-1,-1],"loss_changes":[1.1038452E3,8.0640906E2,0E0,3.3354998E3,5.9856635E2,3.6492444E2,4.5493018E2,4.7760693E2,4.0034534E2,0E0,0E0,0E0,0E0,0E0,0E0,0E0,0E0],"parents":[2147483647,0,0,1,1,3,3,4,4,5,5,6,6,7,7,8,8],"right_children":[2,4,-1,6,8,10,12,14,16,-1,-1,-1,-1,-1,-1,-1,-1],"split_conditions":[4.886363E0,-5.689215E-1,8.214542E-1,1.4498374E0,3.4996586E0,3.5969177E-1,7.987745E-1,1.9746985E0,-4.2970783E-1,3.461916E-2,-7.103747E-2,5.622185E-1,1.3942866E0,-4.6719957E-2,-3.4551874E-1,-6.8912786E-1,2.2162561E-1],"split_indices":[18,18,0,0,9,45,9,54,36,0,0,0,0,0,0,0,0],"split_type":[0,0,0,0,0,0,0,0,0,0,0,0,0,0,0,0,0],"sum_hessian":[7.81E2,7.78E2,3E0,4.4E2,3.38E2,4.26E2,1.4E1,3.32E2,6E0,3.17E2,1.09E2,1.2E1,2E0,3.19E2,1.3E1,5E0,1E0],"tree_param":{"num_deleted":"0","num_feature":"72","num_nodes":"17","size_leaf_vector":"1"}},{"base_weights":[2.1913803E-1,-5.3468756E-2,6.854352E0,-2.4666257E-1,6.1838527E0,2.0536032E1,1.7974917E0,-3.8753173E-1,8.740162E0,1.9696543E1,-2.9445798E0,7.7778516E0,2.6635368E1,7.102724E0,-3.6575317E0,-1.4264695E-2,-3.3827004E-1,7.348592E-1,-2.6794615E-1,3.6939582E-1,1.403293E0,8.4664784E-2,-4.7053146E-1,7.707634E-2,4.671392E-1,1.5157117E0,2.9799795E-1,5.679798E-1,-2.1254599E-1,-4.1638896E-1,-1.4071799E-2],"categories":[],"categories_nodes":[],"categories_segments":[],"categories_sizes":[],"default_left":[0,0,0,0,0,0,0,0,0,0,0,0,0,0,0,0,0,0,0,0,0,0,0,0,0,0,0,0,0,0,0],"id":44,"left_children":[1,3,5,7,9,11,13,15,17,19,21,23,25,27,29,-1,-1,-1,-1,-1,-1,-1,-1,-1,-1,-1,-1,-1,-1,-1,-1],"loss_changes":[1.3750577E3,8.823891E2,2.0386769E3,9.022233E2,2.7716907E3,4.1536548E2,6.9160223E2,4.5451147E2,1.0026352E3,7.197849E2,4.3577722E2,2.4635574E1,1.9963843E2,6.282608E2,1.8686264E2,0E0,0E0,0E0,0E0,0E0,0E0,0E0,0E0,0E0,0E0,0E0,0E0,0E0,0E0,0E0,0E0],"parents":[2147483647,0,0,1,1,2,2,3,3,4,4,5,5,6,6,7,7,8,8,9,9,10,10,11,11,12,12,13,13,14,14],"right_children":[2,4,6,8,10,12,14,16,18,20,22,24,26,28,30,-1,-1,-1,-1,-1,-1,-1,-1,-1,-1,-1,-1,-1,-1,-1,-1],"split_conditions":[1.9708214E0,2.3106506E0,-6.699957E-1,2.0566564E0,-6.699957E-1,2.246059E0,2.6748345E0,1.790279E0,2.7575629E0,2.449418E0,3.7062707E0,4.4798893E-1,-6.699957E-1,2.325444E0,2.9063097E-1,-1.4264695E-2,-3.3827004E-1,7.348592E-1,-2.6794615E-1,3.6939582E-1,1.403293E0,8.4664784E-2,-4.7053146E-1,7.707634E-2,4.671392E-1,1.5157117E0,2.9799795E-1,5.679798E-1,-2.1254599E-1,-4.1638896E-1,-1.4071799E-2],"split_indices":[18,0,36,9,18,18,18,9,9,0,0,9,0,9,9,0,0,0,0,0,0,0,0,0,0,0,0,0,0,0,0],"split_type":[0,0,0,0,0,0,0,0,0,0,0,0,0,0,0,0,0,0,0,0,0,0,0,0,0,0,0,0,0,0,0],"sum_hessian":[7.59E2,7.3E2,2.9E1,7.09E2,2.1E1,7E0,2.2E1,6.99E2,1E1,8E0,1.3E1,3E0,4E0,1.1E1,1.1E1,6.89E2,1E1,7E0,3E0,4E0,4E0,8E0,5E0,1E0,2E0,3E0,1E0,8E0,3E0,4E0,7E0],"tree_param":{"num_deleted":"0","num_feature":"72","num_nodes":"31","size_leaf_vector":"1"}},{"base_weights":[4.4315312E-2,-1.4271113E-1,6.4947133E0,-3.2636482E-1,6.3269453E0,1.61218E1,-4.5979915E0,-4.8998598E-2,-4.8146877E0,9.6296847E-1,1.0818522E0,1.9442085E1,-3.1975427E-1,-6.888381E-1,-1.0275134E0,-2.7590606E-2,1.6527359E-1,5.243869E-1,-2.908473E-1,2.698569E-1,-4.7456023E-1,1.1639097E0,1.3658874E-1,-1.1071701E-1,8.673544E-2,2.4355946E-1,-3.3603567E-1],"categories":[],"categories_nodes":[],"categories_segments":[],"categories_sizes":[],"default_left":[0,0,0,0,0,0,0,0,0,0,0,0,0,0,0,0,0,0,0,0,0,0,0,0,0,0,0],"id":45,"left_children":[1,3,5,7,9,11,13,15,17,-1,19,21,23,-1,25,-1,-1,-1,-1,-1,-1,-1,-1,-1,-1,-1,-1],"loss_changes":[9.41915E2,9.0389075E2,2.4235176E3,9.1975195E2,1.4036313E3,6.613047E2,3.463428E2,1.1774349E3,7.204969E2,0E0,7.812374E2,5.774341E2,1.5518307E1,0E0,3.3498032E2,0E0,0E0,0E0,0E0,0E0,0E0,0E0,0E0,0E0,0E0,0E0,0E0],"parents":[2147483647,0,0,1,1,2,2,3,3,4,4,5,5,6,6,7,7,8,8,10,10,11,11,12,12,14,14],"right_children":[2,4,6,8,10,12,14,16,18,-1,20,22,24,-1,26,-1,-1,-1,-1,-1,-1,-1,-1,-1,-1,-1,-1],"split_conditions":[2.3106506E0,1.9708214E0,2.1509967E0,1.4498374E0,1.5466891E-2,-2.962068E-1,2.2183757E0,6.6054296E-1,-5.7293725E-1,9.6296847E-1,3.4996586E0,3.318276E0,2.325444E0,-6.888381E-1,2.5392706E0,-2.7590606E-2,1.6527359E-1,5.243869E-1,-2.908473E-1,2.698569E-1,-4.7456023E-1,1.1639097E0,1.3658874E-1,-1.1071701E-1,8.673544E-2,2.4355946E-1,-3.3603567E-1],"split_indices":[0,9,9,9,27,36,9,18,27,0,9,0,0,0,9,0,0,0,0,0,0,0,0,0,0,0,0],"split_type":[0,0,0,0,0,0,0,0,0,0,0,0,0,0,0,0,0,0,0,0,0,0,0,0,0,0,0],"sum_hessian":[7.79E2,7.58E2,2.1E1,7.38E2,2E1,1.1E1,1E1,6.96E2,4.2E1,5E0,1.5E1,9E0,2E0,2E0,8E0,6.06E2,9E1,2E0,4E1,1.1E1,4E0,7E0,2E0,1E0,1E0,4E0,4E0],"tree_param":{"num_deleted":"0","num_feature":"72","num_nodes":"27","size_leaf_vector":"1"}},{"base_weights":[1.7786105E-1,8.549803E-1,-1.3574865E0,-1.4198853E-1,3.3263495E0,-2.7441893E0,1.8652656E0,-1.1231357E0,2.763627E0,4.9417853E0,-2.7580996E0,-2.088198E0,-7.0921226E0,3.8832247E0,-5.6925383E0,7.0640086E-3,-2.1579812E-1,1.084219E0,9.774494E-2,1.1925898E-1,3.771196E-1,-4.9484953E-1,1.3669868E-1,-1.4345346E-1,1.0654601E-1,-3.9894018E-1,2.882046E-1,3.4956124E-2,4.0928197E-1,3.334287E-2,-4.7874308E-1],"categories":[],"categories_nodes":[],"categories_segments":[],"categories_sizes":[],"default_left":[0,0,0,0,0,0,0,0,0,0,0,0,0,0,0,0,0,0,0,0,0,0,0,0,0,0,0,0,0,0,0],"id":46,"left_children":[1,3,5,7,9,11,13,15,17,19,21,23,25,27,29,-1,-1,-1,-1,-1,-1,-1,-1,-1,-1,-1,-1,-1,-1,-1,-1],"loss_changes":[8.2869293E2,1.362997E3,1.0955543E3,1.1291843E3,1.5764469E3,4.7291772E2,1.1507046E3,1.1955798E3,1.4877839E3,8.197495E2,1.3601066E3,5.0030194E2,2.967765E2,8.0253754E2,4.0141272E2,0E0,0E0,0E0,0E0,0E0,0E0,0E0,0E0,0E0,0E0,0E0,0E0,0E0,0E0,0E0,0E0],"parents":[2147483647,0,0,1,1,2,2,3,3,4,4,5,5,6,6,7,7,8,8,9,9,10,10,11,11,12,12,13,13,14,14],"right_children":[2,4,6,8,10,12,14,16,18,20,22,24,26,28,30,-1,-1,-1,-1,-1,-1,-1,-1,-1,-1,-1,-1,-1,-1,-1,-1],"split_conditions":[3.4556973E-1,-3.8725936E-1,7.084858E-1,6.743732E-1,8.582109E-1,1.279375E0,1.8813338E0,-4.2970783E-1,-5.7293725E-1,-6.683944E-1,1.4528433E0,1.6626018E0,5.0931525E0,1.4139721E0,1.5609501E-1,7.0640086E-3,-2.1579812E-1,1.084219E0,9.774494E-2,1.1925898E-1,3.771196E-1,-4.9484953E-1,1.3669868E-1,-1.4345346E-1,1.0654601E-1,-3.9894018E-1,2.882046E-1,3.4956124E-2,4.0928197E-1,3.334287E-2,-4.7874308E-1],"split_indices":[45,63,63,9,54,54,63,9,18,45,63,27,36,63,27,0,0,0,0,0,0,0,0,0,0,0,0,0,0,0,0],"split_type":[0,0,0,0,0,0,0,0,0,0,0,0,0,0,0,0,0,0,0,0,0,0,0,0,0,0,0,0,0,0,0],"sum_hessian":[7.95E2,5.52E2,2.43E2,3.94E2,1.58E2,1.7E2,7.3E1,2.95E2,9.9E1,1.25E2,3.3E1,1.49E2,2.1E1,5.8E1,1.5E1,2.12E2,8.3E1,3E0,9.6E1,6.4E1,6.1E1,1.4E1,1.9E1,1.26E2,2.3E1,2E1,1E0,3.4E1,2.4E1,6E0,9E0],"tree_param":{"num_deleted":"0","num_feature":"72","num_nodes":"31","size_leaf_vector":"1"}},{"base_weights":[-5.8821134E-2,-7.3028105E-1,2.058898E0,-9.5000364E-2,-5.5809755E0,-1.1026545E0,3.8041987E0,-7.459482E-1,3.0391772E0,-6.2299023E0,2.2710733E0,-8.404116E0,2.5720468E0,1.5626246E1,2.2508695E0,-2.8331542E-2,-5.852914E-1,2.4387565E-1,-2.0758766E-3,-1.7399958E-1,-3.500346E-1,4.688111E-1,-1.812778E-1,5.4580946E-2,-4.6802264E-1,1.9364221E-2,5.1992315E-1,8.0751E-1,2.2037153E-1,1.846118E-1,-2.620581E-1],"categories":[],"categories_nodes":[],"categories_segments":[],"categories_sizes":[],"default_left":[0,0,0,0,0,0,0,0,0,0,0,0,0,0,0,0,0,0,0,0,0,0,0,0,0,0,0,0,0,0,0],"id":47,"left_children":[1,3,5,7,9,11,13,15,17,19,21,23,25,27,29,-1,-1,-1,-1,-1,-1,-1,-1,-1,-1,-1,-1,-1,-1,-1,-1],"loss_changes":[1.1163231E3,1.836075E3,1.0470702E3,1.0794852E3,3.6573145E2,1.8461025E3,2.2051782E3,8.541672E2,5.155675E2,1.1129224E2,2.8537256E2,2.190841E2,7.8252026E2,1.1113037E1,1.1964166E3,0E0,0E0,0E0,0E0,0E0,0E0,0E0,0E0,0E0,0E0,0E0,0E0,0E0,0E0,0E0,0E0],"parents":[2147483647,0,0,1,1,2,2,3,3,4,4,5,5,6,6,7,7,8,8,9,9,10,10,11,11,12,12,13,13,14,14],"right_children":[2,4,6,8,10,12,14,16,18,20,22,24,26,28,30,-1,-1,-1,-1,-1,-1,-1,-1,-1,-1,-1,-1,-1,-1,-1,-1],"split_conditions":[4.7747976E-1,4.400486E-1,-6.683944E-1,-3.009187E-1,2.398365E0,9.149966E-1,9.584829E-2,3.4996586E0,3.4272385E-1,5.0618E-1,-6.699957E-1,5.0613135E-1,2.6787858E0,2.6748345E0,7.598361E-1,-2.8331542E-2,-5.852914E-1,2.4387565E-1,-2.0758766E-3,-1.7399958E-1,-3.500346E-1,4.688111E-1,-1.812778E-1,5.4580946E-2,-4.6802264E-1,1.9364221E-2,5.1992315E-1,8.0751E-1,2.2037153E-1,1.846118E-1,-2.620581E-1],"split_indices":[63,54,45,63,36,63,45,0,63,45,0,63,63,0,0,0,0,0,0,0,0,0,0,0,0,0,0,0,0,0,0],"split_type":[0,0,0,0,0,0,0,0,0,0,0,0,0,0,0,0,0,0,0,0,0,0,0,0,0,0,0,0,0,0,0],"sum_hessian":[7.83E2,5.95E2,1.88E2,5.27E2,6.8E1,6.7E1,1.21E2,4.37E2,9E1,6.3E1,5E0,2.2E1,4.5E1,1.3E1,1.08E2,4.31E2,6E0,5.6E1,3.4E1,1.5E1,4.8E1,2E0,3E0,2E0,2E1,3.6E1,9E0,1.2E1,1E0,9.1E1,1.7E1],"tree_param":{"num_deleted":"0","num_feature":"72","num_nodes":"31","size_leaf_vector":"1"}},{"base_weights":[2.7664033E-1,1.146585E-1,5.0008535E0,-5.1015727E-2,4.147765E0,1.3717048E1,-1.3040835E0,1.6642651E-1,-5.1374636E0,1.3861819E1,-2.2057304E0,-1.308446E-1,1.5612131E1,5.177512E-1,-2.7716923E0,-9.626968E-3,1.4414534E-1,-3.51271E-1,-1.3905728E-1,1.2450304E-1,9.6182203E-1,6.745366E-1,-2.9959938E-1,1.1395601E0,4.63975E-1,2.9256997E-1,-2.707541E-1],"categories":[],"categories_nodes":[],"categories_segments":[],"categories_sizes":[],"default_left":[0,0,0,0,0,0,0,0,0,0,0,0,0,0,0,0,0,0,0,0,0,0,0,0,0,0,0],"id":48,"left_children":[1,3,5,7,9,11,13,15,17,19,21,-1,23,-1,25,-1,-1,-1,-1,-1,-1,-1,-1,-1,-1,-1,-1],"loss_changes":[6.001374E2,5.080298E2,1.4467197E3,8.093472E2,1.8821213E3,3.8135107E2,3.0247708E2,6.8509186E2,1.13920105E2,6.8552686E2,1.2100223E3,0E0,2.4313306E2,0E0,3.7359866E2,0E0,0E0,0E0,0E0,0E0,0E0,0E0,0E0,0E0,0E0,0E0,0E0],"parents":[2147483647,0,0,1,1,2,2,3,3,4,4,5,5,6,6,7,7,8,8,9,9,10,10,12,12,14,14],"right_children":[2,4,6,8,10,12,14,16,18,20,22,-1,24,-1,26,-1,-1,-1,-1,-1,-1,-1,-1,-1,-1,-1,-1],"split_conditions":[2.3106506E0,1.9708214E0,1.8779975E0,1.5462375E0,-6.699957E-1,2.3650892E0,2.325444E0,6.6054296E-1,6.071776E-1,2.246059E0,2.1509967E0,-1.308446E-1,1.9209968E-1,5.177512E-1,3.0992782E-1,-9.626968E-3,1.4414534E-1,-3.51271E-1,-1.3905728E-1,1.2450304E-1,9.6182203E-1,6.745366E-1,-2.9959938E-1,1.1395601E0,4.63975E-1,2.9256997E-1,-2.707541E-1],"split_indices":[0,18,9,18,36,0,0,18,36,18,18,0,9,0,18,0,0,0,0,0,0,0,0,0,0,0,0],"split_type":[0,0,0,0,0,0,0,0,0,0,0,0,0,0,0,0,0,0,0,0,0,0,0,0,0,0,0],"sum_hessian":[7.84E2,7.59E2,2.5E1,7.3E2,2.9E1,1E1,1.5E1,7.01E2,2.9E1,1.1E1,1.8E1,1E0,9E0,1E0,1.4E1,6.2E2,8.1E1,1.5E1,1.4E1,4E0,7E0,3E0,1.5E1,3E0,6E0,3E0,1.1E1],"tree_param":{"num_deleted":"0","num_feature":"72","num_nodes":"27","size_leaf_vector":"1"}},{"base_weights":[4.0305313E-2,2.786732E-1,-3.4835782E0,-5.6419706E-1,1.9496953E0,-6.9392786E0,-2.680595E-2,-8.8594306E-1,4.799235E0,1.1698661E0,6.662089E0,-7.734566E0,1.4710222E0,-4.079717E0,9.602209E0,-1.5330739E-2,-2.10317E-1,3.8636553E-1,-6.220165E-2,8.494725E-2,-2.7418348E-1,4.999836E-1,-2.8412571E-2,-4.312813E-1,-1.8861471E-1,2.766249E-1,-1.6629823E-1,-2.581992E-1,3.859271E-1,6.803703E-1,-8.044606E-2],"categories":[],"categories_nodes":[],"categories_segments":[],"categories_sizes":[],"default_left":[0,0,0,0,0,0,0,0,0,0,0,0,0,0,0,0,0,0,0,0,0,0,0,0,0,0,0,0,0,0,0],"id":49,"left_children":[1,3,5,7,9,11,13,15,17,19,21,23,25,27,29,-1,-1,-1,-1,-1,-1,-1,-1,-1,-1,-1,-1,-1,-1,-1,-1],"loss_changes":[6.628756E2,1.0419481E3,5.970924E2,8.53278E2,9.0357214E2,1.7859302E2,1.0538384E3,8.9318414E2,5.050771E2,7.6264905E2,8.502976E2,4.866577E1,7.684942E1,2.8291516E2,3.8111542E2,0E0,0E0,0E0,0E0,0E0,0E0,0E0,0E0,0E0,0E0,0E0,0E0,0E0,0E0,0E0,0E0],"parents":[2147483647,0,0,1,1,2,2,3,3,4,4,5,5,6,6,7,7,8,8,9,9,10,10,11,11,12,12,13,13,14,14],"right_children":[2,4,6,8,10,12,14,16,18,20,22,24,26,28,30,-1,-1,-1,-1,-1,-1,-1,-1,-1,-1,-1,-1,-1,-1,-1,-1],"split_conditions":[1.7640852E0,1.6771282E-1,1.4765317E0,1.9708214E0,1.4196497E0,5.098303E0,9.149815E-1,5.420705E-1,3.318276E0,1.2871809E0,1.76345E0,5.4892105E-1,2.5435367E0,3.7110183E0,2.7619784E0,-1.5330739E-2,-2.10317E-1,3.8636553E-1,-6.220165E-2,8.494725E-2,-2.7418348E-1,4.999836E-1,-2.8412571E-2,-4.312813E-1,-1.8861471E-1,2.766249E-1,-1.6629823E-1,-2.581992E-1,3.859271E-1,6.803703E-1,-8.044606E-2],"split_indices":[54,63,63,27,45,45,45,45,27,27,45,27,54,63,54,0,0,0,0,0,0,0,0,0,0,0,0,0,0,0,0],"split_type":[0,0,0,0,0,0,0,0,0,0,0,0,0,0,0,0,0,0,0,0,0,0,0,0,0,0,0,0,0,0,0],"sum_hessian":[7.87E2,7.38E2,4.9E1,4.91E2,2.47E2,2.4E1,2.5E1,4.64E2,2.7E1,2.13E2,3.4E1,2.2E1,2E0,1.8E1,7E0,3.96E2,6.8E1,1.8E1,9E0,1.98E2,1.5E1,2.3E1,1.1E1,1.7E1,5E0,1E0,1E0,1.7E1,1E0,5E0,2E0],"tree_param":{"num_deleted":"0","num_feature":"72","num_nodes":"31","size_leaf_vector":"1"}},{"base_weights":[2.1689752E-1,2.0700742E-2,4.3532553E0,3.2154936E-1,-4.856327E0,1.2938861E0,2.2645688E0,-1.741824E-1,3.7542179E0,-5.1449776E0,1.816752E-1,1.0688418E1,3.7858057E-1,2.9105455E-2,-9.9922456E-2,6.89968E-1,9.9328615E-2,-2.9393786E-1,-9.0062946E-2,1.9986868E-2,6.333104E-1,1.8796764E-1,-1.4010227E-1],"categories":[],"categories_nodes":[],"categories_segments":[],"categories_sizes":[],"default_left":[0,0,0,0,0,0,0,0,0,0,0,0,0,0,0,0,0,0,0,0,0,0,0],"id":50,"left_children":[1,3,5,7,9,-1,11,13,15,17,-1,19,21,-1,-1,-1,-1,-1,-1,-1,-1,-1,-1],"loss_changes":[6.272303E2,1.0858572E3,1.5149233E3,1.1867268E3,1.24069885E2,0E0,5.202339E2,8.427665E2,1.5351366E3,9.245996E1,0E0,1.1702985E2,3.1161707E2,0E0,0E0,0E0,0E0,0E0,0E0,0E0,0E0,0E0,0E0],"parents":[2147483647,0,0,1,1,2,2,3,3,4,4,6,6,7,7,8,8,9,9,11,11,12,12],"right_children":[2,4,6,8,10,-1,12,14,16,18,-1,20,22,-1,-1,-1,-1,-1,-1,-1,-1,-1,-1],"split_conditions":[1.9708214E0,1.4109963E0,-3.8930318E-1,6.6054296E-1,3.4996586E0,1.2938861E0,2.1509967E0,-5.689215E-1,-5.7293725E-1,1.4109963E0,1.816752E-1,7.987745E-1,7.598361E-1,2.9105455E-2,-9.9922456E-2,6.89968E-1,9.9328615E-2,-2.9393786E-1,-9.0062946E-2,1.9986868E-2,6.333104E-1,1.8796764E-1,-1.4010227E-1],"split_indices":[9,9,18,18,0,0,9,18,36,36,0,18,0,0,0,0,0,0,0,0,0,0,0],"split_type":[0,0,0,0,0,0,0,0,0,0,0,0,0,0,0,0,0,0,0,0,0,0,0],"sum_hessian":[7.72E2,7.38E2,3.4E1,6.96E2,4.2E1,2E0,3.2E1,6.09E2,8.7E1,4.1E1,1E0,5E0,2.7E1,4.31E2,1.78E2,1.2E1,7.5E1,3.3E1,8E0,1E0,4E0,1.3E1,1.4E1],"tree_param":{"num_deleted":"0","num_feature":"72","num_nodes":"23","size_leaf_vector":"1"}},{"base_weights":[4.588131E-1,-1.8723847E-1,2.9438639E0,1.7112893E-1,-5.5303817E0,3.597562E0,-5.4726863E0,-4.7857594E-1,2.4563606E0,-6.221235E0,2.0698924E0,3.1198413E0,1.6827496E1,-7.335844E0,3.7555128E-1,-6.1389744E-2,8.8335335E-2,6.924496E-2,5.955282E-1,-1.3932876E-1,-3.6314577E-1,3.2104614E-1,-7.6037936E-2,-1.8351715E-2,2.526328E-1,1.3526734E0,4.961804E-2,-4.2049232E-1,8.510437E-2],"categories":[],"categories_nodes":[],"categories_segments":[],"categories_sizes":[],"default_left":[0,0,0,0,0,0,0,0,0,0,0,0,0,0,0,0,0,0,0,0,0,0,0,0,0,0,0,0,0],"id":51,"left_children":[1,3,5,7,9,11,13,15,17,19,21,23,25,27,-1,-1,-1,-1,-1,-1,-1,-1,-1,-1,-1,-1,-1,-1,-1],"loss_changes":[1.2528185E3,1.1881277E3,9.054917E2,8.652862E2,2.1765344E2,8.9553296E2,3.4538815E2,7.658917E2,1.2902511E3,1.0856287E2,7.2256805E1,9.858192E2,7.828013E2,1.2108862E2,0E0,0E0,0E0,0E0,0E0,0E0,0E0,0E0,0E0,0E0,0E0,0E0,0E0,0E0,0E0],"parents":[2147483647,0,0,1,1,2,2,3,3,4,4,5,5,6,6,7,7,8,8,9,9,10,10,11,11,12,12,13,13],"right_children":[2,4,6,8,10,12,14,16,18,20,22,24,26,28,-1,-1,-1,-1,-1,-1,-1,-1,-1,-1,-1,-1,-1,-1,-1],"split_conditions":[5.7730347E-1,6.723255E-1,3.0675468E0,-3.3361587E-1,2.325444E0,2.4025347E0,3.7110183E0,6.743732E-1,1.6101354E0,-1.7053993E-1,-6.699957E-1,-6.683944E-1,-6.699957E-1,5.098303E0,3.7555128E-1,-6.1389744E-2,8.8335335E-2,6.924496E-2,5.955282E-1,-1.3932876E-1,-3.6314577E-1,3.2104614E-1,-7.6037936E-2,-1.8351715E-2,2.526328E-1,1.3526734E0,4.961804E-2,-4.2049232E-1,8.510437E-2],"split_indices":[63,54,54,63,36,54,63,9,27,63,9,45,36,45,0,0,0,0,0,0,0,0,0,0,0,0,0,0,0],"split_type":[0,0,0,0,0,0,0,0,0,0,0,0,0,0,0,0,0,0,0,0,0,0,0,0,0,0,0,0,0],"sum_hessian":[7.79E2,6.19E2,1.6E2,5.81E2,3.8E1,1.49E2,1.1E1,4.53E2,1.28E2,3.5E1,3E0,1.45E2,4E0,1E1,1E0,3.4E2,1.13E2,1.16E2,1.2E1,9E0,2.6E1,1E0,2E0,5.2E1,9.3E1,2E0,2E0,9E0,1E0],"tree_param":{"num_deleted":"0","num_feature":"72","num_nodes":"29","size_leaf_vector":"1"}},{"base_weights":[1.0776355E-2,-1.5221278E-1,5.994293E0,-5.011582E-1,2.8264723E0,2.1915232E1,9.5905846E-1,1.8892786E-1,-2.161015E0,3.5206711E0,-8.429483E0,1.3826846E0,-2.5965167E-2,1.1253975E1,-2.0508502E0,-2.2693599E-2,1.6247287E-1,-1.1522414E-1,4.0858293E-1,7.007562E-2,3.811789E-1,-5.011924E-1,-5.1300716E-2,7.261949E-1,3.6105063E-2,-4.0564403E-1,1.6998269E-2],"categories":[],