{"learner":{"attributes":{"scikit_learn":"{\"_estimator_type\": \"regressor\"}"},"feature_names":[],"feature_types":[],"gradient_booster":{"model":{"gbtree_model_param":{"num_parallel_tree":"1","num_trees":"200"},"iteration_indptr":[0,1,2,3,4,5,6,7,8,9,10,11,12,13,14,15,16,17,18,19,20,21,22,23,24,25,26,27,28,29,30,31,32,33,34,35,36,37,38,39,40,41,42,43,44,45,46,47,48,49,50,51,52,53,54,55,56,57,58,59,60,61,62,63,64,65,66,67,68,69,70,71,72,73,74,75,76,77,78,79,80,81,82,83,84,85,86,87,88,89,90,91,92,93,94,95,96,97,98,99,100,101,102,103,104,105,106,107,108,109,110,111,112,113,114,115,116,117,118,119,120,121,122,123,124,125,126,127,128,129,130,131,132,133,134,135,136,137,138,139,140,141,142,143,144,145,146,147,148,149,150,151,152,153,154,155,156,157,158,159,160,161,162,163,164,165,166,167,168,169,170,171,172,173,174,175,176,177,178,179,180,181,182,183,184,185,186,187,188,189,190,191,192,193,194,195,196,197,198,199,200],"tree_info":[0,0,0,0,0,0,0,0,0,0,0,0,0,0,0,0,0,0,0,0,0,0,0,0,0,0,0,0,0,0,0,0,0,0,0,0,0,0,0,0,0,0,0,0,0,0,0,0,0,0,0,0,0,0,0,0,0,0,0,0,0,0,0,0,0,0,0,0,0,0,0,0,0,0,0,0,0,0,0,0,0,0,0,0,0,0,0,0,0,0,0,0,0,0,0,0,0,0,0,0,0,0,0,0,0,0,0,0,0,0,0,0,0,0,0,0,0,0,0,0,0,0,0,0,0,0,0,0,0,0,0,0,0,0,0,0,0,0,0,0,0,0,0,0,0,0,0,0,0,0,0,0,0,0,0,0,0,0,0,0,0,0,0,0,0,0,0,0,0,0,0,0,0,0,0,0,0,0,0,0,0,0,0,0,0,0,0,0,0,0,0,0,0,0,0,0,0,0,0,0],"trees":[{"base_weights":[2.0573212E-2,-1.2562301E-2,4.3420872E-1,-1.2227256E-2,-3.7461508E-3,-6.00123E-4,-3.329912E-3],"categories":[],"categories_nodes":[],"categories_segments":[],"categories_sizes":[],"default_left":[0,0,0,0,0,0,0],"id":0,"left_children":[1,3,-1,5,-1,-1,-1],"loss_changes":[2.2603546E2,1.5485406E-2,0E0,8.758515E-3,0E0,0E0,0E0],"parents":[2147483647,0,0,1,1,3,3],"right_children":[2,4,-1,6,-1,-1,-1],"split_conditions":[1.5092744E1,7.5229187E0,4.3420872E-1,7.5229187E0,-3.7461508E-3,-6.00123E-4,-3.329912E-3],"split_indices":[63,18,0,36,0,0,0],"split_type":[0,0,0,0,0,0,0],"sum_hessian":[7.86E2,7.84E2,2E0,7.81E2,3E0,7.79E2,2E0],"tree_param":{"num_deleted":"0","num_feature":"72","num_nodes":"7","size_leaf_vector":"1"}},{"base_weights":[2.65002E-2,-6.308032E-3,4.197351E-1,-9.656105E-3,6.38742E-2,-9.193198E-3,-3.908969E-3,-4.3663057E-4,-3.8543732E-3],"categories":[],"categories_nodes":[],"categories_segments":[],"categories_sizes":[],"default_left":[0,0,0,0,0,0,0,0,0],"id":1,"left_children":[1,3,-1,5,-1,7,-1,-1,-1],"loss_changes":[2.1090424E2,3.304779E0,0E0,2.3547016E-2,0E0,2.3124233E-2,0E0,0E0,0E0],"parents":[2147483647,0,0,1,1,3,3,5,5],"right_children":[2,4,-1,6,-1,8,-1,-1,-1],"split_conditions":[1.8251661E1,1.8251661E1,4.197351E-1,7.5229187E0,6.38742E-2,7.5229187E0,-3.908969E-3,-4.3663057E-4,-3.8543732E-3],"split_indices":[63,54,0,0,0,36,0,0,0],"split_type":[0,0,0,0,0,0,0,0,0],"sum_hessian":[7.67E2,7.65E2,2E0,7.64E2,1E0,7.6E2,4E0,7.56E2,4E0],"tree_param":{"num_deleted":"0","num_feature":"72","num_nodes":"9","size_leaf_vector":"1"}},{"base_weights":[-2.0268785E-2,-5.1652532E-2,4.0574393E-1,-2.5717178E-3,-3.7526102E-3],"categories":[],"categories_nodes":[],"categories_segments":[],"categories_sizes":[],"default_left":[0,0,0,0,0],"id":2,"left_children":[1,3,-1,-1,-1],"loss_changes":[1.9930675E2,1.06573105E-4,0E0,0E0,0E0],"parents":[2147483647,0,0,1,1],"right_children":[2,4,-1,-1,-1],"split_conditions":[1.5092744E1,7.5229187E0,4.0574393E-1,-2.5717178E-3,-3.7526102E-3],"split_indices":[63,0,0,0,0],"split_type":[0,0,0,0,0],"sum_hessian":[7.78E2,7.76E2,2E0,7.72E2,4E0],"tree_param":{"num_deleted":"0","num_feature":"72","num_nodes":"5","size_leaf_vector":"1"}},{"base_weights":[-8.505145E-3,-3.8090773E-2,3.9221916E-1,-4.0761765E-2,5.213374E-2,-2.02576E-3,-3.5808121E-3],"categories":[],"categories_nodes":[],"categories_segments":[],"categories_sizes":[],"default_left":[0,0,0,0,0,0,0],"id":3,"left_children":[1,3,-1,5,-1,-1,-1],"loss_changes":[1.8570023E2,2.3403292E0,0E0,3.1465292E-3,0E0,0E0,0E0],"parents":[2147483647,0,0,1,1,3,3],"right_children":[2,4,-1,6,-1,-1,-1],"split_conditions":[1.8251661E1,1.5092744E1,3.9221916E-1,7.5229187E0,5.213374E-2,-2.02576E-3,-3.5808121E-3],"split_indices":[63,54,0,27,0,0,0],"split_type":[0,0,0,0,0,0,0],"sum_hessian":[7.97E2,7.95E2,2E0,7.94E2,1E0,7.9E2,4E0],"tree_param":{"num_deleted":"0","num_feature":"72","num_nodes":"7","size_leaf_vector":"1"}},{"base_weights":[-3.703281E-3,-1.5947089E-2,1.5904605E-1,-1.5512377E-2,-4.0112427E-3,-7.614438E-4,-3.3210458E-3],"categories":[],"categories_nodes":[],"categories_segments":[],"categories_sizes":[],"default_left":[0,0,0,0,0,0,0],"id":4,"left_children":[1,3,-1,5,-1,-1,-1],"loss_changes":[3.0542414E1,2.055049E-2,0E0,1.0188207E-2,0E0,0E0,0E0],"parents":[2147483647,0,0,1,1,3,3],"right_children":[2,4,-1,6,-1,-1,-1],"split_conditions":[1.8251661E1,7.5229187E0,1.5904605E-1,7.5229187E0,-4.0112427E-3,-7.614438E-4,-3.3210458E-3],"split_indices":[54,36,0,0,0,0,0],"split_type":[0,0,0,0,0,0,0],"sum_hessian":[7.81E2,7.79E2,2E0,7.75E2,4E0,7.72E2,3E0],"tree_param":{"num_deleted":"0","num_feature":"72","num_nodes":"7","size_leaf_vector":"1"}},{"base_weights":[3.6707183E-3,-2.448774E-2,3.7650707E-1,-2.6858099E-2,4.685425E-2,-2.6509734E-2,-3.8507928E-3,-1.3146875E-3,-3.1377429E-3],"categories":[],"categories_nodes":[],"categories_segments":[],"categories_sizes":[],"default_left":[0,0,0,0,0,0,0,0,0],"id":5,"left_children":[1,3,-1,5,-1,7,-1,-1,-1],"loss_changes":[1.7057916E2,1.8531449E0,0E0,1.1954367E-2,0E0,4.589081E-3,0E0,0E0,0E0],"parents":[2147483647,0,0,1,1,3,3,5,5],"right_children":[2,4,-1,6,-1,8,-1,-1,-1],"split_conditions":[1.8251661E1,1.8251661E1,3.7650707E-1,7.5229187E0,4.685425E-2,7.5229187E0,-3.8507928E-3,-1.3146875E-3,-3.1377429E-3],"split_indices":[63,54,0,36,0,0,0,0,0],"split_type":[0,0,0,0,0,0,0,0,0],"sum_hessian":[8.03E2,8.01E2,2E0,8E2,1E0,7.96E2,4E0,7.93E2,3E0],"tree_param":{"num_deleted":"0","num_feature":"72","num_nodes":"9","size_leaf_vector":"1"}},{"base_weights":[1.4909779E-2,-4.1512055E-3,3.7158543E-1,-3.7922831E-3,-3.63722E-3,-1.79868E-4,-2.6409184E-3],"categories":[],"categories_nodes":[],"categories_segments":[],"categories_sizes":[],"default_left":[0,0,0,0,0,0,0],"id":6,"left_children":[1,3,-1,5,-1,-1,-1],"loss_changes":[1.1030061E2,1.8902842E-2,0E0,7.225697E-3,0E0,0E0,0E0],"parents":[2147483647,0,0,1,1,3,3],"right_children":[2,4,-1,6,-1,-1,-1],"split_conditions":[1.5092744E1,7.5229187E0,3.7158543E-1,7.5229187E0,-3.63722E-3,-1.79868E-4,-2.6409184E-3],"split_indices":[63,36,0,18,0,0,0],"split_type":[0,0,0,0,0,0,0],"sum_hessian":[7.79E2,7.78E2,1E0,7.75E2,3E0,7.73E2,2E0],"tree_param":{"num_deleted":"0","num_feature":"72","num_nodes":"7","size_leaf_vector":"1"}},{"base_weights":[-3.9901687E-3,-3.1044297E-2,3.5157067E-1,-3.2952864E-2,3.6393255E-2,-1.6360963E-3,-3.1078956E-3],"categories":[],"categories_nodes":[],"categories_segments":[],"categories_sizes":[],"default_left":[0,0,0,0,0,0,0],"id":7,"left_children":[1,3,-1,5,-1,-1,-1],"loss_changes":[1.4906158E2,1.1537609E0,0E0,3.2200813E-3,0E0,0E0,0E0],"parents":[2147483647,0,0,1,1,3,3],"right_children":[2,4,-1,6,-1,-1,-1],"split_conditions":[1.8251661E1,1.8251661E1,3.5157067E-1,7.5229187E0,3.6393255E-2,-1.6360963E-3,-3.1078956E-3],"split_indices":[63,45,0,9,0,0,0],"split_type":[0,0,0,0,0,0,0],"sum_hessian":[7.81E2,7.79E2,2E0,7.78E2,1E0,7.74E2,4E0],"tree_param":{"num_deleted":"0","num_feature":"72","num_nodes":"7","size_leaf_vector":"1"}},{"base_weights":[-2.5145747E-2,-5.1319104E-2,3.3985165E-1,-2.660228E-3,3.5483424E-2],"categories":[],"categories_nodes":[],"categories_segments":[],"categories_sizes":[],"default_left":[0,0,0,0,0],"id":8,"left_children":[1,3,-1,-1,-1],"loss_changes":[1.4016075E2,1.1583433E0,0E0,0E0,0E0],"parents":[2147483647,0,0,1,1],"right_children":[2,4,-1,-1,-1],"split_conditions":[1.8251661E1,1.8251661E1,3.3985165E-1,-2.660228E-3,3.5483424E-2],"split_indices":[63,45,0,0,0],"split_type":[0,0,0,0,0],"sum_hessian":[7.82E2,7.8E2,2E0,7.79E2,1E0],"tree_param":{"num_deleted":"0","num_feature":"72","num_nodes":"5","size_leaf_vector":"1"}},{"base_weights":[1.853343E-2,-6.8528014E-3,3.2852325E-1,-8.649579E-3,3.4596335E-2,-8.308129E-3,-2.9751502E-3,-4.0334216E-4,-2.6248829E-3],"categories":[],"categories_nodes":[],"categories_segments":[],"categories_sizes":[],"default_left":[0,0,0,0,0,0,0,0,0],"id":9,"left_children":[1,3,-1,5,-1,7,-1,-1,-1],"loss_changes":[1.2928255E2,9.790374E-1,0E0,1.2945309E-2,0E0,7.7864863E-3,0E0,0E0,0E0],"parents":[2147483647,0,0,1,1,3,3,5,5],"right_children":[2,4,-1,6,-1,8,-1,-1,-1],"split_conditions":[1.8251661E1,1.5092744E1,3.2852325E-1,7.5229187E0,3.4596335E-2,7.5229187E0,-2.9751502E-3,-4.0334216E-4,-2.6248829E-3],"split_indices":[63,54,0,0,0,27,0,0,0],"split_type":[0,0,0,0,0,0,0,0,0],"sum_hessian":[7.76E2,7.74E2,2E0,7.73E2,1E0,7.69E2,4E0,7.66E2,3E0],"tree_param":{"num_deleted":"0","num_feature":"72","num_nodes":"9","size_leaf_vector":"1"}},{"base_weights":[-3.293481E-2,-5.69854E-2,3.1757247E-1,-5.8756486E-2,3.3731427E-2,-2.9265701E-3,-5.9312214E-3],"categories":[],"categories_nodes":[],"categories_segments":[],"categories_sizes":[],"default_left":[0,0,0,0,0,0,0],"id":10,"left_children":[1,3,-1,5,-1,-1,-1],"loss_changes":[1.2273986E2,1.0697615E0,0E0,3.7560463E-3,0E0,0E0,0E0],"parents":[2147483647,0,0,1,1,3,3],"right_children":[2,4,-1,6,-1,-1,-1],"split_conditions":[1.8251661E1,1.5092744E1,3.1757247E-1,1.5092744E1,3.3731427E-2,-2.9265701E-3,-5.9312214E-3],"split_indices":[63,63,0,36,0,0,0],"split_type":[0,0,0,0,0,0,0],"sum_hessian":[7.96E2,7.94E2,2E0,7.93E2,1E0,7.92E2,1E0],"tree_param":{"num_deleted":"0","num_feature":"72","num_nodes":"7","size_leaf_vector":"1"}},{"base_weights":[3.176248E-2,7.6420093E-3,3.0698675E-1,5.9211096E-3,3.288814E-2,6.2092002E-3,-2.5040144E-3,3.149575E-4,-1.5448155E-3],"categories":[],"categories_nodes":[],"categories_segments":[],"categories_sizes":[],"default_left":[0,0,0,0,0,0,0,0,0],"id":11,"left_children":[1,3,-1,5,-1,7,-1,-1,-1],"loss_changes":[1.1236371E2,8.4750646E-1,0E0,1.2572397E-2,0E0,2.7211998E-3,0E0,0E0,0E0],"parents":[2147483647,0,0,1,1,3,3,5,5],"right_children":[2,4,-1,6,-1,8,-1,-1,-1],"split_conditions":[1.8251661E1,7.5229187E0,3.0698675E-1,7.5229187E0,3.288814E-2,7.5229187E0,-2.5040144E-3,3.149575E-4,-1.5448155E-3],"split_indices":[63,54,0,9,0,27,0,0,0],"split_type":[0,0,0,0,0,0,0,0,0],"sum_hessian":[7.62E2,7.6E2,2E0,7.59E2,1E0,7.56E2,3E0,7.55E2,1E0],"tree_param":{"num_deleted":"0","num_feature":"72","num_nodes":"9","size_leaf_vector":"1"}},{"base_weights":[1.0141792E-2,-6.046335E-3,3.2118317E-1,-7.673461E-3,3.206594E-2,-7.2143297E-3,-9.631875E-2,-3.4904774E-4,-2.5634475E-3,-6.605144E-3,-2.017821E-3],"categories":[],"categories_nodes":[],"categories_segments":[],"categories_sizes":[],"default_left":[0,0,0,0,0,0,0,0,0,0,0],"id":12,"left_children":[1,3,-1,5,-1,7,9,-1,-1,-1,-1],"loss_changes":[8.247422E1,8.402234E-1,0E0,3.1539388E-2,0E0,7.7540018E-3,2.6790574E-3,0E0,0E0,0E0,0E0],"parents":[2147483647,0,0,1,1,3,3,5,5,6,6],"right_children":[2,4,-1,6,-1,8,10,-1,-1,-1,-1],"split_conditions":[1.8251661E1,1.5092744E1,3.2118317E-1,7.5229187E0,3.206594E-2,7.5229187E0,7.5229187E0,-3.4904774E-4,-2.5634475E-3,-6.605144E-3,-2.017821E-3],"split_indices":[63,63,0,36,0,0,27,0,0,0,0],"split_type":[0,0,0,0,0,0,0,0,0,0,0],"sum_hessian":[7.93E2,7.92E2,1E0,7.91E2,1E0,7.88E2,3E0,7.85E2,3E0,1E0,2E0],"tree_param":{"num_deleted":"0","num_feature":"72","num_nodes":"11","size_leaf_vector":"1"}},{"base_weights":[5.7359952E-3,4.127681E-3,3.1264286E-2,4.7565433E-3,-9.354268E-2,2.5087816E-4,-2.3241572E-3,-5.8446634E-3,-1.9505601E-3],"categories":[],"categories_nodes":[],"categories_segments":[],"categories_sizes":[],"default_left":[0,0,0,0,0,0,0,0,0],"id":13,"left_children":[1,3,-1,5,7,-1,-1,-1,-1],"loss_changes":[7.69653E-1,4.798497E-2,0E0,1.0531653E-2,1.8065646E-3,0E0,0E0,0E0,0E0],"parents":[2147483647,0,0,1,1,3,3,4,4],"right_children":[2,4,-1,6,8,-1,-1,-1,-1],"split_conditions":[1.8251661E1,7.5229187E0,3.1264286E-2,7.5229187E0,7.5229187E0,2.5087816E-4,-2.3241572E-3,-5.8446634E-3,-1.9505601E-3],"split_indices":[54,36,0,9,18,0,0,0,0],"split_type":[0,0,0,0,0,0,0,0,0],"sum_hessian":[7.74E2,7.73E2,1E0,7.69E2,4E0,7.66E2,3E0,2E0,2E0],"tree_param":{"num_deleted":"0","num_feature":"72","num_nodes":"9","size_leaf_vector":"1"}},{"base_weights":[5.367856E-4,-2.1710325E-2,2.855225E-1,-2.3324132E-2,3.048268E-2,-2.3026694E-2,-6.293899E-3,-1.1447466E-3,-2.1235016E-3],"categories":[],"categories_nodes":[],"categories_segments":[],"categories_sizes":[],"default_left":[0,0,0,0,0,0,0,0,0],"id":14,"left_children":[1,3,-1,5,-1,7,-1,-1,-1],"loss_changes":[9.819041E1,7.987722E-1,0E0,2.0558506E-2,0E0,9.952486E-4,0E0,0E0,0E0],"parents":[2147483647,0,0,1,1,3,3,5,5],"right_children":[2,4,-1,6,-1,8,-1,-1,-1],"split_conditions":[1.8251661E1,1.8251661E1,2.855225E-1,1.8251661E1,3.048268E-2,7.5229187E0,-6.293899E-3,-1.1447466E-3,-2.1235016E-3],"split_indices":[63,54,0,36,0,18,0,0,0],"split_type":[0,0,0,0,0,0,0,0,0],"sum_hessian":[7.71E2,7.69E2,2E0,7.68E2,1E0,7.67E2,1E0,7.64E2,3E0],"tree_param":{"num_deleted":"0","num_feature":"72","num_nodes":"9","size_leaf_vector":"1"}},{"base_weights":[2.2217754E-2,6.4727124E-3,3.0600926E-1,4.947097E-3,2.9720614E-2,5.537339E-3,-8.7057635E-2,2.8969548E-4,-2.255427E-3,-1.8147583E-3,-5.4400447E-3],"categories":[],"categories_nodes":[],"categories_segments":[],"categories_sizes":[],"default_left":[0,0,0,0,0,0,0,0,0,0,0],"id":15,"left_children":[1,3,-1,5,-1,7,9,-1,-1,-1,-1],"loss_changes":[7.456229E1,6.931077E-1,0E0,4.2568486E-2,0E0,1.0279909E-2,1.5697628E-3,0E0,0E0,0E0,0E0],"parents":[2147483647,0,0,1,1,3,3,5,5,6,6],"right_children":[2,4,-1,6,-1,8,10,-1,-1,-1,-1],"split_conditions":[1.8251661E1,1.8251661E1,3.0600926E-1,7.5229187E0,2.9720614E-2,7.5229187E0,1.8251661E1,2.8969548E-4,-2.255427E-3,-1.8147583E-3,-5.4400447E-3],"split_indices":[63,54,0,36,0,0,36,0,0,0,0],"split_type":[0,0,0,0,0,0,0,0,0,0,0],"sum_hessian":[7.76E2,7.75E2,1E0,7.74E2,1E0,7.7E2,4E0,7.67E2,3E0,2E0,2E0],"tree_param":{"num_deleted":"0","num_feature":"72","num_nodes":"11","size_leaf_vector":"1"}},{"base_weights":[2.8083362E-2,7.3635206E-3,2.6580474E-1,5.859943E-3,2.8977597E-2,3.059943E-4,-2.2594573E-3],"categories":[],"categories_nodes":[],"categories_segments":[],"categories_sizes":[],"default_left":[0,0,0,0,0,0,0],"id":16,"left_children":[1,3,-1,5,-1,-1,-1],"loss_changes":[8.42177E1,6.5647674E-1,0E0,1.0441251E-2,0E0,0E0,0E0],"parents":[2147483647,0,0,1,1,3,3],"right_children":[2,4,-1,6,-1,-1,-1],"split_conditions":[1.8251661E1,1.8251661E1,2.6580474E-1,7.5229187E0,2.8977597E-2,3.059943E-4,-2.2594573E-3],"split_indices":[63,45,0,27,0,0,0],"split_type":[0,0,0,0,0,0,0],"sum_hessian":[7.68E2,7.66E2,2E0,7.65E2,1E0,7.62E2,3E0],"tree_param":{"num_deleted":"0","num_feature":"72","num_nodes":"7","size_leaf_vector":"1"}},{"base_weights":[-6.3914113E-4,-2.0767018E-2,2.5694463E-1,-2.2271454E-2,2.8253157E-2,-1.106541E-3,-2.1747274E-3],"categories":[],"categories_nodes":[],"categories_segments":[],"categories_sizes":[],"default_left":[0,0,0,0,0,0,0],"id":17,"left_children":[1,3,-1,5,-1,-1,-1],"loss_changes":[7.955467E1,6.876941E-1,0E0,1.3207197E-3,0E0,0E0,0E0],"parents":[2147483647,0,0,1,1,3,3],"right_children":[2,4,-1,6,-1,-1,-1],"split_conditions":[1.8251661E1,1.8251661E1,2.5694463E-1,7.5229187E0,2.8253157E-2,-1.106541E-3,-2.1747274E-3],"split_indices":[63,45,0,27,0,0,0],"split_type":[0,0,0,0,0,0,0],"sum_hessian":[7.67E2,7.65E2,2E0,7.64E2,1E0,7.61E2,3E0],"tree_param":{"num_deleted":"0","num_feature":"72","num_nodes":"7","size_leaf_vector":"1"}},{"base_weights":[1.3642199E-2,-5.2353414E-3,2.4837978E-1,-4.972076E-3,-2.2734166E-3,-2.4159593E-4,-1.9924506E-3],"categories":[],"categories_nodes":[],"categories_segments":[],"categories_sizes":[],"default_left":[0,0,0,0,0,0,0],"id":18,"left_children":[1,3,-1,5,-1,-1,-1],"loss_changes":[7.390559E1,8.120397E-3,0E0,3.6398415E-3,0E0,0E0,0E0],"parents":[2147483647,0,0,1,1,3,3],"right_children":[2,4,-1,6,-1,-1,-1],"split_conditions":[7.5229187E0,7.5229187E0,2.4837978E-1,7.5229187E0,-2.2734166E-3,-2.4159593E-4,-1.9924506E-3],"split_indices":[63,0,0,27,0,0,0],"split_type":[0,0,0,0,0,0,0],"sum_hessian":[7.89E2,7.87E2,2E0,7.83E2,4E0,7.81E2,2E0],"tree_param":{"num_deleted":"0","num_feature":"72","num_nodes":"7","size_leaf_vector":"1"}},{"base_weights":[2.1474354E-2,7.0233066E-3,2.790808E-1,5.9239953E-3,2.133733E-2,6.641234E-3,-1.36408135E-2,3.4806255E-4,-2.1824797E-3],"categories":[],"categories_nodes":[],"categories_segments":[],"categories_sizes":[],"default_left":[0,0,0,0,0,0,0,0,0],"id":19,"left_children":[1,3,-1,5,-1,7,-1,-1,-1],"loss_changes":[6.19909E1,3.532165E-1,0E0,1.5575276E-1,0E0,1.2680072E-2,0E0,0E0,0E0],"parents":[2147483647,0,0,1,1,3,3,5,5],"right_children":[2,4,-1,6,-1,8,-1,-1,-1],"split_conditions":[1.8251661E1,1.8251661E1,2.790808E-1,1.8251661E1,2.133733E-2,7.5229187E0,-1.36408135E-2,3.4806255E-4,-2.1824797E-3],"split_indices":[63,54,0,45,0,0,0,0,0],"split_type":[0,0,0,0,0,0,0,0,0],"sum_hessian":[7.71E2,7.7E2,1E0,7.69E2,1E0,7.68E2,1E0,7.64E2,4E0],"tree_param":{"num_deleted":"0","num_feature":"72","num_nodes":"9","size_leaf_vector":"1"}},{"base_weights":[1.335779E-3,-1.6123483E-2,2.3079777E-1,-1.5472134E-2,-1.3299793E-2,-7.6774065E-4,-1.7372773E-3],"categories":[],"categories_nodes":[],"categories_segments":[],"categories_sizes":[],"default_left":[0,0,0,0,0,0,0],"id":20,"left_children":[1,3,-1,5,-1,-1,-1],"loss_changes":[6.412586E1,1.2494846E-1,0E0,1.2573153E-3,0E0,0E0,0E0],"parents":[2147483647,0,0,1,1,3,3],"right_children":[2,4,-1,6,-1,-1,-1],"split_conditions":[1.5092744E1,1.8251661E1,2.3079777E-1,7.5229187E0,-1.3299793E-2,-7.6774065E-4,-1.7372773E-3],"split_indices":[63,36,0,9,0,0,0],"split_type":[0,0,0,0,0,0,0],"sum_hessian":[7.94E2,7.92E2,2E0,7.91E2,1E0,7.88E2,3E0],"tree_param":{"num_deleted":"0","num_feature":"72","num_nodes":"7","size_leaf_vector":"1"}},{"base_weights":[2.2736147E-2,5.8062016E-3,4.46209E0,5.0494648E-3,1.5033955E-2,2.6633382E-1,6.832292E-2,5.335207E-3,-2.0353848E-3,2.7394906E-4,-1.6936179E-3],"categories":[],"categories_nodes":[],"categories_segments":[],"categories_sizes":[],"default_left":[0,0,0,0,0,0,0,0,0,0,0],"id":21,"left_children":[1,3,5,7,-1,-1,-1,9,-1,-1,-1],"loss_changes":[5.934893E1,1.74317E-1,7.5064087E-1,1.0507023E-2,0E0,0E0,0E0,4.5993794E-3,0E0,0E0,0E0],"parents":[2147483647,0,0,1,1,2,2,3,3,7,7],"right_children":[2,4,6,8,-1,-1,-1,10,-1,-1,-1],"split_conditions":[1.8251661E1,1.8251661E1,7.5229187E0,7.5229187E0,1.5033955E-2,2.6633382E-1,6.832292E-2,7.5229187E0,-2.0353848E-3,2.7394906E-4,-1.6936179E-3],"split_indices":[63,45,54,0,0,0,0,27,0,0,0],"split_type":[0,0,0,0,0,0,0,0,0,0,0],"sum_hessian":[7.89E2,7.87E2,2E0,7.86E2,1E0,1E0,1E0,7.82E2,4E0,7.8E2,2E0],"tree_param":{"num_deleted":"0","num_feature":"72","num_nodes":"11","size_leaf_vector":"1"}},{"base_weights":[4.268334E-3,-1.26707265E-2,4.350538E0,-1.3449653E-2,1.4658106E-2,2.5967547E-1,6.6614844E-2,-1.2772211E-2,-1.3343147E-2,-6.291663E-4,-1.9539695E-3],"categories":[],"categories_nodes":[],"categories_segments":[],"categories_sizes":[],"default_left":[0,0,0,0,0,0,0,0,0,0,0],"id":22,"left_children":[1,3,5,7,-1,-1,-1,9,-1,-1,-1],"loss_changes":[5.6891094E1,1.8737346E-1,7.135773E-1,1.2860812E-1,0E0,0E0,0E0,3.324464E-3,0E0,0E0,0E0],"parents":[2147483647,0,0,1,1,2,2,3,3,7,7],"right_children":[2,4,6,8,-1,-1,-1,10,-1,-1,-1],"split_conditions":[1.8251661E1,1.8251661E1,7.5229187E0,1.8251661E1,1.4658106E-2,2.5967547E-1,6.6614844E-2,7.5229187E0,-1.3343147E-2,-6.291663E-4,-1.9539695E-3],"split_indices":[63,54,54,45,0,0,0,0,0,0,0],"split_type":[0,0,0,0,0,0,0,0,0,0,0],"sum_hessian":[7.71E2,7.69E2,2E0,7.68E2,1E0,1E0,1E0,7.67E2,1E0,7.63E2,4E0],"tree_param":{"num_deleted":"0","num_feature":"72","num_nodes":"11","size_leaf_vector":"1"}},{"base_weights":[2.0816674E-2,1.6901765E-2,1.0565484E0,1.7210076E-2,-1.7749968E-3,6.4949475E-2,1.4291651E-2,8.689983E-4,-1.6717091E-3],"categories":[],"categories_nodes":[],"categories_segments":[],"categories_sizes":[],"default_left":[0,0,0,0,0,0,0,0,0],"id":23,"left_children":[1,3,5,7,-1,-1,-1,-1,-1],"loss_changes":[3.230033E0,1.35196E-2,1.8926501E-1,7.42124E-3,0E0,0E0,0E0,0E0,0E0],"parents":[2147483647,0,0,1,1,2,2,3,3],"right_children":[2,4,6,8,-1,-1,-1,-1,-1],"split_conditions":[1.5092744E1,7.5229187E0,1.8916286E1,7.5229187E0,-1.7749968E-3,6.4949475E-2,1.4291651E-2,8.689983E-4,-1.6717091E-3],"split_indices":[54,27,54,0,0,0,0,0,0],"split_type":[0,0,0,0,0,0,0,0,0],"sum_hessian":[8E2,7.98E2,2E0,7.94E2,4E0,1E0,1E0,7.92E2,2E0],"tree_param":{"num_deleted":"0","num_feature":"72","num_nodes":"9","size_leaf_vector":"1"}},{"base_weights":[1.555272E-3,-1.4691703E-2,4.219835E0,-1.3958232E-2,-1.4633304E-2,2.5316188E-1,6.332574E-2,-6.905107E-4,-1.703997E-3],"categories":[],"categories_nodes":[],"categories_segments":[],"categories_sizes":[],"default_left":[0,0,0,0,0,0,0,0,0],"id":24,"left_children":[1,3,5,7,-1,-1,-1,-1,-1],"loss_changes":[5.3587273E1,1.5474221E-1,1.059845E0,1.8465519E-3,0E0,0E0,0E0,0E0,0E0],"parents":[2147483647,0,0,1,1,2,2,3,3],"right_children":[2,4,6,8,-1,-1,-1,-1,-1],"split_conditions":[1.5092744E1,1.8251661E1,7.5229187E0,7.5229187E0,-1.4633304E-2,2.5316188E-1,6.332574E-2,-6.905107E-4,-1.703997E-3],"split_indices":[63,45,54,27,0,0,0,0,0],"split_type":[0,0,0,0,0,0,0,0,0],"sum_hessian":[7.8E2,7.78E2,2E0,7.77E2,1E0,1E0,1E0,7.73E2,4E0],"tree_param":{"num_deleted":"0","num_feature":"72","num_nodes":"9","size_leaf_vector":"1"}},{"base_weights":[1.999798E-2,4.5999577E-3,4.114339E0,3.9866134E-3,1.2351215E-2,2.4683283E-1,6.1742593E-2,4.1441265E-3,-1.4157909E-3,2.1093075E-4,-1.3749913E-3],"categories":[],"categories_nodes":[],"categories_segments":[],"categories_sizes":[],"default_left":[0,0,0,0,0,0,0,0,0,0,0],"id":25,"left_children":[1,3,5,7,-1,-1,-1,9,-1,-1,-1],"loss_changes":[5.0479923E1,1.1781816E-1,1.0075188E0,4.1776197E-3,0E0,0E0,0E0,1.9899113E-3,0E0,0E0,0E0],"parents":[2147483647,0,0,1,1,2,2,3,3,7,7],"right_children":[2,4,6,8,-1,-1,-1,10,-1,-1,-1],"split_conditions":[1.8251661E1,1.5092744E1,7.5229187E0,7.5229187E0,1.2351215E-2,2.4683283E-1,6.1742593E-2,7.5229187E0,-1.4157909E-3,2.1093075E-4,-1.3749913E-3],"split_indices":[63,45,54,18,0,0,0,0,0,0,0],"split_type":[0,0,0,0,0,0,0,0,0,0,0],"sum_hessian":[8E2,7.98E2,2E0,7.97E2,1E0,1E0,1E0,7.94E2,3E0,7.93E2,1E0],"tree_param":{"num_deleted":"0","num_feature":"72","num_nodes":"11","size_leaf_vector":"1"}},{"base_weights":[2.3774626E-2,8.125942E-3,4.0114803E0,7.506895E-3,1.2042433E-2,2.4066201E-1,6.0199022E-2,7.7186413E-3,-1.7353792E-3,3.9348807E-4,-1.6568995E-3],"categories":[],"categories_nodes":[],"categories_segments":[],"categories_sizes":[],"default_left":[0,0,0,0,0,0,0,0,0,0,0],"id":26,"left_children":[1,3,5,7,-1,-1,-1,9,-1,-1,-1],"loss_changes":[4.7892406E1,1.0854687E-1,9.577751E-1,7.1060583E-3,0E0,0E0,0E0,4.9655735E-3,0E0,0E0,0E0],"parents":[2147483647,0,0,1,1,2,2,3,3,7,7],"right_children":[2,4,6,8,-1,-1,-1,10,-1,-1,-1],"split_conditions":[1.8251661E1,1.8251661E1,7.5229187E0,7.5229187E0,1.2042433E-2,2.4066201E-1,6.0199022E-2,7.5229187E0,-1.7353792E-3,3.9348807E-4,-1.6568995E-3],"split_indices":[63,45,54,27,0,0,0,0,0,0,0],"split_type":[0,0,0,0,0,0,0,0,0,0,0],"sum_hessian":[7.67E2,7.65E2,2E0,7.64E2,1E0,1E0,1E0,7.61E2,3E0,7.59E2,2E0],"tree_param":{"num_deleted":"0","num_feature":"72","num_nodes":"11","size_leaf_vector":"1"}},{"base_weights":[-8.218322E-3,-2.3129512E-2,3.9111936E0,-2.2402748E-2,-1.4877314E-2,2.3464547E-1,5.8694053E-2,-1.1153396E-3,-1.6474605E-3],"categories":[],"categories_nodes":[],"categories_segments":[],"categories_sizes":[],"default_left":[0,0,0,0,0,0,0,0,0],"id":27,"left_children":[1,3,5,7,-1,-1,-1,-1,-1],"loss_changes":[4.6260506E1,1.504898E-1,9.104843E-1,6.151199E-5,0E0,0E0,0E0,0E0,0E0],"parents":[2147483647,0,0,1,1,2,2,3,3],"right_children":[2,4,6,8,-1,-1,-1,-1,-1],"split_conditions":[1.5092744E1,1.8251661E1,7.5229187E0,7.5229187E0,-1.4877314E-2,2.3464547E-1,5.8694053E-2,-1.1153396E-3,-1.6474605E-3],"split_indices":[63,45,54,27,0,0,0,0,0],"split_type":[0,0,0,0,0,0,0,0,0],"sum_hessian":[7.89E2,7.87E2,2E0,7.86E2,1E0,1E0,1E0,7.82E2,4E0],"tree_param":{"num_deleted":"0","num_feature":"72","num_nodes":"9","size_leaf_vector":"1"}},{"base_weights":[-9.865139E-3,-2.4614137E-2,3.8134136E0,-2.3898156E-2,-1.4505381E-2,2.2877932E-1,5.7226706E-2,-1.2229632E-3,1.0274017E-2],"categories":[],"categories_nodes":[],"categories_segments":[],"categories_sizes":[],"default_left":[0,0,0,0,0,0,0,0,0],"id":28,"left_children":[1,3,5,7,-1,-1,-1,-1,-1],"loss_changes":[4.4021305E1,1.4076549E-1,8.655243E-1,1.0490188E-1,0E0,0E0,0E0,0E0,0E0],"parents":[2147483647,0,0,1,1,2,2,3,3],"right_children":[2,4,6,8,-1,-1,-1,-1,-1],"split_conditions":[1.8251661E1,1.8916286E1,7.5229187E0,1.8251661E1,-1.4505381E-2,2.2877932E-1,5.7226706E-2,-1.2229632E-3,1.0274017E-2],"split_indices":[63,45,54,45,0,0,0,0,0],"split_type":[0,0,0,0,0,0,0,0,0],"sum_hessian":[7.78E2,7.76E2,2E0,7.75E2,1E0,1E0,1E0,7.74E2,1E0],"tree_param":{"num_deleted":"0","num_feature":"72","num_nodes":"9","size_leaf_vector":"1"}},{"base_weights":[2.3183957E-2,8.869694E-3,3.7180784E0,8.364123E-3,1.0017169E-2,2.2305985E-1,5.579604E-2,8.55856E-3,-1.5626617E-3,4.3403704E-4,-1.2826928E-3],"categories":[],"categories_nodes":[],"categories_segments":[],"categories_sizes":[],"default_left":[0,0,0,0,0,0,0,0,0,0,0],"id":29,"left_children":[1,3,5,7,-1,-1,-1,9,-1,-1,-1],"loss_changes":[4.1115204E1,7.3443756E-2,8.2278824E-1,6.237369E-3,0E0,0E0,0E0,3.449712E-3,0E0,0E0,0E0],"parents":[2147483647,0,0,1,1,2,2,3,3,7,7],"right_children":[2,4,6,8,-1,-1,-1,10,-1,-1,-1],"split_conditions":[1.8251661E1,1.8251661E1,7.5229187E0,7.5229187E0,1.0017169E-2,2.2305985E-1,5.579604E-2,7.5229187E0,-1.5626617E-3,4.3403704E-4,-1.2826928E-3],"split_indices":[63,45,54,27,0,0,0,9,0,0,0],"split_type":[0,0,0,0,0,0,0,0,0,0,0],"sum_hessian":[7.77E2,7.75E2,2E0,7.74E2,1E0,1E0,1E0,7.71E2,3E0,7.69E2,2E0],"tree_param":{"num_deleted":"0","num_feature":"72","num_nodes":"11","size_leaf_vector":"1"}},{"base_weights":[9.303718E-3,6.5505514E-3,5.4401137E-2,6.729093E-3,-1.5040617E-3,3.4207196E-4,-1.2399363E-3],"categories":[],"categories_nodes":[],"categories_segments":[],"categories_sizes":[],"default_left":[0,0,0,0,0,0,0],"id":30,"left_children":[1,3,-1,5,-1,-1,-1],"loss_changes":[2.333148E0,5.3496324E-3,0E0,2.9466003E-3,0E0,0E0,0E0],"parents":[2147483647,0,0,1,1,3,3],"right_children":[2,4,-1,6,-1,-1,-1],"split_conditions":[1.5092744E1,7.5229187E0,5.4401137E-2,7.5229187E0,-1.5040617E-3,3.4207196E-4,-1.2399363E-3],"split_indices":[54,27,0,0,0,0,0],"split_type":[0,0,0,0,0,0,0],"sum_hessian":[7.87E2,7.86E2,1E0,7.83E2,3E0,7.81E2,2E0],"tree_param":{"num_deleted":"0","num_feature":"72","num_nodes":"7","size_leaf_vector":"1"}},{"base_weights":[1.8882226E-2,5.3017824E-3,3.6068788E0,6.103081E-3,-1.5753204E-2,2.174748E-1,5.304111E-2,5.686206E-3,8.406711E-3,2.9470003E-4,-1.4099744E-3],"categories":[],"categories_nodes":[],"categories_segments":[],"categories_sizes":[],"default_left":[0,0,0,0,0,0,0,0,0,0,0],"id":31,"left_children":[1,3,5,7,-1,-1,-1,9,-1,-1,-1],"loss_changes":[3.8767235E1,2.0574962E-1,1.0581932E0,5.2608564E-2,0E0,0E0,0E0,5.7428945E-3,0E0,0E0,0E0],"parents":[2147483647,0,0,1,1,2,2,3,3,7,7],"right_children":[2,4,6,8,-1,-1,-1,10,-1,-1,-1],"split_conditions":[1.8251661E1,1.8916286E1,1.8916286E1,1.8251661E1,-1.5753204E-2,2.174748E-1,5.304111E-2,7.5229187E0,8.406711E-3,2.9470003E-4,-1.4099744E-3],"split_indices":[63,45,63,45,0,0,0,27,0,0,0],"split_type":[0,0,0,0,0,0,0,0,0,0,0],"sum_hessian":[7.95E2,7.93E2,2E0,7.92E2,1E0,1E0,1E0,7.91E2,1E0,7.87E2,4E0],"tree_param":{"num_deleted":"0","num_feature":"72","num_nodes":"11","size_leaf_vector":"1"}},{"base_weights":[-1.813475E-2,-3.155223E-2,3.5167067E0,-1.5406304E-3,-1.5359374E-2,2.1203792E-1,5.1715087E-2],"categories":[],"categories_nodes":[],"categories_segments":[],"categories_sizes":[],"default_left":[0,0,0,0,0,0,0],"id":32,"left_children":[1,3,5,-1,-1,-1,-1],"loss_changes":[3.762703E1,1.5138507E-1,1.0059433E0,0E0,0E0,0E0,0E0],"parents":[2147483647,0,0,1,1,2,2],"right_children":[2,4,6,-1,-1,-1,-1],"split_conditions":[1.5092744E1,1.5092744E1,7.5229187E0,-1.5406304E-3,-1.5359374E-2,2.1203792E-1,5.1715087E-2],"split_indices":[63,36,54,0,0,0,0],"split_type":[0,0,0,0,0,0,0],"sum_hessian":[7.9E2,7.88E2,2E0,7.87E2,1E0,1E0,1E0],"tree_param":{"num_deleted":"0","num_feature":"72","num_nodes":"7","size_leaf_vector":"1"}},{"base_weights":[1.7036816E-2,6.643312E-3,2.0673697E-1,7.464691E-3,-2.124151E-1,7.1250172E-3,6.9036665E-3,-1.4975389E-2,-9.5574465E-4,3.6690754E-4,-1.3923616E-3],"categories":[],"categories_nodes":[],"categories_segments":[],"categories_sizes":[],"default_left":[0,0,0,0,0,0,0,0,0,0,0],"id":33,"left_children":[1,3,-1,5,7,9,-1,-1,-1,-1,-1],"loss_changes":[3.399643E1,1.4444996E-1,0E0,3.415278E-2,4.478003E-2,6.1002783E-3,0E0,0E0,0E0,0E0,0E0],"parents":[2147483647,0,0,1,1,3,3,4,4,5,5],"right_children":[2,4,-1,6,8,10,-1,-1,-1,-1,-1],"split_conditions":[1.8251661E1,1.8251661E1,2.0673697E-1,7.5229187E0,7.5229187E0,7.5229187E0,6.9036665E-3,-1.4975389E-2,-9.5574465E-4,3.6690754E-4,-1.3923616E-3],"split_indices":[63,36,0,54,27,0,0,0,0,0,0],"split_type":[0,0,0,0,0,0,0,0,0,0,0],"sum_hessian":[7.94E2,7.93E2,1E0,7.91E2,2E0,7.9E2,1E0,1E0,1E0,7.86E2,4E0],"tree_param":{"num_deleted":"0","num_feature":"72","num_nodes":"11","size_leaf_vector":"1"}},{"base_weights":[1.0102597E-2,7.482763E-3,6.931315E-1,8.236296E-3,-1.4601004E-2,4.525379E-2,6.7310752E-3,8.391976E-3,-1.212919E-3,4.2397444E-4,-8.579393E-4],"categories":[],"categories_nodes":[],"categories_segments":[],"categories_sizes":[],"default_left":[0,0,0,0,0,0,0,0,0,0,0],"id":34,"left_children":[1,3,5,7,-1,-1,-1,9,-1,-1,-1],"loss_changes":[1.4048781E0,1.7979366E-1,2.3327649E-1,4.1747354E-3,0E0,0E0,0E0,1.8940642E-3,0E0,0E0,0E0],"parents":[2147483647,0,0,1,1,2,2,3,3,7,7],"right_children":[2,4,6,8,-1,-1,-1,10,-1,-1,-1],"split_conditions":[1.8251661E1,1.8251661E1,7.5229187E0,7.5229187E0,-1.4601004E-2,4.525379E-2,6.7310752E-3,7.5229187E0,-1.212919E-3,4.2397444E-4,-8.579393E-4],"split_indices":[54,45,45,0,0,0,0,36,0,0,0],"split_type":[0,0,0,0,0,0,0,0,0,0,0],"sum_hessian":[7.87E2,7.85E2,2E0,7.84E2,1E0,1E0,1E0,7.81E2,3E0,7.79E2,2E0],"tree_param":{"num_deleted":"0","num_feature":"72","num_nodes":"11","size_leaf_vector":"1"}},{"base_weights":[1.5805505E-2,3.7715926E-3,3.2757385E0,4.476649E-3,-1.423598E-2,2.0155795E-1,4.4122446E-2,4.1588717E-3,6.562799E-3,2.1694425E-4,-1.2881503E-3],"categories":[],"categories_nodes":[],"categories_segments":[],"categories_sizes":[],"default_left":[0,0,0,0,0,0,0,0,0,0,0],"id":35,"left_children":[1,3,5,7,-1,-1,-1,9,-1,-1,-1],"loss_changes":[3.1999117E1,1.6684425E-1,1.8665276E0,3.220796E-2,0E0,0E0,0E0,4.4854814E-3,0E0,0E0,0E0],"parents":[2147483647,0,0,1,1,2,2,3,3,7,7],"right_children":[2,4,6,8,-1,-1,-1,10,-1,-1,-1],"split_conditions":[1.8251661E1,1.8916286E1,1.8916286E1,1.8251661E1,-1.423598E-2,2.0155795E-1,4.4122446E-2,7.5229187E0,6.562799E-3,2.1694425E-4,-1.2881503E-3],"split_indices":[63,45,63,45,0,0,0,0,0,0,0],"split_type":[0,0,0,0,0,0,0,0,0,0,0],"sum_hessian":[8.15E2,8.13E2,2E0,8.12E2,1E0,1E0,1E0,8.11E2,1E0,8.07E2,4E0],"tree_param":{"num_deleted":"0","num_feature":"72","num_nodes":"11","size_leaf_vector":"1"}},{"base_weights":[9.286819E-3,7.0897858E-3,4.301939E-2,7.812528E-3,-1.3880081E-2,7.493175E-3,6.3987314E-3,3.7886397E-4,-8.365728E-4],"categories":[],"categories_nodes":[],"categories_segments":[],"categories_sizes":[],"default_left":[0,0,0,0,0,0,0,0,0],"id":36,"left_children":[1,3,-1,5,-1,7,-1,-1,-1],"loss_changes":[1.4524196E0,1.624545E-1,0E0,2.8896071E-2,0E0,1.70983E-3,0E0,0E0,0E0],"parents":[2147483647,0,0,1,1,3,3,5,5],"right_children":[2,4,-1,6,-1,8,-1,-1,-1],"split_conditions":[1.8251661E1,1.8916286E1,4.301939E-2,1.8251661E1,-1.3880081E-2,7.5229187E0,6.3987314E-3,3.7886397E-4,-8.365728E-4],"split_indices":[63,45,0,45,0,27,0,0,0],"split_type":[0,0,0,0,0,0,0,0,0],"sum_hessian":[7.79E2,7.78E2,1E0,7.77E2,1E0,7.76E2,1E0,7.74E2,2E0],"tree_param":{"num_deleted":"0","num_feature":"72","num_nodes":"9","size_leaf_vector":"1"}},{"base_weights":[1.761807E-2,5.643056E-3,3.1651657E0,6.389763E-3,-1.923732E-1,1.9544351E-1,4.1943908E-2,6.0807914E-3,6.2387646E-3,-1.3533078E-2,-8.949119E-4,3.1236463E-4,-1.06047E-3],"categories":[],"categories_nodes":[],"categories_segments":[],"categories_sizes":[],"default_left":[0,0,0,0,0,0,0,0,0,0,0,0,0],"id":37,"left_children":[1,3,5,7,9,-1,-1,11,-1,-1,-1,-1,-1],"loss_changes":[2.983414E1,1.1803884E-1,1.9111462E0,2.8064564E-2,3.6133714E-2,0E0,0E0,3.7085041E-3,0E0,0E0,0E0,0E0,0E0],"parents":[2147483647,0,0,1,1,2,2,3,3,4,4,7,7],"right_children":[2,4,6,8,10,-1,-1,12,-1,-1,-1,-1,-1],"split_conditions":[1.8251661E1,1.5092744E1,7.5229187E0,7.5229187E0,7.5229187E0,1.9544351E-1,4.1943908E-2,7.5229187E0,6.2387646E-3,-1.3533078E-2,-8.949119E-4,3.1236463E-4,-1.06047E-3],"split_indices":[63,36,54,54,27,0,0,9,0,0,0,0,0],"split_type":[0,0,0,0,0,0,0,0,0,0,0,0,0],"sum_hessian":[7.91E2,7.89E2,2E0,7.87E2,2E0,1E0,1E0,7.86E2,1E0,1E0,1E0,7.82E2,4E0],"tree_param":{"num_deleted":"0","num_feature":"72","num_nodes":"13","size_leaf_vector":"1"}},{"base_weights":[-2.2473197E-2,-2.4585662E-2,4.089531E-2,-2.4927368E-2,6.082797E-3,-1.2472048E-3,-2.957459E-4],"categories":[],"categories_nodes":[],"categories_segments":[],"categories_sizes":[],"default_left":[0,0,0,0,0,0,0],"id":38,"left_children":[1,3,-1,5,-1,-1,-1],"loss_changes":[1.415473E0,4.226032E-2,0E0,1.0177493E-4,0E0,0E0,0E0],"parents":[2147483647,0,0,1,1,3,3],"right_children":[2,4,-1,6,-1,-1,-1],"split_conditions":[1.8251661E1,7.5229187E0,4.089531E-2,1.8916286E1,6.082797E-3,-1.2472048E-3,-2.957459E-4],"split_indices":[63,63,0,27,0,0,0],"split_type":[0,0,0,0,0,0,0],"sum_hessian":[7.85E2,7.84E2,1E0,7.83E2,1E0,7.82E2,1E0],"tree_param":{"num_deleted":"0","num_feature":"72","num_nodes":"7","size_leaf_vector":"1"}},{"base_weights":[-4.0502533E-2,-5.08866E-2,1.8953505E-1,-5.0227683E-2,-1.3346821E-2,-5.0620385E-2,5.930728E-3,-2.5379665E-3,-6.3213025E-4],"categories":[],"categories_nodes":[],"categories_segments":[],"categories_sizes":[],"default_left":[0,0,0,0,0,0,0,0,0],"id":39,"left_children":[1,3,-1,5,-1,7,-1,-1,-1],"loss_changes":[2.9433746E1,9.1083646E-2,0E0,5.4605603E-2,0E0,3.2209158E-3,0E0,0E0,0E0],"parents":[2147483647,0,0,1,1,3,3,5,5],"right_children":[2,4,-1,6,-1,8,-1,-1,-1],"split_conditions":[1.8251661E1,1.8916286E1,1.8953505E-1,1.8251661E1,-1.3346821E-2,7.5229187E0,5.930728E-3,-2.5379665E-3,-6.3213025E-4],"split_indices":[63,45,0,45,0,18,0,0,0],"split_type":[0,0,0,0,0,0,0,0,0],"sum_hessian":[7.34E2,7.33E2,1E0,7.32E2,1E0,7.31E2,1E0,7.28E2,3E0],"tree_param":{"num_deleted":"0","num_feature":"72","num_nodes":"9","size_leaf_vector":"1"}},{"base_weights":[1.880704E-2,9.438477E-3,1.8479668E-1,1.0165254E-2,-1.8388082E-1,9.883196E-3,5.7824613E-3,-1.30131515E-2,-7.779098E-4,5.026159E-4,-9.238195E-4],"categories":[],"categories_nodes":[],"categories_segments":[],"categories_sizes":[],"default_left":[0,0,0,0,0,0,0,0,0,0,0],"id":40,"left_children":[1,3,-1,5,7,9,-1,-1,-1,-1,-1],"loss_changes":[2.7111238E1,1.1244261E-1,0E0,2.2212774E-2,3.4521326E-2,3.945954E-3,0E0,0E0,0E0,0E0,0E0],"parents":[2147483647,0,0,1,1,3,3,4,4,5,5],"right_children":[2,4,-1,6,8,10,-1,-1,-1,-1,-1],"split_conditions":[1.8251661E1,1.5092744E1,1.8479668E-1,7.5229187E0,7.5229187E0,7.5229187E0,5.7824613E-3,-1.30131515E-2,-7.779098E-4,5.026159E-4,-9.238195E-4],"split_indices":[63,36,0,63,27,9,0,0,0,0,0],"split_type":[0,0,0,0,0,0,0,0,0,0,0],"sum_hessian":[7.87E2,7.86E2,1E0,7.84E2,2E0,7.83E2,1E0,1E0,1E0,7.79E2,4E0],"tree_param":{"num_deleted":"0","num_feature":"72","num_nodes":"11","size_leaf_vector":"1"}},{"base_weights":[1.0064689E-2,-6.455346E-4,2.8092184E0,9.799212E-7,-1.2687824E-2,1.8017676E-1,3.0514622E-2,1.07865686E-4,-1.0434355E-3,9.446633E-6,-7.843314E-4],"categories":[],"categories_nodes":[],"categories_segments":[],"categories_sizes":[],"default_left":[0,0,0,0,0,0,0,0,0,0,0],"id":41,"left_children":[1,3,5,7,-1,-1,-1,9,-1,-1,-1],"loss_changes":[2.3595732E1,1.2845756E-1,3.04072E0,1.7510985E-3,0E0,0E0,0E0,1.0029654E-3,0E0,0E0,0E0],"parents":[2147483647,0,0,1,1,2,2,3,3,7,7],"right_children":[2,4,6,8,-1,-1,-1,10,-1,-1,-1],"split_conditions":[1.5092744E1,1.8251661E1,7.5229187E0,7.5229187E0,-1.2687824E-2,1.8017676E-1,3.0514622E-2,7.5229187E0,-1.0434355E-3,9.446633E-6,-7.843314E-4],"split_indices":[63,45,54,0,0,0,0,27,0,0,0],"split_type":[0,0,0,0,0,0,0,0,0,0,0],"sum_hessian":[7.86E2,7.84E2,2E0,7.83E2,1E0,1E0,1E0,7.8E2,3E0,7.77E2,3E0],"tree_param":{"num_deleted":"0","num_feature":"72","num_nodes":"11","size_leaf_vector":"1"}},{"base_weights":[2.0206824E-2,9.73749E-3,2.738988E0,1.0384365E-2,-1.2370627E-2,1.7567234E-1,2.9751753E-2,1.0147373E-2,4.875034E-3,5.1665324E-4,-1.0332182E-3],"categories":[],"categories_nodes":[],"categories_segments":[],"categories_sizes":[],"default_left":[0,0,0,0,0,0,0,0,0,0,0],"id":42,"left_children":[1,3,5,7,-1,-1,-1,9,-1,-1,-1],"loss_changes":[2.2260506E1,1.3248384E-1,2.8905869E0,1.5114427E-2,0E0,0E0,0E0,4.670568E-3,0E0,0E0,0E0],"parents":[2147483647,0,0,1,1,2,2,3,3,7,7],"right_children":[2,4,6,8,-1,-1,-1,10,-1,-1,-1],"split_conditions":[1.8251661E1,1.8916286E1,1.8916286E1,1.8251661E1,-1.2370627E-2,1.7567234E-1,2.9751753E-2,7.5229187E0,4.875034E-3,5.1665324E-4,-1.0332182E-3],"split_indices":[63,45,63,45,0,0,0,0,0,0,0],"split_type":[0,0,0,0,0,0,0,0,0,0,0],"sum_hessian":[7.82E2,7.8E2,2E0,7.79E2,1E0,1E0,1E0,7.78E2,1E0,7.74E2,4E0],"tree_param":{"num_deleted":"0","num_feature":"72","num_nodes":"11","size_leaf_vector":"1"}},{"base_weights":[1.0624109E-2,8.920011E-3,4.5014825E-1,9.550787E-3,-1.2061362E-2,2.900796E-2,4.7531608E-3,9.728068E-3,-1.983779E-2,4.91031E-4,-8.6811837E-4,-1.0953144E-3,-2.8909495E-4],"categories":[],"categories_nodes":[],"categories_segments":[],"categories_sizes":[],"default_left":[0,0,0,0,0,0,0,0,0,0,0,0,0],"id":43,"left_children":[1,3,5,7,-1,-1,-1,9,11,-1,-1,-1,-1],"loss_changes":[5.816967E-1,1.2537767E-1,8.334303E-2,4.251577E-3,0E0,0E0,0E0,2.11367E-3,1.8713064E-5,0E0,0E0,0E0,0E0],"parents":[2147483647,0,0,1,1,2,2,3,3,7,7,8,8],"right_children":[2,4,6,8,-1,-1,-1,10,12,-1,-1,-1,-1],"split_conditions":[1.8251661E1,1.8251661E1,7.5229187E0,7.5229187E0,-1.2061362E-2,2.900796E-2,4.7531608E-3,7.5229187E0,1.8251661E1,4.91031E-4,-8.6811837E-4,-1.0953144E-3,-2.8909495E-4],"split_indices":[54,45,45,0,0,0,0,27,9,0,0,0,0],"split_type":[0,0,0,0,0,0,0,0,0,0,0,0,0],"sum_hessian":[7.81E2,7.79E2,2E0,7.78E2,1E0,1E0,1E0,7.74E2,4E0,7.72E2,2E0,3E0,1E0],"tree_param":{"num_deleted":"0","num_feature":"72","num_nodes":"13","size_leaf_vector":"1"}},{"base_weights":[2.0325923E-2,2.0972457E-2,-1.1759828E-2,2.0755569E-2,4.634333E-3,2.0992486E-2,-1.9122781E-2,1.0577679E-3,-7.41739E-4,-1.05424E-3,-2.8186757E-4],"categories":[],"categories_nodes":[],"categories_segments":[],"categories_sizes":[],"default_left":[0,0,0,0,0,0,0,0,0,0,0],"id":44,"left_children":[1,3,-1,5,-1,7,9,-1,-1,-1,-1],"loss_changes":[1.3048759E-1,9.881675E-3,0E0,7.5629354E-3,0E0,4.713595E-3,1.3430952E-5,0E0,0E0,0E0,0E0],"parents":[2147483647,0,0,1,1,3,3,5,5,6,6],"right_children":[2,4,-1,6,-1,8,10,-1,-1,-1,-1],"split_conditions":[1.8916286E1,1.8251661E1,-1.1759828E-2,7.5229187E0,4.634333E-3,7.5229187E0,1.8251661E1,1.0577679E-3,-7.41739E-4,-1.05424E-3,-2.8186757E-4],"split_indices":[45,45,0,0,0,27,9,0,0,0,0],"split_type":[0,0,0,0,0,0,0,0,0,0,0],"sum_hessian":[7.59E2,7.58E2,1E0,7.57E2,1E0,7.53E2,4E0,7.5E2,3E0,3E0,1E0],"tree_param":{"num_deleted":"0","num_feature":"72","num_nodes":"11","size_leaf_vector":"1"}},{"base_weights":[-1.0231716E-2,-1.1695752E-2,2.8256321E-2,-1.1121282E-2,-1.1465833E-2,-1.1368207E-2,4.518473E-3,-5.6538987E-4,-9.216933E-4],"categories":[],"categories_nodes":[],"categories_segments":[],"categories_sizes":[],"default_left":[0,0,0,0,0,0,0,0,0],"id":45,"left_children":[1,3,-1,5,-1,7,-1,-1,-1],"loss_changes":[6.6363895E-1,9.483768E-2,0E0,2.0524435E-2,0E0,1.2321025E-4,0E0,0E0,0E0],"parents":[2147483647,0,0,1,1,3,3,5,5],"right_children":[2,4,-1,6,-1,8,-1,-1,-1],"split_conditions":[1.8251661E1,1.8916286E1,2.8256321E-2,1.8251661E1,-1.1465833E-2,7.5229187E0,4.518473E-3,-5.6538987E-4,-9.216933E-4],"split_indices":[63,45,0,45,0,0,0,0,0],"split_type":[0,0,0,0,0,0,0,0,0],"sum_hessian":[7.79E2,7.78E2,1E0,7.77E2,1E0,7.76E2,1E0,7.72E2,4E0],"tree_param":{"num_deleted":"0","num_feature":"72","num_nodes":"9","size_leaf_vector":"1"}},{"base_weights":[7.975443E-3,6.5993164E-3,2.7549911E-2,7.170811E-3,-1.1179186E-2,6.9576334E-3,4.4055106E-3,3.5360843E-4,-8.7012176E-4],"categories":[],"categories_nodes":[],"categories_segments":[],"categories_sizes":[],"default_left":[0,0,0,0,0,0,0,0,0],"id":46,"left_children":[1,3,-1,5,-1,7,-1,-1,-1],"loss_changes":[5.911894E-1,1.06184244E-1,0E0,1.3086986E-2,0E0,2.335608E-3,0E0,0E0,0E0],"parents":[2147483647,0,0,1,1,3,3,5,5],"right_children":[2,4,-1,6,-1,8,-1,-1,-1],"split_conditions":[1.8251661E1,1.8916286E1,2.7549911E-2,1.8251661E1,-1.1179186E-2,7.5229187E0,4.4055106E-3,3.5360843E-4,-8.7012176E-4],"split_indices":[63,45,0,45,0,0,0,0,0],"split_type":[0,0,0,0,0,0,0,0,0],"sum_hessian":[7.95E2,7.94E2,1E0,7.93E2,1E0,7.92E2,1E0,7.89E2,3E0],"tree_param":{"num_deleted":"0","num_feature":"72","num_nodes":"9","size_leaf_vector":"1"}},{"base_weights":[-4.09883E-2,-4.2412866E-2,2.6861167E-2,-4.2686813E-2,4.295373E-3,-4.283503E-2,-5.5433105E-4,-2.1430457E-3,-5.6808745E-4],"categories":[],"categories_nodes":[],"categories_segments":[],"categories_sizes":[],"default_left":[0,0,0,0,0,0,0,0,0],"id":47,"left_children":[1,3,-1,5,-1,7,-1,-1,-1],"loss_changes":[6.6856635E-1,3.1191945E-2,0E0,3.1877756E-3,0E0,1.4674664E-4,0E0,0E0,0E0],"parents":[2147483647,0,0,1,1,3,3,5,5],"right_children":[2,4,-1,6,-1,8,-1,-1,-1],"split_conditions":[1.8251661E1,1.8251661E1,2.6861167E-2,7.5229187E0,4.295373E-3,1.5092744E1,-5.5433105E-4,-2.1430457E-3,-5.6808745E-4],"split_indices":[63,45,0,18,0,0,0,0,0],"split_type":[0,0,0,0,0,0,0,0,0],"sum_hessian":[7.83E2,7.82E2,1E0,7.81E2,1E0,7.77E2,4E0,7.76E2,1E0],"tree_param":{"num_deleted":"0","num_feature":"72","num_nodes":"9","size_leaf_vector":"1"}},{"base_weights":[-7.411253E-3,-8.982042E-3,4.0503502E-1,-8.430505E-3,-1.1007092E-2,2.6189638E-2,4.1879895E-3,-8.369503E-3,-1.6236454E-2,-4.1666106E-4,-6.653357E-4,-9.066947E-4,-2.1616723E-4],"categories":[],"categories_nodes":[],"categories_segments":[],"categories_sizes":[],"default_left":[0,0,0,0,0,0,0,0,0,0,0,0,0],"id":48,"left_children":[1,3,5,7,-1,-1,-1,9,11,-1,-1,-1,-1],"loss_changes":[5.1221275E-1,8.933411E-2,7.0589006E-2,2.3648515E-4,0E0,0E0,0E0,2.8476119E-5,3.4622964E-5,0E0,0E0,0E0,0E0],"parents":[2147483647,0,0,1,1,2,2,3,3,7,7,8,8],"right_children":[2,4,6,8,-1,-1,-1,10,12,-1,-1,-1,-1],"split_conditions":[1.8251661E1,1.8251661E1,7.5229187E0,7.5229187E0,-1.1007092E-2,2.6189638E-2,4.1879895E-3,7.5229187E0,1.8251661E1,-4.1666106E-4,-6.653357E-4,-9.066947E-4,-2.1616723E-4],"split_indices":[54,45,45,0,0,0,0,36,9,0,0,0,0],"split_type":[0,0,0,0,0,0,0,0,0,0,0,0,0],"sum_hessian":[7.84E2,7.82E2,2E0,7.81E2,1E0,1E0,1E0,7.77E2,4E0,7.74E2,3E0,3E0,1E0],"tree_param":{"num_deleted":"0","num_feature":"72","num_nodes":"13","size_leaf_vector":"1"}},{"base_weights":[1.0969128E-2,9.685232E-3,2.5534892E-2,1.0243707E-2,-1.0731914E-2,1.0048691E-2,4.083288E-3,5.100172E-4,-7.8246015E-4],"categories":[],"categories_nodes":[],"categories_segments":[],"categories_sizes":[],"default_left":[0,0,0,0,0,0,0,0,0],"id":49,"left_children":[1,3,-1,5,-1,7,-1,-1,-1],"loss_changes":[5.006345E-1,1.0079341E-1,0E0,1.0127142E-2,0E0,3.2188892E-3,0E0,0E0,0E0],"parents":[2147483647,0,0,1,1,3,3,5,5],"right_children":[2,4,-1,6,-1,8,-1,-1,-1],"split_conditions":[1.8251661E1,1.8916286E1,2.5534892E-2,1.8251661E1,-1.0731914E-2,7.5229187E0,4.083288E-3,5.100172E-4,-7.8246015E-4],"split_indices":[63,45,0,45,0,0,0,0,0],"split_type":[0,0,0,0,0,0,0,0,0],"sum_hessian":[7.87E2,7.86E2,1E0,7.85E2,1E0,7.84E2,1E0,7.8E2,4E0],"tree_param":{"num_deleted":"0","num_feature":"72","num_nodes":"9","size_leaf_vector":"1"}},{"base_weights":[1.2330541E-2,1.2939045E-2,-1.4816515E-1,1.3104459E-2,-1.5023235E-2,-1.0463617E-2,-6.4877E-4,6.586883E-4,-4.4683498E-4,-8.433514E-4,-1.9120156E-4],"categories":[],"categories_nodes":[],"categories_segments":[],"categories_sizes":[],"default_left":[0,0,0,0,0,0,0,0,0,0,0],"id":50,"left_children":[1,3,5,7,9,-1,-1,-1,-1,-1,-1],"loss_changes":[7.741004E-2,3.76302E-3,2.20678E-2,1.2893975E-3,3.8745115E-5,0E0,0E0,0E0,0E0,0E0,0E0],"parents":[2147483647,0,0,1,1,2,2,3,3,4,4],"right_children":[2,4,6,8,10,-1,-1,-1,-1,-1,-1],"split_conditions":[1.8251661E1,7.5229187E0,1.8916286E1,7.5229187E0,1.8251661E1,-1.0463617E-2,-6.4877E-4,6.586883E-4,-4.4683498E-4,-8.433514E-4,-1.9120156E-4],"split_indices":[36,0,36,18,9,0,0,0,0,0,0],"split_type":[0,0,0,0,0,0,0,0,0,0,0],"sum_hessian":[7.72E2,7.7E2,2E0,7.66E2,4E0,1E0,1E0,7.64E2,2E0,3E0,1E0],"tree_param":{"num_deleted":"0","num_feature":"72","num_nodes":"11","size_leaf_vector":"1"}},{"base_weights":[1.8084409E-2,9.453929E-3,1.685307E-1,9.990606E-3,-1.0202026E-2,9.799359E-3,3.9647343E-3,4.9457996E-4,-5.2494527E-4],"categories":[],"categories_nodes":[],"categories_segments":[],"categories_sizes":[],"default_left":[0,0,0,0,0,0,0,0,0],"id":51,"left_children":[1,3,-1,5,-1,7,-1,-1,-1],"loss_changes":[2.2536606E1,9.129446E-2,0E0,9.534709E-3,0E0,1.5586391E-3,0E0,0E0,0E0],"parents":[2147483647,0,0,1,1,3,3,5,5],"right_children":[2,4,-1,6,-1,8,-1,-1,-1],"split_conditions":[1.8251661E1,1.8916286E1,1.685307E-1,1.8251661E1,-1.0202026E-2,7.5229187E0,3.9647343E-3,4.9457996E-4,-5.2494527E-4],"split_indices":[63,45,0,45,0,9,0,0,0],"split_type":[0,0,0,0,0,0,0,0,0],"sum_hessian":[7.79E2,7.78E2,1E0,7.77E2,1E0,7.76E2,1E0,7.73E2,3E0],"tree_param":{"num_deleted":"0","num_feature":"72","num_nodes":"9","size_leaf_vector":"1"}},{"base_weights":[9.2825005E-3,8.24783E-3,2.0666791E-2,8.062309E-3,3.8656176E-3,8.194237E-3,-1.4262933E-2,4.1241138E-4,-4.3143434E-4,-8.0478436E-4,-1.7329789E-4],"categories":[],"categories_nodes":[],"categories_segments":[],"categories_sizes":[],"default_left":[0,0,0,0,0,0,0,0,0,0,0],"id":52,"left_children":[1,3,-1,5,-1,7,9,-1,-1,-1,-1],"loss_changes":[3.272777E-1,9.498946E-3,0E0,2.4407431E-3,0E0,7.841699E-4,4.3153996E-5,0E0,0E0,0E0,0E0],"parents":[2147483647,0,0,1,1,3,3,5,5,6,6],"right_children":[2,4,-1,6,-1,8,10,-1,-1,-1,-1],"split_conditions":[1.8251661E1,1.5092744E1,2.0666791E-2,7.5229187E0,3.8656176E-3,7.5229187E0,1.8251661E1,4.1241138E-4,-4.3143434E-4,-8.0478436E-4,-1.7329789E-4],"split_indices":[63,45,0,0,0,18,9,0,0,0,0],"split_type":[0,0,0,0,0,0,0,0,0,0,0],"sum_hessian":[7.9E2,7.89E2,1E0,7.88E2,1E0,7.84E2,4E0,7.82E2,2E0,3E0,1E0],"tree_param":{"num_deleted":"0","num_feature":"72","num_nodes":"11","size_leaf_vector":"1"}},{"base_weights":[-1.5735502E-3,-1.1023078E-2,2.4526784E0,-1.0520865E-2,-1.0043616E-2,1.6380076E-1,2.0150114E-2,-5.3642166E-4,3.7689747E-3],"categories":[],"categories_nodes":[],"categories_segments":[],"categories_sizes":[],"default_left":[0,0,0,0,0,0,0,0,0],"id":53,"left_children":[1,3,5,7,-1,-1,-1,-1,-1],"loss_changes":[1.8139614E1,7.216017E-2,3.7424793E0,1.4680527E-2,0E0,0E0,0E0,0E0,0E0],"parents":[2147483647,0,0,1,1,2,2,3,3],"right_children":[2,4,6,8,-1,-1,-1,-1,-1],"split_conditions":[1.8251661E1,1.8916286E1,7.5229187E0,1.8251661E1,-1.0043616E-2,1.6380076E-1,2.0150114E-2,-5.3642166E-4,3.7689747E-3],"split_indices":[63,45,54,45,0,0,0,0,0],"split_type":[0,0,0,0,0,0,0,0,0],"sum_hessian":[7.8E2,7.78E2,2E0,7.77E2,1E0,1E0,1E0,7.76E2,1E0],"tree_param":{"num_deleted":"0","num_feature":"72","num_nodes":"9","size_leaf_vector":"1"}},{"base_weights":[7.947286E-3,-2.853367E-4,1.5970574E-1,2.2036831E-4,-9.792525E-3,3.0798235E-4,-1.3316265E-2,1.8477707E-5,-7.7785307E-4,-7.5448916E-4,-1.555549E-4],"categories":[],"categories_nodes":[],"categories_segments":[],"categories_sizes":[],"default_left":[0,0,0,0,0,0,0,0,0,0,0],"id":54,"left_children":[1,3,-1,5,-1,7,9,-1,-1,-1,-1],"loss_changes":[2.035579E1,7.668933E-2,0E0,9.220644E-4,0E0,7.5791555E-4,4.3549517E-5,0E0,0E0,0E0,0E0],"parents":[2147483647,0,0,1,1,3,3,5,5,6,6],"right_children":[2,4,-1,6,-1,8,10,-1,-1,-1,-1],"split_conditions":[1.5092744E1,1.5092744E1,1.5970574E-1,7.5229187E0,-9.792525E-3,7.5229187E0,1.8251661E1,1.8477707E-5,-7.7785307E-4,-7.5448916E-4,-1.555549E-4],"split_indices":[63,54,0,0,0,36,9,0,0,0,0],"split_type":[0,0,0,0,0,0,0,0,0,0,0],"sum_hessian":[7.75E2,7.74E2,1E0,7.73E2,1E0,7.69E2,4E0,7.67E2,2E0,3E0,1E0],"tree_param":{"num_deleted":"0","num_feature":"72","num_nodes":"11","size_leaf_vector":"1"}},{"base_weights":[-2.3742316E-2,-3.25014E-2,2.2848904E0,-3.2057423E-2,-9.547712E-3,1.5571308E-1,1.5653705E-2,-3.216914E-2,-4.0756498E-4,-1.609701E-3,-3.1788947E-4],"categories":[],"categories_nodes":[],"categories_segments":[],"categories_sizes":[],"default_left":[0,0,0,0,0,0,0,0,0,0,0],"id":55,"left_children":[1,3,5,7,-1,-1,-1,9,-1,-1,-1],"loss_changes":[1.604925E1,4.9313426E-2,3.9311085E0,1.8395782E-3,0E0,0E0,0E0,2.9808283E-4,0E0,0E0,0E0],"parents":[2147483647,0,0,1,1,2,2,3,3,7,7],"right_children":[2,4,6,8,-1,-1,-1,10,-1,-1,-1],"split_conditions":[1.8251661E1,1.8916286E1,1.8916286E1,7.5229187E0,-9.547712E-3,1.5571308E-1,1.5653705E-2,1.8251661E1,-4.0756498E-4,-1.609701E-3,-3.1788947E-4],"split_indices":[63,45,63,18,0,0,0,45,0,0,0],"split_type":[0,0,0,0,0,0,0,0,0,0,0],"sum_hessian":[7.89E2,7.87E2,2E0,7.86E2,1E0,1E0,1E0,7.82E2,4E0,7.81E2,1E0],"tree_param":{"num_deleted":"0","num_feature":"72","num_nodes":"11","size_leaf_vector":"1"}},{"base_weights":[1.9842627E-2,1.194058E-2,1.5182026E-1,1.2442934E-2,-9.309019E-3,1.25412885E-2,-9.404221E-3,6.3050934E-4,-4.546702E-4,-6.684563E-4,-1.813105E-4],"categories":[],"categories_nodes":[],"categories_segments":[],"categories_sizes":[],"default_left":[0,0,0,0,0,0,0,0,0,0,0],"id":56,"left_children":[1,3,-1,5,-1,7,9,-1,-1,-1,-1],"loss_changes":[1.8246737E1,7.8554325E-2,0E0,1.7617345E-3,0E0,1.250498E-3,4.315781E-5,0E0,0E0,0E0,0E0],"parents":[2147483647,0,0,1,1,3,3,5,5,6,6],"right_children":[2,4,-1,6,-1,8,10,-1,-1,-1,-1],"split_conditions":[1.5092744E1,1.8251661E1,1.5182026E-1,7.5229187E0,-9.309019E-3,7.5229187E0,7.5229187E0,6.3050934E-4,-4.546702E-4,-6.684563E-4,-1.813105E-4],"split_indices":[63,45,0,27,0,0,18,0,0,0,0],"split_type":[0,0,0,0,0,0,0,0,0,0,0],"sum_hessian":[7.66E2,7.65E2,1E0,7.64E2,1E0,7.61E2,3E0,7.59E2,2E0,1E0,2E0],"tree_param":{"num_deleted":"0","num_feature":"72","num_nodes":"11","size_leaf_vector":"1"}},{"base_weights":[1.0670887E-2,1.1379687E-2,-8.7878285E-3,1.080104E-2,1.1466861E-2,1.0904355E-2,-1.1787369E-2,5.4625433E-4,-1.2595611E-4,-6.945285E-4,-1.3694415E-4],"categories":[],"categories_nodes":[],"categories_segments":[],"categories_sizes":[],"default_left":[0,0,0,0,0,0,0,0,0,0,0],"id":57,"left_children":[1,3,-1,5,-1,7,9,-1,-1,-1,-1],"loss_changes":[1.04540564E-1,9.51403E-2,0E0,1.9325092E-3,0E0,2.4179369E-4,3.807852E-5,0E0,0E0,0E0,0E0],"parents":[2147483647,0,0,1,1,3,3,5,5,6,6],"right_children":[2,4,-1,6,-1,8,10,-1,-1,-1,-1],"split_conditions":[1.5092744E1,7.5229187E0,-8.7878285E-3,7.5229187E0,1.1466861E-2,7.5229187E0,1.8251661E1,5.4625433E-4,-1.2595611E-4,-6.945285E-4,-1.3694415E-4],"split_indices":[45,63,0,0,0,27,0,0,0,0,0],"split_type":[0,0,0,0,0,0,0,0,0,0,0],"sum_hessian":[7.75E2,7.73E2,2E0,7.72E2,1E0,7.69E2,3E0,7.68E2,1E0,2E0,1E0],"tree_param":{"num_deleted":"0","num_feature":"72","num_nodes":"11","size_leaf_vector":"1"}},{"base_weights":[-2.0236762E-2,-2.0058641E-2,-3.885752E-3,-2.010718E-2,-8.717554E-3,-1.0059433E-3,-2.8240084E-4,-9.66887E-3,-1.228072E-4,-5.5557763E-4,-1.3352055E-4],"categories":[],"categories_nodes":[],"categories_segments":[],"categories_sizes":[],"default_left":[0,0,0,0,0,0,0,0,0,0,0],"id":58,"left_children":[1,3,-1,5,7,-1,-1,9,-1,-1,-1],"loss_changes":[6.2220693E-3,2.425611E-4,0E0,1.3947487E-5,6.0347666E-6,0E0,0E0,1.0713789E-5,0E0,0E0,0E0],"parents":[2147483647,0,0,1,1,3,3,4,4,7,7],"right_children":[2,4,-1,6,8,-1,-1,10,-1,-1,-1],"split_conditions":[1.8251661E1,7.5229187E0,-3.885752E-3,1.8251661E1,1.8916286E1,-1.0059433E-3,-2.8240084E-4,7.5229187E0,-1.228072E-4,-5.5557763E-4,-1.3352055E-4],"split_indices":[45,27,0,0,27,0,0,0,0,0,0],"split_type":[0,0,0,0,0,0,0,0,0,0,0],"sum_hessian":[7.59E2,7.58E2,1E0,7.54E2,4E0,7.53E2,1E0,3E0,1E0,2E0,1E0],"tree_param":{"num_deleted":"0","num_feature":"72","num_nodes":"11","size_leaf_vector":"1"}},{"base_weights":[1.8001337E-2,9.926318E-3,2.119581E0,1.0594404E-2,-8.365375E-3,1.4776324E-1,1.120534E-2,1.0719075E-2,-1.08983405E-2,5.404221E-4,-4.6266234E-4,-6.16055E-4,-1.3018253E-4],"categories":[],"categories_nodes":[],"categories_segments":[],"categories_sizes":[],"default_left":[0,0,0,0,0,0,0,0,0,0,0,0,0],"id":59,"left_children":[1,3,5,7,-1,-1,-1,9,11,-1,-1,-1,-1],"loss_changes":[1.3300643E1,9.4485536E-2,4.089755E0,2.2095293E-3,0E0,0E0,0E0,1.4868602E-3,2.6926922E-5,0E0,0E0,0E0,0E0],"parents":[2147483647,0,0,1,1,2,2,3,3,7,7,8,8],"right_children":[2,4,6,8,-1,-1,-1,10,12,-1,-1,-1,-1],"split_conditions":[1.8251661E1,7.5229187E0,1.8916286E1,7.5229187E0,-8.365375E-3,1.4776324E-1,1.120534E-2,7.5229187E0,1.8251661E1,5.404221E-4,-4.6266234E-4,-6.16055E-4,-1.3018253E-4],"split_indices":[63,63,63,0,0,0,0,27,9,0,0,0,0],"split_type":[0,0,0,0,0,0,0,0,0,0,0,0,0],"sum_hessian":[7.84E2,7.82E2,2E0,7.8E2,2E0,1E0,1E0,7.76E2,4E0,7.73E2,3E0,3E0,1E0],"tree_param":{"num_deleted":"0","num_feature":"72","num_nodes":"13","size_leaf_vector":"1"}},{"base_weights":[1.6317647E-2,1.5786473E-2,1.0925198E-2,1.623881E-2,-8.55032E-3,1.6360832E-2,-5.9295294E-4,8.2343695E-4,-4.453125E-4],"categories":[],"categories_nodes":[],"categories_segments":[],"categories_sizes":[],"default_left":[0,0,0,0,0,0,0,0,0],"id":60,"left_children":[1,3,-1,5,-1,7,-1,-1,-1],"loss_changes":[8.171579E-2,6.96958E-2,0E0,2.9060096E-3,0E0,2.2951663E-3,0E0,0E0,0E0],"parents":[2147483647,0,0,1,1,3,3,5,5],"right_children":[2,4,-1,6,-1,8,-1,-1,-1],"split_conditions":[1.8251661E1,1.8251661E1,1.0925198E-2,7.5229187E0,-8.55032E-3,7.5229187E0,-5.9295294E-4,8.2343695E-4,-4.453125E-4],"split_indices":[54,45,0,0,0,27,0,0,0],"split_type":[0,0,0,0,0,0,0,0,0],"sum_hessian":[7.92E2,7.91E2,1E0,7.9E2,1E0,7.87E2,3E0,7.84E2,3E0],"tree_param":{"num_deleted":"0","num_feature":"72","num_nodes":"9","size_leaf_vector":"1"}},{"base_weights":[1.5343348E-2,8.050709E-3,1.4404857E-1,8.691507E-3,-8.126113E-3,8.800086E-3,-1.0028308E-2,4.438996E-4,-4.2861328E-4,-5.707172E-4,-1.12104135E-4],"categories":[],"categories_nodes":[],"categories_segments":[],"categories_sizes":[],"default_left":[0,0,0,0,0,0,0,0,0,0,0],"id":61,"left_children":[1,3,-1,5,-1,7,9,-1,-1,-1,-1],"loss_changes":[1.646532E1,8.754332E-2,0E0,1.6858354E-3,0E0,1.1344813E-3,2.8368027E-5,0E0,0E0,0E0,0E0],"parents":[2147483647,0,0,1,1,3,3,5,5,6,6],"right_children":[2,4,-1,6,-1,8,10,-1,-1,-1,-1],"split_conditions":[1.8251661E1,1.8251661E1,1.4404857E-1,7.5229187E0,-8.126113E-3,7.5229187E0,1.8251661E1,4.438996E-4,-4.2861328E-4,-5.707172E-4,-1.12104135E-4],"split_indices":[63,45,0,0,0,36,9,0,0,0,0],"split_type":[0,0,0,0,0,0,0,0,0,0,0],"sum_hessian":[7.88E2,7.87E2,1E0,7.85E2,2E0,7.81E2,4E0,7.78E2,3E0,3E0,1E0],"tree_param":{"num_deleted":"0","num_feature":"72","num_nodes":"11","size_leaf_vector":"1"}},{"base_weights":[1.5558092E-2,8.053217E-3,1.9666427E0,8.678116E-3,-7.855243E-3,1.4044736E-1,7.050848E-3,8.759061E-3,-9.214898E-3,4.3873992E-4,-8.632232E-5,-5.414588E-4,-1.0930153E-4],"categories":[],"categories_nodes":[],"categories_segments":[],"categories_sizes":[],"default_left":[0,0,0,0,0,0,0,0,0,0,0,0,0],"id":62,"left_children":[1,3,5,7,-1,-1,-1,9,11,-1,-1,-1,-1],"loss_changes":[1.1463996E1,8.2071304E-2,4.2170897E0,1.2104213E-3,0E0,0E0,0E0,1.4335662E-4,2.1713291E-5,0E0,0E0,0E0,0E0],"parents":[2147483647,0,0,1,1,2,2,3,3,7,7,8,8],"right_children":[2,4,6,8,-1,-1,-1,10,12,-1,-1,-1,-1],"split_conditions":[1.8251661E1,1.5092744E1,7.5229187E0,7.5229187E0,-7.855243E-3,1.4044736E-1,7.050848E-3,7.5229187E0,1.8251661E1,4.3873992E-4,-8.632232E-5,-5.414588E-4,-1.0930153E-4],"split_indices":[63,45,54,0,0,0,0,18,9,0,0,0,0],"split_type":[0,0,0,0,0,0,0,0,0,0,0,0,0],"sum_hessian":[7.83E2,7.81E2,2E0,7.79E2,2E0,1E0,1E0,7.76E2,3E0,7.75E2,1E0,2E0,1E0],"tree_param":{"num_deleted":"0","num_feature":"72","num_nodes":"13","size_leaf_vector":"1"}},{"base_weights":[-1.08872475E-2,-1.8405743E-2,1.9174767E0,-1.7859016E-2,-7.593403E-3,1.3693617E-1,6.874585E-3,-1.7902967E-2,-7.5891297E-3,-8.958296E-4,-1.8836402E-4,-4.2103612E-4,-1.06568994E-4],"categories":[],"categories_nodes":[],"categories_segments":[],"categories_sizes":[],"default_left":[0,0,0,0,0,0,0,0,0,0,0,0,0],"id":63,"left_children":[1,3,5,7,-1,-1,-1,9,11,-1,-1,-1,-1],"loss_changes":[1.1199058E1,5.3326756E-2,4.0088673E0,2.0989776E-4,0E0,0E0,0E0,7.925928E-5,4.7453505E-6,0E0,0E0,0E0,0E0],"parents":[2147483647,0,0,1,1,2,2,3,3,7,7,8,8],"right_children":[2,4,6,8,-1,-1,-1,10,12,-1,-1,-1,-1],"split_conditions":[1.8251661E1,1.8251661E1,7.5229187E0,7.5229187E0,-7.593403E-3,1.3693617E-1,6.874585E-3,7.5229187E0,1.8916286E1,-8.958296E-4,-1.8836402E-4,-4.2103612E-4,-1.06568994E-4],"split_indices":[63,45,54,9,0,0,0,27,9,0,0,0,0],"split_type":[0,0,0,0,0,0,0,0,0,0,0,0,0],"sum_hessian":[7.69E2,7.67E2,2E0,7.65E2,2E0,1E0,1E0,7.61E2,4E0,7.6E2,1E0,3E0,1E0],"tree_param":{"num_deleted":"0","num_feature":"72","num_nodes":"13","size_leaf_vector":"1"}},{"base_weights":[-1.902089E-2,-1.938297E-2,6.7027095E-3,-1.9242633E-2,-3.2632411E-3,-9.648597E-4,-1.8350744E-4],"categories":[],"categories_nodes":[],"categories_segments":[],"categories_sizes":[],"default_left":[0,0,0,0,0,0,0],"id":64,"left_children":[1,3,-1,5,-1,-1,-1],"loss_changes":[4.6606094E-2,3.8501918E-3,0E0,6.020963E-4,0E0,0E0,0E0],"parents":[2147483647,0,0,1,1,3,3],"right_children":[2,4,-1,6,-1,-1,-1],"split_conditions":[1.8251661E1,1.5092744E1,6.7027095E-3,7.5229187E0,-3.2632411E-3,-9.648597E-4,-1.8350744E-4],"split_indices":[63,54,0,27,0,0,0],"split_type":[0,0,0,0,0,0,0],"sum_hessian":[7.93E2,7.92E2,1E0,7.91E2,1E0,7.88E2,3E0],"tree_param":{"num_deleted":"0","num_feature":"72","num_nodes":"7","size_leaf_vector":"1"}},{"base_weights":[-9.4685685E-3,-8.929667E-3,-7.231515E-3,-9.281209E-3,6.5351487E-3,-9.289394E-3,-7.486747E-5,-4.6481632E-4,-9.931709E-5],"categories":[],"categories_nodes":[],"categories_segments":[],"categories_sizes":[],"default_left":[0,0,0,0,0,0,0,0,0],"id":65,"left_children":[1,3,-1,5,-1,7,-1,-1,-1],"loss_changes":[5.4940052E-2,3.900984E-2,0E0,3.5084784E-5,0E0,2.041459E-5,0E0,0E0,0E0],"parents":[2147483647,0,0,1,1,3,3,5,5],"right_children":[2,4,-1,6,-1,8,-1,-1,-1],"split_conditions":[1.8251661E1,1.5092744E1,-7.231515E-3,1.8916286E1,6.5351487E-3,1.8251661E1,-7.486747E-5,-4.6481632E-4,-9.931709E-5],"split_indices":[45,54,0,27,0,0,0,0,0],"split_type":[0,0,0,0,0,0,0,0,0],"sum_hessian":[7.71E2,7.69E2,2E0,7.68E2,1E0,7.67E2,1E0,7.66E2,1E0],"tree_param":{"num_deleted":"0","num_feature":"72","num_nodes":"9","size_leaf_vector":"1"}},{"base_weights":[-3.2294067E-3,-1.028565E-2,1.8630476E0,-9.781407E-3,-6.990466E-3,1.3335681E-1,6.3717603E-3,-4.898796E-4,-1.1321997E-4],"categories":[],"categories_nodes":[],"categories_segments":[],"categories_sizes":[],"default_left":[0,0,0,0,0,0,0,0,0],"id":66,"left_children":[1,3,5,7,-1,-1,-1,-1,-1],"loss_changes":[1.0488442E1,5.0424457E-2,3.8468714E0,7.405132E-5,0E0,0E0,0E0,0E0,0E0],"parents":[2147483647,0,0,1,1,2,2,3,3],"right_children":[2,4,6,8,-1,-1,-1,-1,-1],"split_conditions":[1.8251661E1,1.5092744E1,7.5229187E0,1.5092744E1,-6.990466E-3,1.3335681E-1,6.3717603E-3,-4.898796E-4,-1.1321997E-4],"split_indices":[63,45,54,18,0,0,0,0,0],"split_type":[0,0,0,0,0,0,0,0,0],"sum_hessian":[7.94E2,7.92E2,2E0,7.9E2,2E0,1E0,1E0,7.88E2,2E0],"tree_param":{"num_deleted":"0","num_feature":"72","num_nodes":"9","size_leaf_vector":"1"}},{"base_weights":[1.65238E-2,1.7078156E-2,-6.7574508E-3,1.6785217E-2,6.212473E-3,1.691128E-2,-6.3889544E-3,8.466225E-4,7.314817E-6,-3.5230783E-4,-9.400366E-5],"categories":[],"categories_nodes":[],"categories_segments":[],"categories_sizes":[],"default_left":[0,0,0,0,0,0,0,0,0,0,0],"id":67,"left_children":[1,3,-1,5,-1,7,9,-1,-1,-1,-1],"loss_changes":[6.898399E-2,2.2747487E-2,0E0,2.415955E-3,0E0,2.7649105E-4,1.5689438E-6,0E0,0E0,0E0,0E0],"parents":[2147483647,0,0,1,1,3,3,5,5,6,6],"right_children":[2,4,-1,6,-1,8,10,-1,-1,-1,-1],"split_conditions":[1.8251661E1,1.5092744E1,-6.7574508E-3,7.5229187E0,6.212473E-3,7.5229187E0,1.8916286E1,8.466225E-4,7.314817E-6,-3.5230783E-4,-9.400366E-5],"split_indices":[45,54,0,9,0,27,9,0,0,0,0],"split_type":[0,0,0,0,0,0,0,0,0,0,0],"sum_hessian":[7.92E2,7.9E2,2E0,7.89E2,1E0,7.85E2,4E0,7.84E2,1E0,3E0,1E0],"tree_param":{"num_deleted":"0","num_feature":"72","num_nodes":"11","size_leaf_vector":"1"}},{"base_weights":[-1.9079335E-3,-8.935251E-3,1.8141184E0,-8.451342E-3,-6.532202E-3,1.3000171E-1,6.057167E-3,-8.469986E-3,-8.4288284E-4,-4.238112E-4,-9.165357E-5,7.131947E-6,-7.0348164E-5],"categories":[],"categories_nodes":[],"categories_segments":[],"categories_sizes":[],"default_left":[0,0,0,0,0,0,0,0,0,0,0,0,0],"id":68,"left_children":[1,3,5,7,-1,-1,-1,9,11,-1,-1,-1,-1],"loss_changes":[9.932123E0,4.4540256E-2,3.676631E0,1.0250509E-4,0E0,0E0,0E0,1.6391277E-5,1.8684282E-6,0E0,0E0,0E0,0E0],"parents":[2147483647,0,0,1,1,2,2,3,3,7,7,8,8],"right_children":[2,4,6,8,-1,-1,-1,10,12,-1,-1,-1,-1],"split_conditions":[1.8251661E1,1.8251661E1,7.5229187E0,7.5229187E0,-6.532202E-3,1.3000171E-1,6.057167E-3,1.5092744E1,7.5229187E0,-4.238112E-4,-9.165357E-5,7.131947E-6,-7.0348164E-5],"split_indices":[63,45,54,36,0,0,0,18,18,0,0,0,0],"split_type":[0,0,0,0,0,0,0,0,0,0,0,0,0],"sum_hessian":[7.76E2,7.74E2,2E0,7.72E2,2E0,1E0,1E0,7.7E2,2E0,7.69E2,1E0,1E0,1E0],"tree_param":{"num_deleted":"0","num_feature":"72","num_nodes":"13","size_leaf_vector":"1"}},{"base_weights":[-1.0031083E-2,-1.6859747E-2,1.7687654E0,-1.6416112E-2,-6.3144616E-3,1.2675166E-1,5.9057474E-3,-1.6477037E-2,-3.7017774E-3,-8.2453334E-4,-1.4853092E-4,6.953648E-6,-2.3483792E-4],"categories":[],"categories_nodes":[],"categories_segments":[],"categories_sizes":[],"default_left":[0,0,0,0,0,0,0,0,0,0,0,0,0],"id":69,"left_children":[1,3,5,7,-1,-1,-1,9,11,-1,-1,-1,-1],"loss_changes":[9.528623E0,3.5793304E-2,3.4950962E0,5.416572E-4,0E0,0E0,0E0,9.3489885E-5,1.976105E-5,0E0,0E0,0E0,0E0],"parents":[2147483647,0,0,1,1,2,2,3,3,7,7,8,8],"right_children":[2,4,6,8,-1,-1,-1,10,12,-1,-1,-1,-1],"split_conditions":[1.8251661E1,1.8251661E1,7.5229187E0,7.5229187E0,-6.3144616E-3,1.2675166E-1,5.9057474E-3,1.5092744E1,7.5229187E0,-8.2453334E-4,-1.4853092E-4,6.953648E-6,-2.3483792E-4],"split_indices":[63,45,54,27,0,0,0,0,18,0,0,0,0],"split_type":[0,0,0,0,0,0,0,0,0,0,0,0,0],"sum_hessian":[7.81E2,7.79E2,2E0,7.77E2,2E0,1E0,1E0,7.73E2,4E0,7.72E2,1E0,1E0,3E0],"tree_param":{"num_deleted":"0","num_feature":"72","num_nodes":"13","size_leaf_vector":"1"}},{"base_weights":[1.7105795E-2,1.0575393E-2,1.7245461E0,1.1068883E-2,-6.103979E-3,1.2358286E-1,5.758095E-3,1.11479545E-2,-7.1568536E-3,5.604732E-4,-1.8089595E-4,-4.2146273E-4,-8.3491286E-5],"categories":[],"categories_nodes":[],"categories_segments":[],"categories_sizes":[],"default_left":[0,0,0,0,0,0,0,0,0,0,0,0,0],"id":70,"left_children":[1,3,5,7,-1,-1,-1,9,11,-1,-1,-1,-1],"loss_changes":[8.779326E0,5.287136E-2,3.322527E0,1.211077E-3,0E0,0E0,0E0,7.5078756E-4,1.3851401E-5,0E0,0E0,0E0,0E0],"parents":[2147483647,0,0,1,1,2,2,3,3,7,7,8,8],"right_children":[2,4,6,8,-1,-1,-1,10,12,-1,-1,-1,-1],"split_conditions":[1.8251661E1,1.8251661E1,7.5229187E0,7.5229187E0,-6.103979E-3,1.2358286E-1,5.758095E-3,7.5229187E0,1.5092744E1,5.604732E-4,-1.8089595E-4,-4.2146273E-4,-8.3491286E-5],"split_indices":[63,45,54,0,0,0,0,27,18,0,0,0,0],"split_type":[0,0,0,0,0,0,0,0,0,0,0,0,0],"sum_hessian":[7.88E2,7.86E2,2E0,7.84E2,2E0,1E0,1E0,7.81E2,3E0,7.78E2,3E0,2E0,1E0],"tree_param":{"num_deleted":"0","num_feature":"72","num_nodes":"13","size_leaf_vector":"1"}},{"base_weights":[-1.54080205E-2,-7.7154953E-4,-2.1001296E-4],"categories":[],"categories_nodes":[],"categories_segments":[],"categories_sizes":[],"default_left":[0,0,0],"id":71,"left_children":[1,-1,-1],"loss_changes":[1.398772E-4,0E0,0E0],"parents":[2147483647,0,0],"right_children":[2,-1,-1],"split_conditions":[7.5229187E0,-7.7154953E-4,-2.1001296E-4],"split_indices":[0,0,0],"split_type":[0,0,0],"sum_hessian":[7.94E2,7.92E2,2E0],"tree_param":{"num_deleted":"0","num_feature":"72","num_nodes":"3","size_leaf_vector":"1"}},{"base_weights":[1.8907059E-2,1.2419978E-2,1.6819468E0,1.2780993E-2,-6.6480725E-3,1.2051258E-1,5.633426E-3,1.2847892E-2,-4.3138504E-4,6.4566865E-4,-1.4517925E-4],"categories":[],"categories_nodes":[],"categories_segments":[],"categories_sizes":[],"default_left":[0,0,0,0,0,0,0,0,0,0,0],"id":72,"left_children":[1,3,5,7,-1,-1,-1,9,-1,-1,-1],"loss_changes":[8.329233E0,4.2217746E-2,3.1571798E0,1.2150854E-3,0E0,0E0,0E0,8.3065033E-4,0E0,0E0,0E0],"parents":[2147483647,0,0,1,1,2,2,3,3,7,7],"right_children":[2,4,6,8,-1,-1,-1,10,-1,-1,-1],"split_conditions":[1.5092744E1,1.5092744E1,7.5229187E0,7.5229187E0,-6.6480725E-3,1.2051258E-1,5.633426E-3,7.5229187E0,-4.3138504E-4,6.4566865E-4,-1.4517925E-4],"split_indices":[63,54,54,0,0,0,0,36,0,0,0],"split_type":[0,0,0,0,0,0,0,0,0,0,0],"sum_hessian":[7.73E2,7.71E2,2E0,7.7E2,1E0,1E0,1E0,7.68E2,2E0,7.65E2,3E0],"tree_param":{"num_deleted":"0","num_feature":"72","num_nodes":"11","size_leaf_vector":"1"}},{"base_weights":[1.8286813E-2,1.1961527E-2,1.639898E0,1.2449054E-2,-5.857883E-3,1.1749976E-1,5.4925918E-3,1.25563145E-2,-6.472988E-3,6.310168E-4,-1.3973503E-4,-4.1700556E-4,-1.2241013E-4],"categories":[],"categories_nodes":[],"categories_segments":[],"categories_sizes":[],"default_left":[0,0,0,0,0,0,0,0,0,0,0,0,0],"id":73,"left_children":[1,3,5,7,-1,-1,-1,9,11,-1,-1,-1,-1],"loss_changes":[7.9194207E0,5.0055236E-2,3.0012932E0,1.6440451E-3,0E0,0E0,0E0,7.880777E-4,1.7155573E-5,0E0,0E0,0E0,0E0],"parents":[2147483647,0,0,1,1,2,2,3,3,7,7,8,8],"right_children":[2,4,6,8,-1,-1,-1,10,12,-1,-1,-1,-1],"split_conditions":[1.8251661E1,1.8251661E1,1.8916286E1,7.5229187E0,-5.857883E-3,1.1749976E-1,5.4925918E-3,7.5229187E0,1.8251661E1,6.310168E-4,-1.3973503E-4,-4.1700556E-4,-1.2241013E-4],"split_indices":[63,45,63,0,0,0,0,27,0,0,0,0,0],"split_type":[0,0,0,0,0,0,0,0,0,0,0,0,0],"sum_hessian":[7.73E2,7.71E2,2E0,7.69E2,2E0,1E0,1E0,7.65E2,4E0,7.62E2,3E0,2E0,2E0],"tree_param":{"num_deleted":"0","num_feature":"72","num_nodes":"13","size_leaf_vector":"1"}},{"base_weights":[6.89077E-3,1.0019668E-3,1.1456227E-1,1.4429488E-3,-5.662619E-3,1.483114E-3,-6.6696685E-3,7.433433E-5,-3.178452E-5,-4.0310537E-4,-6.23088E-5],"categories":[],"categories_nodes":[],"categories_segments":[],"categories_sizes":[],"default_left":[0,0,0,0,0,0,0,0,0,0,0],"id":74,"left_children":[1,3,-1,5,-1,7,9,-1,-1,-1,-1],"loss_changes":[1.046345E1,3.931187E-2,0E0,2.6242167E-4,0E0,6.788643E-6,2.0160704E-5,0E0,0E0,0E0,0E0],"parents":[2147483647,0,0,1,1,3,3,5,5,6,6],"right_children":[2,4,-1,6,-1,8,10,-1,-1,-1,-1],"split_conditions":[1.8251661E1,1.8251661E1,1.1456227E-1,7.5229187E0,-5.662619E-3,7.5229187E0,1.8251661E1,7.433433E-5,-3.178452E-5,-4.0310537E-4,-6.23088E-5],"split_indices":[63,45,0,0,0,18,0,0,0,0,0],"split_type":[0,0,0,0,0,0,0,0,0,0,0],"sum_hessian":[7.77E2,7.76E2,1E0,7.74E2,2E0,7.71E2,3E0,7.7E2,1E0,2E0,1E0],"tree_param":{"num_deleted":"0","num_feature":"72","num_nodes":"11","size_leaf_vector":"1"}},{"base_weights":[-2.2230431E-2,-2.2382213E-2,2.4912357E-3,-2.2477742E-2,-2.640081E-3,-2.2521207E-2,-1.7188587E-4,-5.588554E-4,-2.741246E-4,-1.1224074E-3,-2.0169378E-3,3.5855443E-5,-6.116066E-5],"categories":[],"categories_nodes":[],"categories_segments":[],"categories_sizes":[],"default_left":[0,0,0,0,0,0,0,0,0,0,0,0,0],"id":75,"left_children":[1,3,-1,5,7,9,-1,11,-1,-1,-1,-1,-1],"loss_changes":[9.908199E-3,1.4550686E-3,0E0,5.838573E-4,2.6514572E-5,1.3199449E-4,0E0,4.267964E-6,0E0,0E0,0E0,0E0,0E0],"parents":[2147483647,0,0,1,1,3,3,4,4,5,5,7,7],"right_children":[2,4,-1,6,8,10,-1,12,-1,-1,-1,-1,-1],"split_conditions":[1.8251661E1,7.5229187E0,2.4912357E-3,1.5092744E1,1.8916286E1,7.5229187E0,-1.7188587E-4,7.5229187E0,-2.741246E-4,-1.1224074E-3,-2.0169378E-3,3.5855443E-5,-6.116066E-5],"split_indices":[63,27,0,0,18,45,0,18,0,0,0,0,0],"split_type":[0,0,0,0,0,0,0,0,0,0,0,0,0],"sum_hessian":[8.03E2,8.02E2,1E0,7.98E2,4E0,7.96E2,2E0,3E0,1E0,7.95E2,1E0,1E0,2E0],"tree_param":{"num_deleted":"0","num_feature":"72","num_nodes":"13","size_leaf_vector":"1"}},{"base_weights":[-2.8449556E-2,-3.448023E-2,1.5208654E0,-3.4623396E-2,-5.765588E-3,1.11635946E-1,2.4289608E-3,-1.7351141E-3,-3.097499E-3,-3.3073823E-4,-5.9222064E-5,3.4959055E-5,-2.672715E-4],"categories":[],"categories_nodes":[],"categories_segments":[],"categories_sizes":[],"default_left":[0,0,0,0,0,0,0,0,0,0,0,0,0],"id":76,"left_children":[1,3,5,7,9,-1,-1,-1,11,-1,-1,-1,-1],"loss_changes":[7.2281804E0,2.949357E-3,3.0356927E0,1.7876029E-3,1.1616197E-5,0E0,0E0,0E0,2.9341443E-5,0E0,0E0,0E0,0E0],"parents":[2147483647,0,0,1,1,2,2,3,3,4,4,8,8],"right_children":[2,4,6,8,10,-1,-1,-1,12,-1,-1,-1,-1],"split_conditions":[1.8251661E1,7.5229187E0,7.5229187E0,7.5229187E0,1.5092744E1,1.11635946E-1,2.4289608E-3,-1.7351141E-3,7.5229187E0,-3.3073823E-4,-5.9222064E-5,3.4959055E-5,-2.672715E-4],"split_indices":[63,0,54,27,18,0,0,0,18,0,0,0,0],"split_type":[0,0,0,0,0,0,0,0,0,0,0,0,0],"sum_hessian":[7.67E2,7.65E2,2E0,7.61E2,4E0,1E0,1E0,7.59E2,2E0,3E0,1E0,1E0,1E0],"tree_param":{"num_deleted":"0","num_feature":"72","num_nodes":"13","size_leaf_vector":"1"}},{"base_weights":[8.199927E-3,2.5967276E-3,1.4828438E0,2.6289138E-3,-6.733814E-3,1.0884505E-1,2.3682357E-3,1.3249986E-4,-3.7782504E-3,-4.0397348E-4,-1.01062564E-4,-2.27791E-5,-2.605897E-4],"categories":[],"categories_nodes":[],"categories_segments":[],"categories_sizes":[],"default_left":[0,0,0,0,0,0,0,0,0,0,0,0,0],"id":77,"left_children":[1,3,5,7,9,-1,-1,-1,11,-1,-1,-1,-1],"loss_changes":[6.5484896E0,2.552513E-4,2.8858056E0,1.16594136E-4,2.6938214E-6,0E0,0E0,0E0,1.191517E-5,0E0,0E0,0E0,0E0],"parents":[2147483647,0,0,1,1,2,2,3,3,4,4,8,8],"right_children":[2,4,6,8,10,-1,-1,-1,12,-1,-1,-1,-1],"split_conditions":[7.5229187E0,7.5229187E0,7.5229187E0,7.5229187E0,1.5092744E1,1.0884505E-1,2.3682357E-3,1.3249986E-4,7.5229187E0,-4.0397348E-4,-1.01062564E-4,-2.27791E-5,-2.605897E-4],"split_indices":[63,0,54,18,0,0,0,0,9,0,0,0,0],"split_type":[0,0,0,0,0,0,0,0,0,0,0,0,0],"sum_hessian":[7.92E2,7.9E2,2E0,7.88E2,2E0,1E0,1E0,7.86E2,2E0,1E0,1E0,1E0,1E0],"tree_param":{"num_deleted":"0","num_feature":"72","num_nodes":"13","size_leaf_vector":"1"}},{"base_weights":[1.9687256E-2,1.4112751E-2,1.4457728E0,1.4572945E-2,-5.4277335E-3,1.06123924E-1,2.3090362E-3,1.4684528E-2,-5.413868E-3,7.377615E-4,-1.22756E-4,-3.4865504E-4,-1.0250063E-4],"categories":[],"categories_nodes":[],"categories_segments":[],"categories_sizes":[],"default_left":[0,0,0,0,0,0,0,0,0,0,0,0,0],"id":78,"left_children":[1,3,5,7,-1,-1,-1,9,11,-1,-1,-1,-1],"loss_changes":[6.124731E0,4.5105577E-2,2.7433186E0,1.7945319E-3,0E0,0E0,0E0,9.6322596E-4,1.1930228E-5,0E0,0E0,0E0,0E0],"parents":[2147483647,0,0,1,1,2,2,3,3,7,7,8,8],"right_children":[2,4,6,8,-1,-1,-1,10,12,-1,-1,-1,-1],"split_conditions":[1.8251661E1,1.8251661E1,1.8916286E1,7.5229187E0,-5.4277335E-3,1.06123924E-1,2.3090362E-3,7.5229187E0,1.8251661E1,7.377615E-4,-1.22756E-4,-3.4865504E-4,-1.0250063E-4],"split_indices":[63,45,63,0,0,0,0,27,0,0,0,0,0],"split_type":[0,0,0,0,0,0,0,0,0,0,0,0,0],"sum_hessian":[7.72E2,7.7E2,2E0,7.68E2,2E0,1E0,1E0,7.64E2,4E0,7.61E2,3E0,2E0,2E0],"tree_param":{"num_deleted":"0","num_feature":"72","num_nodes":"13","size_leaf_vector":"1"}},{"base_weights":[7.992932E-3,2.6055917E-3,1.4096285E0,3.0158733E-3,-5.2468074E-3,1.03470825E-1,2.2513152E-3,3.0651393E-3,-5.2334056E-3,1.5435104E-4,-1.8009786E-4,-3.370332E-4,-9.908395E-5],"categories":[],"categories_nodes":[],"categories_segments":[],"categories_sizes":[],"default_left":[0,0,0,0,0,0,0,0,0,0,0,0,0],"id":79,"left_children":[1,3,5,7,-1,-1,-1,9,11,-1,-1,-1,-1],"loss_changes":[5.91638E0,3.4820184E-2,2.6078658E0,3.3304095E-4,0E0,0E0,0E0,1.2432644E-4,1.1148135E-5,0E0,0E0,0E0,0E0],"parents":[2147483647,0,0,1,1,2,2,3,3,7,7,8,8],"right_children":[2,4,6,8,-1,-1,-1,10,12,-1,-1,-1,-1],"split_conditions":[1.8251661E1,7.5229187E0,1.8916286E1,7.5229187E0,-5.2468074E-3,1.03470825E-1,2.2513152E-3,7.5229187E0,1.8251661E1,1.5435104E-4,-1.8009786E-4,-3.370332E-4,-9.908395E-5],"split_indices":[63,63,63,0,0,0,0,18,0,0,0,0,0],"split_type":[0,0,0,0,0,0,0,0,0,0,0,0,0],"sum_hessian":[7.83E2,7.81E2,2E0,7.79E2,2E0,1E0,1E0,7.75E2,4E0,7.73E2,2E0,2E0,2E0],"tree_param":{"num_deleted":"0","num_feature":"72","num_nodes":"13","size_leaf_vector":"1"}},{"base_weights":[1.7790519E-2,1.2606556E-2,1.0088406E-1,1.3032853E-2,-5.071913E-3,1.3113874E-2,-2.9109727E-4,6.580813E-4,-1.7409459E-4],"categories":[],"categories_nodes":[],"categories_segments":[],"categories_sizes":[],"default_left":[0,0,0,0,0,0,0,0,0],"id":80,"left_children":[1,3,-1,5,-1,7,-1,-1,-1],"loss_changes":[8.019635E0,3.90002E-2,0E0,1.2572259E-3,0E0,6.560385E-4,0E0,0E0,0E0],"parents":[2147483647,0,0,1,1,3,3,5,5],"right_children":[2,4,-1,6,-1,8,-1,-1,-1],"split_conditions":[1.8251661E1,1.5092744E1,1.0088406E-1,7.5229187E0,-5.071913E-3,7.5229187E0,-2.9109727E-4,6.580813E-4,-1.7409459E-4],"split_indices":[63,45,0,0,0,36,0,0,0],"split_type":[0,0,0,0,0,0,0,0,0],"sum_hessian":[7.75E2,7.74E2,1E0,7.72E2,2E0,7.69E2,3E0,7.67E2,2E0],"tree_param":{"num_deleted":"0","num_feature":"72","num_nodes":"9","size_leaf_vector":"1"}},{"base_weights":[-2.4253048E-2,-2.3951251E-2,-7.681361E-2,-2.406802E-2,-1.1084361E-3,-2.5543451E-2,-5.765602E-3,-1.2047365E-3,-8.6218955E-5,1.9532617E-3,-3.800655E-3,-3.2708645E-4,-1.5886724E-3,1.5678053E-4,-1.0285911E-5,-2.4215123E-4,-4.2897907E-5],"categories":[],"categories_nodes":[],"categories_segments":[],"categories_sizes":[],"default_left":[0,0,0,0,0,0,0,0,0,0,0,0,0,0,0,0,0],"id":81,"left_children":[1,3,5,7,9,11,-1,-1,-1,13,15,-1,-1,-1,-1,-1,-1],"loss_changes":[1.0533035E-2,2.0458102E-3,4.9498156E-3,4.197955E-4,4.8637477E-5,1.472889E-4,0E0,0E0,0E0,8.303055E-6,5.047019E-6,0E0,0E0,0E0,0E0,0E0,0E0],"parents":[2147483647,0,0,1,1,2,2,3,3,4,4,5,5,9,9,10,10],"right_children":[2,4,6,8,10,12,-1,-1,-1,14,16,-1,-1,-1,-1,-1,-1],"split_conditions":[1.5092744E1,7.5229187E0,7.5229187E0,7.5229187E0,7.5229187E0,1.8916286E1,-5.765602E-3,-1.2047365E-3,-8.6218955E-5,7.5229187E0,1.8916286E1,-3.2708645E-4,-1.5886724E-3,1.5678053E-4,-1.0285911E-5,-2.4215123E-4,-4.2897907E-5],"split_indices":[54,27,36,9,9,54,0,0,0,18,9,0,0,0,0,0,0],"split_type":[0,0,0,0,0,0,0,0,0,0,0,0,0,0,0,0,0],"sum_hessian":[7.79E2,7.76E2,3E0,7.72E2,4E0,2E0,1E0,7.71E2,1E0,2E0,2E0,1E0,1E0,1E0,1E0,1E0,1E0],"tree_param":{"num_deleted":"0","num_feature":"72","num_nodes":"17","size_leaf_vector":"1"}},{"base_weights":[-3.0236961E-3,-2.6700823E-3,-4.78028E-3,-2.6811599E-3,1.5286102E-4,-2.6684385E-3,-3.189087E-4,-1.3274996E-4,-2.3261248E-4],"categories":[],"categories_nodes":[],"categories_segments":[],"categories_sizes":[],"default_left":[0,0,0,0,0,0,0,0,0],"id":82,"left_children":[1,3,-1,5,-1,7,-1,-1,-1],"loss_changes":[2.5804367E-2,5.8571808E-5,0E0,2.0275358E-5,0E0,8.764677E-6,0E0,0E0,0E0],"parents":[2147483647,0,0,1,1,3,3,5,5],"right_children":[2,4,-1,6,-1,8,-1,-1,-1],"split_conditions":[1.8251661E1,1.8251661E1,-4.78028E-3,7.5229187E0,1.5286102E-4,7.5229187E0,-3.189087E-4,-1.3274996E-4,-2.3261248E-4],"split_indices":[45,36,0,54,0,0,0,0,0],"split_type":[0,0,0,0,0,0,0,0,0],"sum_hessian":[7.95E2,7.93E2,2E0,7.92E2,1E0,7.91E2,1E0,7.88E2,3E0],"tree_param":{"num_deleted":"0","num_feature":"72","num_nodes":"9","size_leaf_vector":"1"}},{"base_weights":[1.5410567E-2,1.0544872E-2,1.3077923E0,1.0833512E-2,-5.5019553E-3,9.839537E-2,-3.1094553E-4,1.0897771E-2,-4.662489E-3,5.455908E-4,-6.710014E-6,-2.8682585E-4,-3.6010148E-5],"categories":[],"categories_nodes":[],"categories_segments":[],"categories_sizes":[],"default_left":[0,0,0,0,0,0,0,0,0,0,0,0,0],"id":83,"left_children":[1,3,5,7,-1,-1,-1,9,11,-1,-1,-1,-1],"loss_changes":[5.029454E0,2.903635E-2,2.6144342E0,8.4643066E-4,0E0,0E0,0E0,1.2480468E-4,1.2805045E-5,0E0,0E0,0E0,0E0],"parents":[2147483647,0,0,1,1,2,2,3,3,7,7,8,8],"right_children":[2,4,6,8,-1,-1,-1,10,12,-1,-1,-1,-1],"split_conditions":[1.5092744E1,1.8251661E1,1.8916286E1,7.5229187E0,-5.5019553E-3,9.839537E-2,-3.1094553E-4,7.5229187E0,1.8251661E1,5.455908E-4,-6.710014E-6,-2.8682585E-4,-3.6010148E-5],"split_indices":[63,45,63,0,0,0,0,18,0,0,0,0,0],"split_type":[0,0,0,0,0,0,0,0,0,0,0,0,0],"sum_hessian":[8.01E2,7.99E2,2E0,7.98E2,1E0,1E0,1E0,7.95E2,3E0,7.94E2,1E0,2E0,1E0],"tree_param":{"num_deleted":"0","num_feature":"72","num_nodes":"13","size_leaf_vector":"1"}},{"base_weights":[1.628125E-2,1.1449749E-2,1.2750975E0,1.1951727E-2,-6.1691604E-3,9.5935486E-2,-3.0317306E-4,1.1994582E-2,-3.1887095E-3,6.013348E-4,-3.2635007E-4,-6.542264E-6,-2.3261095E-4],"categories":[],"categories_nodes":[],"categories_segments":[],"categories_sizes":[],"default_left":[0,0,0,0,0,0,0,0,0,0,0,0,0],"id":84,"left_children":[1,3,5,7,-1,-1,-1,9,11,-1,-1,-1,-1],"loss_changes":[4.771915E0,5.460599E-2,2.4853463E0,5.46284E-4,0E0,0E0,0E0,5.4303557E-4,1.2816918E-5,0E0,0E0,0E0,0E0],"parents":[2147483647,0,0,1,1,2,2,3,3,7,7,8,8],"right_children":[2,4,6,8,-1,-1,-1,10,12,-1,-1,-1,-1],"split_conditions":[1.8251661E1,1.8251661E1,7.5229187E0,7.5229187E0,-6.1691604E-3,9.5935486E-2,-3.0317306E-4,7.5229187E0,1.8916286E1,6.013348E-4,-3.2635007E-4,-6.542264E-6,-2.3261095E-4],"split_indices":[63,45,54,18,0,0,0,0,18,0,0,0,0],"split_type":[0,0,0,0,0,0,0,0,0,0,0,0,0],"sum_hessian":[7.86E2,7.84E2,2E0,7.82E2,2E0,1E0,1E0,7.8E2,2E0,7.79E2,1E0,1E0,1E0],"tree_param":{"num_deleted":"0","num_feature":"72","num_nodes":"13","size_leaf_vector":"1"}},{"base_weights":[1.7914727E-2,1.8209035E-2,-5.2101775E-3,1.83223E-2,-2.7624406E-3,1.8379513E-2,-2.3363335E-3,-1.185094E-3,-2.2679567E-4,9.203953E-4,-8.138864E-5,-2.9559137E-4,1.2036634E-4,-6.378708E-6,-7.475379E-5],"categories":[],"categories_nodes":[],"categories_segments":[],"categories_sizes":[],"default_left":[0,0,0,0,0,0,0,0,0,0,0,0,0,0,0],"id":85,"left_children":[1,3,-1,5,7,9,11,13,-1,-1,-1,-1,-1,-1,-1],"loss_changes":[2.9571414E-2,1.8772483E-3,0E0,9.471178E-4,8.611423E-6,4.633665E-4,6.511448E-5,1.1205148E-6,0E0,0E0,0E0,0E0,0E0,0E0,0E0],"parents":[2147483647,0,0,1,1,3,3,4,4,5,5,6,6,7,7],"right_children":[2,4,-1,6,8,10,12,14,-1,-1,-1,-1,-1,-1,-1],"split_conditions":[1.8251661E1,7.5229187E0,-5.2101775E-3,7.5229187E0,1.8916286E1,7.5229187E0,7.5229187E0,7.5229187E0,-2.2679567E-4,9.203953E-4,-8.138864E-5,-2.9559137E-4,1.2036634E-4,-6.378708E-6,-7.475379E-5],"split_indices":[45,18,0,54,18,0,27,0,0,0,0,0,0,0,0],"split_type":[0,0,0,0,0,0,0,0,0,0,0,0,0,0,0],"sum_hessian":[7.69E2,7.68E2,1E0,7.64E2,4E0,7.62E2,2E0,3E0,1E0,7.61E2,1E0,1E0,1E0,1E0,2E0],"tree_param":{"num_deleted":"0","num_feature":"72","num_nodes":"15","size_leaf_vector":"1"}},{"base_weights":[1.2188402E-2,7.5740768E-3,9.3514085E-2,8.023877E-3,-5.789851E-3,8.063314E-3,-5.219628E-3,4.0473798E-4,-1.5156335E-4,-3.1615663E-4,-7.531552E-5],"categories":[],"categories_nodes":[],"categories_segments":[],"categories_sizes":[],"default_left":[0,0,0,0,0,0,0,0,0,0,0],"id":86,"left_children":[1,3,-1,5,-1,7,9,-1,-1,-1,-1],"loss_changes":[6.922077E0,4.5766976E-2,0E0,4.6303868E-4,0E0,3.0504912E-4,2.7683855E-6,0E0,0E0,0E0,0E0],"parents":[2147483647,0,0,1,1,3,3,5,5,6,6],"right_children":[2,4,-1,6,-1,8,10,-1,-1,-1,-1],"split_conditions":[1.8251661E1,1.8251661E1,9.3514085E-2,7.5229187E0,-5.789851E-3,7.5229187E0,1.5092744E1,4.0473798E-4,-1.5156335E-4,-3.1615663E-4,-7.531552E-5],"split_indices":[63,45,0,0,0,18,0,0,0,0,0],"split_type":[0,0,0,0,0,0,0,0,0,0,0],"sum_hessian":[8.08E2,8.07E2,1E0,8.05E2,2E0,8.03E2,2E0,8.01E2,2E0,1E0,1E0],"tree_param":{"num_deleted":"0","num_feature":"72","num_nodes":"11","size_leaf_vector":"1"}},{"base_weights":[8.004605E-3,8.587146E-3,-5.510674E-3,8.650528E-3,-3.1954797E-3,4.33354E-4,1.3974477E-3,-1.8412019E-4,-3.1194602E-5,1.0723873E-4,-2.430156E-6],"categories":[],"categories_nodes":[],"categories_segments":[],"categories_sizes":[],"default_left":[0,0,0,0,0,0,0,0,0,0,0],"id":87,"left_children":[1,3,-1,5,7,-1,9,-1,-1,-1,-1],"loss_changes":[5.610878E-2,6.236024E-4,0E0,8.3208084E-5,3.963414E-6,0E0,3.3462616E-6,0E0,0E0,0E0,0E0],"parents":[2147483647,0,0,1,1,3,3,4,4,6,6],"right_children":[2,4,-1,6,8,-1,10,-1,-1,-1,-1],"split_conditions":[1.5092744E1,7.5229187E0,-5.510674E-3,7.5229187E0,1.8916286E1,4.33354E-4,7.5229187E0,-1.8412019E-4,-3.1194602E-5,1.0723873E-4,-2.430156E-6],"split_indices":[54,9,0,36,9,0,18,0,0,0,0],"split_type":[0,0,0,0,0,0,0,0,0,0,0],"sum_hessian":[8E2,7.97E2,3E0,7.93E2,4E0,7.91E2,2E0,3E0,1E0,1E0,1E0],"tree_param":{"num_deleted":"0","num_feature":"72","num_nodes":"11","size_leaf_vector":"1"}},{"base_weights":[8.803206E-3,9.376655E-3,-5.3040287E-3,9.434159E-3,-4.223693E-3,4.726542E-4,1.3625115E-3,-3.1908654E-4,-6.885517E-5,1.04557774E-4,-2.3694022E-6],"categories":[],"categories_nodes":[],"categories_segments":[],"categories_sizes":[],"default_left":[0,0,0,0,0,0,0,0,0,0,0],"id":88,"left_children":[1,3,-1,5,7,-1,9,-1,-1,-1,-1],"loss_changes":[5.297412E-2,6.545484E-4,0E0,1.0673702E-4,1.578388E-5,0E0,3.18104E-6,0E0,0E0,0E0,0E0],"parents":[2147483647,0,0,1,1,3,3,4,4,6,6],"right_children":[2,4,-1,6,8,-1,10,-1,-1,-1,-1],"split_conditions":[1.5092744E1,7.5229187E0,-5.3040287E-3,7.5229187E0,1.5092744E1,4.726542E-4,7.5229187E0,-3.1908654E-4,-6.885517E-5,1.04557774E-4,-2.3694022E-6],"split_indices":[54,0,0,36,0,0,18,0,0,0,0],"split_type":[0,0,0,0,0,0,0,0,0,0,0],"sum_hessian":[7.88E2,7.85E2,3E0,7.82E2,3E0,7.8E2,2E0,1E0,2E0,1E0,1E0],"tree_param":{"num_deleted":"0","num_feature":"72","num_nodes":"11","size_leaf_vector":"1"}},{"base_weights":[-2.3688566E-2,-2.8238872E-2,1.1839718E0,-2.8113112E-2,-3.1897426E-3,9.115358E-2,-2.3556948E-3,-2.820244E-2,-1.7546467E-4,-1.4121755E-3,1.0194383E-4],"categories":[],"categories_nodes":[],"categories_segments":[],"categories_sizes":[],"default_left":[0,0,0,0,0,0,0,0,0,0,0],"id":89,"left_children":[1,3,5,7,-1,-1,-1,9,-1,-1,-1],"loss_changes":[4.3911467E0,1.7434955E-3,2.4462514E0,1.63728E-3,0E0,0E0,0E0,1.034975E-3,0E0,0E0,0E0],"parents":[2147483647,0,0,1,1,2,2,3,3,7,7],"right_children":[2,4,6,8,-1,-1,-1,10,-1,-1,-1],"split_conditions":[1.8251661E1,1.8251661E1,7.5229187E0,7.5229187E0,-3.1897426E-3,9.115358E-2,-2.3556948E-3,7.5229187E0,-1.7546467E-4,-1.4121755E-3,1.0194383E-4],"split_indices":[63,45,54,9,0,0,0,27,0,0,0],"split_type":[0,0,0,0,0,0,0,0,0,0,0],"sum_hessian":[7.92E2,7.9E2,2E0,7.89E2,1E0,1E0,1E0,7.86E2,3E0,7.85E2,1E0],"tree_param":{"num_deleted":"0","num_feature":"72","num_nodes":"11","size_leaf_vector":"1"}},{"base_weights":[1.4940317E-2,1.0561188E-2,1.1543726E0,1.0733552E-2,-3.1099976E-3,8.887475E-2,-2.2968054E-3,1.0792157E-2,-1.6888474E-4,5.4075196E-4,6.302431E-5],"categories":[],"categories_nodes":[],"categories_segments":[],"categories_sizes":[],"default_left":[0,0,0,0,0,0,0,0,0,0,0],"id":90,"left_children":[1,3,5,7,-1,-1,-1,9,-1,-1,-1],"loss_changes":[3.9097285E0,1.0500088E-2,2.3254693E0,6.839782E-4,0E0,0E0,0E0,1.5649945E-4,0E0,0E0,0E0],"parents":[2147483647,0,0,1,1,2,2,3,3,7,7],"right_children":[2,4,6,8,-1,-1,-1,10,-1,-1,-1],"split_conditions":[1.8251661E1,1.8251661E1,7.5229187E0,7.5229187E0,-3.1099976E-3,8.887475E-2,-2.2968054E-3,7.5229187E0,-1.6888474E-4,5.4075196E-4,6.302431E-5],"split_indices":[63,45,54,9,0,0,0,27,0,0,0],"split_type":[0,0,0,0,0,0,0,0,0,0,0],"sum_hessian":[7.85E2,7.83E2,2E0,7.82E2,1E0,1E0,1E0,7.79E2,3E0,7.77E2,2E0],"tree_param":{"num_deleted":"0","num_feature":"72","num_nodes":"11","size_leaf_vector":"1"}},{"base_weights":[1.3353215E-2,9.128962E-3,1.1255131E0,9.293632E-3,-3.0322492E-3,8.6652875E-2,-2.2393942E-3,9.362658E-3,-3.4435664E-3,4.7020902E-4,-5.6340225E-5,-2.8932377E-4,-7.056103E-5],"categories":[],"categories_nodes":[],"categories_segments":[],"categories_sizes":[],"default_left":[0,0,0,0,0,0,0,0,0,0,0,0,0],"id":91,"left_children":[1,3,5,7,-1,-1,-1,9,11,-1,-1,-1,-1],"loss_changes":[3.724671E0,9.674951E-3,2.2106497E0,7.285625E-4,0E0,0E0,0E0,3.5381317E-4,1.564201E-5,0E0,0E0,0E0,0E0],"parents":[2147483647,0,0,1,1,2,2,3,3,7,7,8,8],"right_children":[2,4,6,8,-1,-1,-1,10,12,-1,-1,-1,-1],"split_conditions":[1.8251661E1,1.8251661E1,7.5229187E0,7.5229187E0,-3.0322492E-3,8.6652875E-2,-2.2393942E-3,7.5229187E0,1.5092744E1,4.7020902E-4,-5.6340225E-5,-2.8932377E-4,-7.056103E-5],"split_indices":[63,45,54,0,0,0,0,27,0,0,0,0,0],"split_type":[0,0,0,0,0,0,0,0,0,0,0,0,0],"sum_hessian":[7.94E2,7.92E2,2E0,7.91E2,1E0,1E0,1E0,7.87E2,4E0,7.84E2,3E0,1E0,3E0],"tree_param":{"num_deleted":"0","num_feature":"72","num_nodes":"13","size_leaf_vector":"1"}},{"base_weights":[-1.8325914E-2,-2.2534229E-2,1.0973753E0,-2.2216802E-2,-4.9253027E-3,8.448656E-2,-2.1834136E-3,-1.1134621E-3,-5.2729658E-5],"categories":[],"categories_nodes":[],"categories_segments":[],"categories_sizes":[],"default_left":[0,0,0,0,0,0,0,0,0],"id":92,"left_children":[1,3,5,7,-1,-1,-1,-1,-1],"loss_changes":[3.74804E0,1.688686E-2,2.1014988E0,8.52108E-4,0E0,0E0,0E0,0E0,0E0],"parents":[2147483647,0,0,1,1,2,2,3,3],"right_children":[2,4,6,8,-1,-1,-1,-1,-1],"split_conditions":[1.8251661E1,7.5229187E0,7.5229187E0,7.5229187E0,-4.9253027E-3,8.448656E-2,-2.1834136E-3,-1.1134621E-3,-5.2729658E-5],"split_indices":[63,45,54,9,0,0,0,0,0],"split_type":[0,0,0,0,0,0,0,0,0],"sum_hessian":[7.92E2,7.9E2,2E0,7.88E2,2E0,1E0,1E0,7.86E2,2E0],"tree_param":{"num_deleted":"0","num_feature":"72","num_nodes":"9","size_leaf_vector":"1"}},{"base_weights":[1.5634295E-2,1.6006885E-2,-4.291478E-3,1.608348E-2,-2.7779695E-3,8.046403E-4,2.223607E-4,-1.7386307E-4,-1.7002356E-5],"categories":[],"categories_nodes":[],"categories_segments":[],"categories_sizes":[],"default_left":[0,0,0,0,0,0,0,0,0],"id":93,"left_children":[1,3,-1,5,7,-1,-1,-1,-1],"loss_changes":[3.074789E-2,1.1598021E-3,0E0,1.2204051E-5,5.6368444E-6,0E0,0E0,0E0,0E0],"parents":[2147483647,0,0,1,1,3,3,4,4],"right_children":[2,4,-1,6,8,-1,-1,-1,-1],"split_conditions":[1.5092744E1,7.5229187E0,-4.291478E-3,7.5229187E0,1.8916286E1,8.046403E-4,2.223607E-4,-1.7386307E-4,-1.7002356E-5],"split_indices":[54,9,0,36,9,0,0,0,0],"split_type":[0,0,0,0,0,0,0,0,0],"sum_hessian":[7.76E2,7.74E2,2E0,7.71E2,3E0,7.7E2,1E0,2E0,1E0],"tree_param":{"num_deleted":"0","num_feature":"72","num_nodes":"9","size_leaf_vector":"1"}},{"base_weights":[-2.7688975E-2,-3.1764645E-2,1.0711027E0,-3.1929668E-2,9.2623744E-4,8.235426E-2,-2.0215511E-3,-1.6002279E-3,-7.07865E-5,2.1956624E-4,-2.8475956E-3,-1.9699238E-4,-1.6577298E-5],"categories":[],"categories_nodes":[],"categories_segments":[],"categories_sizes":[],"default_left":[0,0,0,0,0,0,0,0,0,0,0,0,0],"id":94,"left_children":[1,3,5,7,9,-1,-1,-1,-1,-1,11,-1,-1],"loss_changes":[3.6345854E0,4.356265E-3,1.9872649E0,1.778245E-3,7.788802E-5,0E0,0E0,0E0,0E0,0E0,6.938242E-6,0E0,0E0],"parents":[2147483647,0,0,1,1,2,2,3,3,4,4,10,10],"right_children":[2,4,6,8,10,-1,-1,-1,-1,-1,12,-1,-1],"split_conditions":[1.8251661E1,7.5229187E0,7.5229187E0,7.5229187E0,7.5229187E0,8.235426E-2,-2.0215511E-3,-1.6002279E-3,-7.07865E-5,2.1956624E-4,1.8916286E1,-1.9699238E-4,-1.6577298E-5],"split_indices":[63,27,54,9,9,0,0,0,0,0,9,0,0],"split_type":[0,0,0,0,0,0,0,0,0,0,0,0,0],"sum_hessian":[8.03E2,8.01E2,2E0,7.97E2,4E0,1E0,1E0,7.95E2,2E0,2E0,2E0,1E0,1E0],"tree_param":{"num_deleted":"0","num_feature":"72","num_nodes":"13","size_leaf_vector":"1"}},{"base_weights":[-3.897626E-3,-7.903711E-3,1.0443252E0,-7.57369E-3,-4.564735E-3,8.02954E-2,-1.9710064E-3,-7.6094363E-3,2.1224737E-4,-3.81635E-4,-5.9401642E-5],"categories":[],"categories_nodes":[],"categories_segments":[],"categories_sizes":[],"default_left":[0,0,0,0,0,0,0,0,0,0,0],"id":95,"left_children":[1,3,5,7,-1,-1,-1,9,-1,-1,-1],"loss_changes":[3.30888E0,2.0884875E-2,1.8891432E0,3.6267564E-4,0E0,0E0,0E0,1.07456E-4,0E0,0E0,0E0],"parents":[2147483647,0,0,1,1,2,2,3,3,7,7],"right_children":[2,4,6,8,-1,-1,-1,10,-1,-1,-1],"split_conditions":[1.8251661E1,1.8251661E1,1.8916286E1,1.8251661E1,-4.564735E-3,8.02954E-2,-1.9710064E-3,1.5092744E1,2.1224737E-4,-3.81635E-4,-5.9401642E-5],"split_indices":[63,45,63,27,0,0,0,0,0,0,0],"split_type":[0,0,0,0,0,0,0,0,0,0,0],"sum_hessian":[7.85E2,7.83E2,2E0,7.81E2,2E0,1E0,1E0,7.79E2,2E0,7.76E2,3E0],"tree_param":{"num_deleted":"0","num_feature":"72","num_nodes":"11","size_leaf_vector":"1"}},{"base_weights":[1.0153989E-2,1.0479028E-2,-3.979128E-3,1.0548994E-2,-2.7133736E-3,5.2785873E-4,1.0175234E-4,-2.2482355E-4,-5.717408E-5],"categories":[],"categories_nodes":[],"categories_segments":[],"categories_sizes":[],"default_left":[0,0,0,0,0,0,0,0,0],"id":96,"left_children":[1,3,-1,5,7,-1,-1,-1,-1],"loss_changes":[2.4139047E-2,7.6426566E-4,0E0,3.375113E-5,8.85472E-6,0E0,0E0,0E0,0E0],"parents":[2147483647,0,0,1,1,3,3,4,4],"right_children":[2,4,-1,6,8,-1,-1,-1,-1],"split_conditions":[1.5092744E1,7.5229187E0,-3.979128E-3,7.5229187E0,1.5092744E1,5.2785873E-4,1.0175234E-4,-2.2482355E-4,-5.717408E-5],"split_indices":[54,0,0,18,0,0,0,0,0],"split_type":[0,0,0,0,0,0,0,0,0],"sum_hessian":[7.98E2,7.96E2,2E0,7.92E2,4E0,7.91E2,1E0,1E0,3E0],"tree_param":{"num_deleted":"0","num_feature":"72","num_nodes":"9","size_leaf_vector":"1"}},{"base_weights":[1.0059056E-2,1.0301361E-2,-2.8631173E-3,1.0354665E-2,-2.7883805E-3,5.1813846E-4,9.920853E-5,-2.1920298E-4,-3.9756724E-5],"categories":[],"categories_nodes":[],"categories_segments":[],"categories_sizes":[],"default_left":[0,0,0,0,0,0,0,0,0],"id":97,"left_children":[1,3,-1,5,7,-1,-1,-1,-1],"loss_changes":[1.3541825E-2,5.81488E-4,0E0,3.296137E-5,9.236403E-6,0E0,0E0,0E0,0E0],"parents":[2147483647,0,0,1,1,3,3,4,4],"right_children":[2,4,-1,6,8,-1,-1,-1,-1],"split_conditions":[7.5229187E0,7.5229187E0,-2.8631173E-3,7.5229187E0,1.5092744E1,5.1813846E-4,9.920853E-5,-2.1920298E-4,-3.9756724E-5],"split_indices":[54,0,0,18,0,0,0,0,0],"split_type":[0,0,0,0,0,0,0,0,0],"sum_hessian":[7.93E2,7.91E2,2E0,7.88E2,3E0,7.87E2,1E0,1E0,2E0],"tree_param":{"num_deleted":"0","num_feature":"72","num_nodes":"9","size_leaf_vector":"1"}},{"base_weights":[1.505912E-2,1.5201182E-2,-2.4008395E-3,7.643485E-4,-1.187757E-3,9.672832E-5,-2.4519796E-3,-3.84315E-5,-1.8755072E-4],"categories":[],"categories_nodes":[],"categories_segments":[],"categories_sizes":[],"default_left":[0,0,0,0,0,0,0,0,0],"id":98,"left_children":[1,3,-1,-1,5,-1,7,-1,-1],"loss_changes":[7.746145E-3,1.1176318E-3,0E0,0E0,2.4480076E-5,0E0,5.8637743E-6,0E0,0E0],"parents":[2147483647,0,0,1,1,4,4,6,6],"right_children":[2,4,-1,-1,6,-1,8,-1,-1],"split_conditions":[1.8251661E1,7.5229187E0,-2.4008395E-3,7.643485E-4,7.5229187E0,9.672832E-5,1.8251661E1,-3.84315E-5,-1.8755072E-4],"split_indices":[45,18,0,0,9,0,18,0,0],"split_type":[0,0,0,0,0,0,0,0,0],"sum_hessian":[7.82E2,7.81E2,1E0,7.77E2,4E0,1E0,3E0,2E0,1E0],"tree_param":{"num_deleted":"0","num_feature":"72","num_nodes":"9","size_leaf_vector":"1"}},{"base_weights":[-4.901964E-3,-4.5118304E-3,-3.963244E-3,-2.2705384E-4,2.263928E-4],"categories":[],"categories_nodes":[],"categories_segments":[],"categories_sizes":[],"default_left":[0,0,0,0,0],"id":99,"left_children":[1,3,-1,-1,-1],"loss_changes":[2.2213299E-2,2.254527E-4,0E0,0E0,0E0],"parents":[2147483647,0,0,1,1],"right_children":[2,4,-1,-1,-1],"split_conditions":[1.5092744E1,7.5229187E0,-3.963244E-3,-2.2705384E-4,2.263928E-4],"split_indices":[54,45,0,0,0],"split_type":[0,0,0,0,0],"sum_hessian":[7.77E2,7.74E2,3E0,7.72E2,2E0],"tree_param":{"num_deleted":"0","num_feature":"72","num_nodes":"5","size_leaf_vector":"1"}},{"base_weights":[-1.3221125E-2,-1.3295906E-2,1.1637325E-3,-6.662338E-4,-6.774602E-5,-2.4373736E-3,2.188464E-4,-1.771856E-4,-5.6174217E-6],"categories":[],"categories_nodes":[],"categories_segments":[],"categories_sizes":[],"default_left":[0,0,0,0,0,0,0,0,0],"id":100,"left_children":[1,3,5,-1,-1,7,-1,-1,-1],"loss_changes":[8.6420774E-4,2.516359E-4,6.8523485E-5,0E0,0E0,7.318664E-6,0E0,0E0,0E0],"parents":[2147483647,0,0,1,1,2,2,5,5],"right_children":[2,4,6,-1,-1,8,-1,-1,-1],"split_conditions":[7.5229187E0,1.5092744E1,1.8251661E1,-6.662338E-4,-6.774602E-5,7.5229187E0,2.188464E-4,-1.771856E-4,-5.6174217E-6],"split_indices":[27,0,27,0,0,0,0,0,0],"split_type":[0,0,0,0,0,0,0,0,0],"sum_hessian":[7.88E2,7.84E2,4E0,7.82E2,2E0,2E0,2E0,1E0,1E0],"tree_param":{"num_deleted":"0","num_feature":"72","num_nodes":"9","size_leaf_vector":"1"}},{"base_weights":[-1.5455156E-2,-1.52942045E-2,-2.5860749E-3,-1.53700905E-2,3.1185027E-3,-7.702523E-4,-6.548782E-5,2.1155151E-4,-5.476986E-6],"categories":[],"categories_nodes":[],"categories_segments":[],"categories_sizes":[],"default_left":[0,0,0,0,0,0,0,0,0],"id":101,"left_children":[1,3,-1,5,7,-1,-1,-1,-1],"loss_changes":[3.7268847E-3,1.1266321E-3,0E0,3.5776198E-4,1.4828605E-5,0E0,0E0,0E0,0E0],"parents":[2147483647,0,0,1,1,3,3,4,4],"right_children":[2,4,-1,6,8,-1,-1,-1,-1],"split_conditions":[1.5092744E1,7.5229187E0,-2.5860749E-3,7.5229187E0,7.5229187E0,-7.702523E-4,-6.548782E-5,2.1155151E-4,-5.476986E-6],"split_indices":[54,27,0,9,9,0,0,0,0],"split_type":[0,0,0,0,0,0,0,0,0],"sum_hessian":[7.73E2,7.71E2,2E0,7.68E2,3E0,7.66E2,2E0,2E0,1E0],"tree_param":{"num_deleted":"0","num_feature":"72","num_nodes":"9","size_leaf_vector":"1"}},{"base_weights":[-4.348694E-3,-4.245072E-3,-2.16043E-3,-4.2764936E-3,3.014096E-3,-2.1412676E-4,-6.330489E-5,2.0449977E-4,-5.3400613E-6],"categories":[],"categories_nodes":[],"categories_segments":[],"categories_sizes":[],"default_left":[0,0,0,0,0,0,0,0,0],"id":102,"left_children":[1,3,-1,5,7,-1,-1,-1,-1],"loss_changes":[3.0097775E-3,1.9354E-4,0E0,8.9285895E-6,1.3867902E-5,0E0,0E0,0E0,0E0],"parents":[2147483647,0,0,1,1,3,3,4,4],"right_children":[2,4,-1,6,8,-1,-1,-1,-1],"split_conditions":[1.8251661E1,7.5229187E0,-2.16043E-3,1.5092744E1,7.5229187E0,-2.1412676E-4,-6.330489E-5,2.0449977E-4,-5.3400613E-6],"split_indices":[45,27,0,0,0,0,0,0,0],"split_type":[0,0,0,0,0,0,0,0,0],"sum_hessian":[7.92E2,7.91E2,1E0,7.88E2,3E0,7.86E2,2E0,2E0,1E0],"tree_param":{"num_deleted":"0","num_feature":"72","num_nodes":"9","size_leaf_vector":"1"}},{"base_weights":[-1.2050409E-2,-1.5949942E-2,1.0227432E0,-1.5789198E-2,-3.5814892E-3,7.828975E-2,-1.5840054E-3,-1.5875112E-2,9.0869266E-4,-7.960816E-4,-1.3884103E-4,1.9768311E-4,-1.2195873E-4],"categories":[],"categories_nodes":[],"categories_segments":[],"categories_sizes":[],"default_left":[0,0,0,0,0,0,0,0,0,0,0,0,0],"id":103,"left_children":[1,3,5,7,-1,-1,-1,9,11,-1,-1,-1,-1],"loss_changes":[3.224307E0,5.966559E-3,1.7674241E0,1.1506081E-3,0E0,0E0,0E0,4.3594837E-4,6.0614446E-5,0E0,0E0,0E0,0E0],"parents":[2147483647,0,0,1,1,2,2,3,3,7,7,8,8],"right_children":[2,4,6,8,-1,-1,-1,10,12,-1,-1,-1,-1],"split_conditions":[1.5092744E1,1.8251661E1,7.5229187E0,7.5229187E0,-3.5814892E-3,7.828975E-2,-1.5840054E-3,7.5229187E0,7.5229187E0,-7.960816E-4,-1.3884103E-4,1.9768311E-4,-1.2195873E-4],"split_indices":[63,45,54,27,0,0,0,0,9,0,0,0,0],"split_type":[0,0,0,0,0,0,0,0,0,0,0,0,0],"sum_hessian":[7.94E2,7.92E2,2E0,7.91E2,1E0,1E0,1E0,7.87E2,4E0,7.84E2,3E0,2E0,2E0],"tree_param":{"num_deleted":"0","num_feature":"72","num_nodes":"13","size_leaf_vector":"1"}},{"base_weights":[1.8603155E-2,1.4746345E-2,9.9717456E-1,1.50759835E-2,-3.7058485E-3,7.63325E-2,-1.5444041E-3,1.5169511E-2,-2.1554125E-3,7.597205E-4,1.9109367E-4,-1.5793194E-4,-2.1685772E-5],"categories":[],"categories_nodes":[],"categories_segments":[],"categories_sizes":[],"default_left":[0,0,0,0,0,0,0,0,0,0,0,0,0],"id":104,"left_children":[1,3,5,7,-1,-1,-1,9,11,-1,-1,-1,-1],"loss_changes":[2.8838542E0,2.3555622E-2,1.6801572E0,1.2639761E-3,0E0,0E0,0E0,1.5667081E-4,7.266308E-6,0E0,0E0,0E0,0E0],"parents":[2147483647,0,0,1,1,2,2,3,3,7,7,8,8],"right_children":[2,4,6,8,-1,-1,-1,10,12,-1,-1,-1,-1],"split_conditions":[1.8251661E1,1.8251661E1,7.5229187E0,7.5229187E0,-3.7058485E-3,7.63325E-2,-1.5444041E-3,7.5229187E0,1.8251661E1,7.597205E-4,1.9109367E-4,-1.5793194E-4,-2.1685772E-5],"split_indices":[63,45,54,0,0,0,0,27,0,0,0,0,0],"split_type":[0,0,0,0,0,0,0,0,0,0,0,0,0],"sum_hessian":[7.67E2,7.65E2,2E0,7.63E2,2E0,1E0,1E0,7.59E2,4E0,7.57E2,2E0,2E0,2E0],"tree_param":{"num_deleted":"0","num_feature":"72","num_nodes":"13","size_leaf_vector":"1"}},{"base_weights":[-1.6235251E-2,-1.9940285E-2,9.722452E-1,-2.0045843E-2,7.680838E-4,7.44242E-2,-1.5058041E-3,-2.0092523E-2,-5.357306E-5,1.8472389E-4,-2.414338E-3,-1.0008952E-3,-1.9741773E-3,-1.7945991E-4,-1.6154474E-6],"categories":[],"categories_nodes":[],"categories_segments":[],"categories_sizes":[],"default_left":[0,0,0,0,0,0,0,0,0,0,0,0,0,0,0],"id":105,"left_children":[1,3,5,7,9,-1,-1,11,-1,-1,13,-1,-1,-1,-1],"loss_changes":[2.9419441E0,1.7554164E-3,1.5972002E0,6.7994E-4,5.548482E-5,0E0,0E0,3.527105E-4,0E0,0E0,8.2796905E-6,0E0,0E0,0E0,0E0],"parents":[2147483647,0,0,1,1,2,2,3,3,4,4,7,7,10,10],"right_children":[2,4,6,8,10,-1,-1,12,-1,-1,14,-1,-1,-1,-1],"split_conditions":[1.8251661E1,7.5229187E0,7.5229187E0,7.5229187E0,7.5229187E0,7.44242E-2,-1.5058041E-3,7.5229187E0,-5.357306E-5,1.8472389E-4,1.8916286E1,-1.0008952E-3,-1.9741773E-3,-1.7945991E-4,-1.6154474E-6],"split_indices":[63,27,54,9,9,0,0,45,0,0,9,0,0,0,0],"split_type":[0,0,0,0,0,0,0,0,0,0,0,0,0,0,0],"sum_hessian":[7.97E2,7.95E2,2E0,7.91E2,4E0,1E0,1E0,7.89E2,2E0,2E0,2E0,7.88E2,1E0,1E0,1E0],"tree_param":{"num_deleted":"0","num_feature":"72","num_nodes":"15","size_leaf_vector":"1"}},{"base_weights":[1.6809087E-2,1.7136104E-2,-3.5165173E-3,1.721723E-2,-2.2573983E-3,1.7248621E-2,-1.5344826E-4,-1.4944318E-4,-1.5750613E-6,8.6302817E-4,2.094093E-4],"categories":[],"categories_nodes":[],"categories_segments":[],"categories_sizes":[],"default_left":[0,0,0,0,0,0,0,0,0,0,0],"id":106,"left_children":[1,3,-1,5,7,9,-1,-1,-1,-1,-1],"loss_changes":[2.25773E-2,1.2156814E-3,0E0,5.27367E-4,6.4185115E-6,4.3720007E-5,0E0,0E0,0E0,0E0,0E0],"parents":[2147483647,0,0,1,1,3,3,4,4,5,5],"right_children":[2,4,-1,6,8,10,-1,-1,-1,-1,-1],"split_conditions":[1.8251661E1,7.5229187E0,-3.5165173E-3,7.5229187E0,1.8251661E1,7.5229187E0,-1.5344826E-4,-1.4944318E-4,-1.5750613E-6,8.6302817E-4,2.094093E-4],"split_indices":[45,9,0,0,0,27,0,0,0,0,0],"split_type":[0,0,0,0,0,0,0,0,0,0,0],"sum_hessian":[7.49E2,7.47E2,2E0,7.44E2,3E0,7.43E2,1E0,2E0,1E0,7.42E2,1E0],"tree_param":{"num_deleted":"0","num_feature":"72","num_nodes":"11","size_leaf_vector":"1"}},{"base_weights":[1.6164444E-2,1.2552924E-2,9.4736385E-1,1.284811E-2,-3.3993018E-3,7.254203E-2,-1.4897346E-3,1.2908147E-2,-1.96603E-3,6.46687E-4,-1.7123733E-4,-1.3004488E-4,-1.5356848E-6],"categories":[],"categories_nodes":[],"categories_segments":[],"categories_sizes":[],"default_left":[0,0,0,0,0,0,0,0,0,0,0,0,0],"id":107,"left_children":[1,3,5,7,-1,-1,-1,9,11,-1,-1,-1,-1],"loss_changes":[2.611283E0,1.936961E-2,1.5191567E0,7.1555376E-4,0E0,0E0,0E0,3.6740303E-4,4.8347956E-6,0E0,0E0,0E0,0E0],"parents":[2147483647,0,0,1,1,2,2,3,3,7,7,8,8],"right_children":[2,4,6,8,-1,-1,-1,10,12,-1,-1,-1,-1],"split_conditions":[1.8251661E1,7.5229187E0,7.5229187E0,7.5229187E0,-3.3993018E-3,7.254203E-2,-1.4897346E-3,7.5229187E0,1.8251661E1,6.46687E-4,-1.7123733E-4,-1.3004488E-4,-1.5356848E-6],"split_indices":[63,45,54,0,0,0,0,18,0,0,0,0,0],"split_type":[0,0,0,0,0,0,0,0,0,0,0,0,0],"sum_hessian":[7.79E2,7.77E2,2E0,7.75E2,2E0,1E0,1E0,7.72E2,3E0,7.71E2,1E0,2E0,1E0],"tree_param":{"num_deleted":"0","num_feature":"72","num_nodes":"13","size_leaf_vector":"1"}},{"base_weights":[1.613714E-2,1.2598684E-2,9.2367965E-1,1.288671E-2,-3.2859903E-3,7.072847E-2,-1.4524937E-3,1.2956885E-2,-4.6942304E-4,6.4907054E-4,-1.4636094E-4,1.3818765E-4,-9.843276E-5],"categories":[],"categories_nodes":[],"categories_segments":[],"categories_sizes":[],"default_left":[0,0,0,0,0,0,0,0,0,0,0,0,0],"id":108,"left_children":[1,3,5,7,-1,-1,-1,9,11,-1,-1,-1,-1],"loss_changes":[2.480331E0,1.8306673E-2,1.4441488E0,7.2965026E-4,0E0,0E0,0E0,3.3718348E-4,2.9677281E-5,0E0,0E0,0E0,0E0],"parents":[2147483647,0,0,1,1,2,2,3,3,7,7,8,8],"right_children":[2,4,6,8,-1,-1,-1,10,12,-1,-1,-1,-1],"split_conditions":[1.8251661E1,1.8251661E1,7.5229187E0,7.5229187E0,-3.2859903E-3,7.072847E-2,-1.4524937E-3,7.5229187E0,7.5229187E0,6.4907054E-4,-1.4636094E-4,1.3818765E-4,-9.843276E-5],"split_indices":[63,45,54,18,0,0,0,0,9,0,0,0,0],"split_type":[0,0,0,0,0,0,0,0,0,0,0,0,0],"sum_hessian":[7.75E2,7.73E2,2E0,7.71E2,2E0,1E0,1E0,7.67E2,4E0,7.66E2,1E0,1E0,3E0],"tree_param":{"num_deleted":"0","num_feature":"72","num_nodes":"13","size_leaf_vector":"1"}},{"base_weights":[1.2064919E-2,8.734529E-3,9.0058774E-1,8.993952E-3,-3.1764593E-3,6.8960264E-2,-1.4161825E-3,9.050464E-3,-1.8242255E-3,4.534491E-4,-1.427019E-4,-1.6449559E-4,-3.1766303E-5],"categories":[],"categories_nodes":[],"categories_segments":[],"categories_sizes":[],"default_left":[0,0,0,0,0,0,0,0,0,0,0,0,0],"id":109,"left_children":[1,3,5,7,-1,-1,-1,9,11,-1,-1,-1,-1],"loss_changes":[2.3771904E0,1.5643809E-2,1.3728437E0,5.0682575E-4,0E0,